0.05942368879914283752441406250000000000
0.05686942487955093383789062500000000000
0.01365085318684577941894531250000000000
0.03049387410283088684082031250000000000
0.09124145656824111938476562500000000000
-0.06461761891841888427734375000000000000
-0.05156976357102394104003906250000000000
0.01791625283658504486083984375000000000
0.15874464809894561767578125000000000000
-0.01043582893908023834228515625000000000
0.02803289331495761871337890625000000000
-0.06625556200742721557617187500000000000
0.00383920059539377689361572265625000000
0.01778637617826461791992187500000000000
0.04530218988656997680664062500000000000
0.02890562638640403747558593750000000000
-0.04367106407880783081054687500000000000
-0.05643406510353088378906250000000000000
-0.06671707332134246826171875000000000000
-0.00615520728752017021179199218750000000
-0.00964182801544666290283203125000000000
-0.00102722062729299068450927734375000000
-0.01050380896776914596557617187500000000
0.03093577921390533447265625000000000000
0.05063699930906295776367187500000000000
-0.03543013334274291992187500000000000000
0.00404293183237314224243164062500000000
-0.01533181872218847274780273437500000000
-0.04637609794735908508300781250000000000
0.04260930046439170837402343750000000000
0.01533815637230873107910156250000000000
0.06679379194974899291992187500000000000
0.03462877497076988220214843750000000000
0.01765775121748447418212890625000000000
0.00997434463351964950561523437500000000
-0.00076673238072544336318969726562500000
-0.00923333037644624710083007812500000000
-0.03446358069777488708496093750000000000
-0.03550362214446067810058593750000000000
0.03126821294426918029785156250000000000
0.01233543921262025833129882812500000000
-0.07347582280635833740234375000000000000
-0.00905103888362646102905273437500000000
-0.05764643102884292602539062500000000000
-0.03834678232669830322265625000000000000
-0.05769645050168037414550781250000000000
-0.06389065086841583251953125000000000000
-0.06124253571033477783203125000000000000
-0.01106518972665071487426757812500000000
-0.03193468600511550903320312500000000000
-0.01197759993374347686767578125000000000
-0.00876104459166526794433593750000000000
-0.02133632078766822814941406250000000000
0.01997501961886882781982421875000000000
-0.04890319332480430603027343750000000000
-0.03622742369771003723144531250000000000
-0.03194106742739677429199218750000000000
0.03172776475548744201660156250000000000
-0.02624893561005592346191406250000000000
-0.06340125203132629394531250000000000000
-0.06078773364424705505371093750000000000
-0.07494919747114181518554687500000000000
-0.00651658326387405395507812500000000000
0.03441123664379119873046875000000000000
0.01561294216662645339965820312500000000
0.00104036205448210239410400390625000000
0.00717948377132415771484375000000000000
0.02333567477762699127197265625000000000
0.04368451610207557678222656250000000000
0.01142739504575729370117187500000000000
0.01057365909218788146972656250000000000
0.07303639501333236694335937500000000000
-0.05784380808472633361816406250000000000
0.04465560242533683776855468750000000000
0.07912310957908630371093750000000000000
-0.00345852109603583812713623046875000000
-0.03209061548113822937011718750000000000
0.02263708412647247314453125000000000000
0.04150107502937316894531250000000000000
0.01816443726420402526855468750000000000
-0.02084052562713623046875000000000000000
-0.01360019389539957046508789062500000000
-0.02874719351530075073242187500000000000
-0.03178515285253524780273437500000000000
0.01268725097179412841796875000000000000
-0.03269271180033683776855468750000000000
-0.01798397488892078399658203125000000000
0.00341301131993532180786132812500000000
0.05360478162765502929687500000000000000
-0.01544807292520999908447265625000000000
-0.00126322347205132246017456054687500000
-0.01818601228296756744384765625000000000
-0.02288380637764930725097656250000000000
0.03369027748703956604003906250000000000
0.00510766729712486267089843750000000000
0.01372928265482187271118164062500000000
0.00212528696283698081970214843750000000
-0.05743380263447761535644531250000000000
0.03542042896151542663574218750000000000
0.04636254161596298217773437500000000000
-0.09214786440134048461914062500000000000
-0.04426131024956703186035156250000000000
-0.06733985245227813720703125000000000000
0.05341915413737297058105468750000000000
0.02664680220186710357666015625000000000
-0.02595895715057849884033203125000000000
-0.07578440010547637939453125000000000000
-0.02517277747392654418945312500000000000
0.10010002553462982177734375000000000000
0.04305687919259071350097656250000000000
0.01215425599366426467895507812500000000
-0.02866364642977714538574218750000000000
0.04347793012857437133789062500000000000
0.01109364442527294158935546875000000000
-0.05263685062527656555175781250000000000
-0.06676471978425979614257812500000000000
-0.04526109993457794189453125000000000000
-0.04876060411334037780761718750000000000
-0.00196646177209913730621337890625000000
-0.01063011772930622100830078125000000000