0.02756937220692634582519531250000000000
0.27553686499595642089843750000000000000
0.18465673923492431640625000000000000000
0.20270076394081115722656250000000000000
-0.05861550942063331604003906250000000000
-0.03314878046512603759765625000000000000
0.03594546765089035034179687500000000000
0.17221316695213317871093750000000000000
-0.20173902809619903564453125000000000000
-0.08911696076393127441406250000000000000
-0.01990739069879055023193359375000000000
0.04425270855426788330078125000000000000
-0.25529506802558898925781250000000000000
-0.25034055113792419433593750000000000000
-0.25675007700920104980468750000000000000
0.10604275763034820556640625000000000000
-0.06570310890674591064453125000000000000
0.00853197183459997177124023437500000000
-0.25064685940742492675781250000000000000
-0.22755758464336395263671875000000000000
0.02727252617478370666503906250000000000
-0.03511209785938262939453125000000000000
0.01419965643435716629028320312500000000
-0.13088303804397583007812500000000000000
-0.29219800233840942382812500000000000000
-0.09809755533933639526367187500000000000
0.03050757758319377899169921875000000000
-0.21263581514358520507812500000000000000
-0.28258523344993591308593750000000000000
-0.13502503931522369384765625000000000000
-0.06912872940301895141601562500000000000
0.00764679629355669021606445312500000000
-0.07365830987691879272460937500000000000
0.02287621423602104187011718750000000000
-0.03949498757719993591308593750000000000
-0.19147963821887969970703125000000000000
-0.19218064844608306884765625000000000000
0.29005530476570129394531250000000000000
0.09626518934965133666992187500000000000
0.16169470548629760742187500000000000000
-0.06063935905694961547851562500000000000
0.11140350252389907836914062500000000000
0.38076540827751159667968750000000000000
0.32548528909683227539062500000000000000
0.02725017070770263671875000000000000000
-0.33092582225799560546875000000000000000
0.08341388404369354248046875000000000000
0.17898435890674591064453125000000000000
0.26548591256141662597656250000000000000
0.15776164829730987548828125000000000000
0.18620675802230834960937500000000000000
0.17373152077198028564453125000000000000
-0.02182014659047126770019531250000000000
0.31323191523551940917968750000000000000
0.01981630921363830566406250000000000000
-0.17741490900516510009765625000000000000
-0.23308826982975006103515625000000000000
-0.21806940436363220214843750000000000000
0.19569830596446990966796875000000000000
0.17330646514892578125000000000000000000
-0.33729761838912963867187500000000000000
-0.17861372232437133789062500000000000000
-0.24295876920223236083984375000000000000
-0.01604594290256500244140625000000000000
0.20558519661426544189453125000000000000
-0.19032572209835052490234375000000000000
-0.18469704687595367431640625000000000000
-0.30128031969070434570312500000000000000
0.01833950728178024291992187500000000000
-0.03632207587361335754394531250000000000
-0.08340436220169067382812500000000000000
-0.15205359458923339843750000000000000000
0.08362894505262374877929687500000000000
0.17773960530757904052734375000000000000
0.21487268805503845214843750000000000000
0.03064070828258991241455078125000000000
-0.11936257779598236083984375000000000000
-0.08478999882936477661132812500000000000
0.21054393053054809570312500000000000000
0.18474297225475311279296875000000000000
0.26608023047447204589843750000000000000
0.16543869674205780029296875000000000000
0.18474663794040679931640625000000000000
0.01113105751574039459228515625000000000
0.02072473987936973571777343750000000000
0.05604862049221992492675781250000000000
0.19165873527526855468750000000000000000
-0.09064704179763793945312500000000000000
-0.15717658400535583496093750000000000000
-0.14347596466541290283203125000000000000
0.01967793144285678863525390625000000000
-0.00251735583879053592681884765625000000
0.08278284966945648193359375000000000000
-0.23137909173965454101562500000000000000
-0.13823086023330688476562500000000000000
0.15914198756217956542968750000000000000
-0.10763459652662277221679687500000000000
-0.21594123542308807373046875000000000000
-0.21224674582481384277343750000000000000
-0.05394379794597625732421875000000000000
-0.20078760385513305664062500000000000000
-0.34324774146080017089843750000000000000
-0.09520374983549118041992187500000000000
0.14750495553016662597656250000000000000
-0.02543988823890686035156250000000000000
-0.02919500507414340972900390625000000000
-0.37953412532806396484375000000000000000
-0.28014191985130310058593750000000000000
-0.07466151565313339233398437500000000000
0.03580832853913307189941406250000000000
-0.34134995937347412109375000000000000000
-0.23157057166099548339843750000000000000
-0.12246005982160568237304687500000000000
0.00667187292128801345825195312500000000
-0.12412983924150466918945312500000000000
0.12091843783855438232421875000000000000
-0.04153881594538688659667968750000000000
-0.09468027204275131225585937500000000000
0.13074079155921936035156250000000000000
-0.01981379836797714233398437500000000000
0.06959705799818038940429687500000000000
0.23768097162246704101562500000000000000
0.17405106127262115478515625000000000000
0.32375010848045349121093750000000000000
0.22458405792713165283203125000000000000
-0.02912561036646366119384765625000000000
-0.08327380567789077758789062500000000000
-0.05292032286524772644042968750000000000
-0.30153632164001464843750000000000000000
-0.14451903104782104492187500000000000000
0.00828805193305015563964843750000000000
-0.21540251374244689941406250000000000000
-0.02297742106020450592041015625000000000
-0.25051030516624450683593750000000000000
-0.15354931354522705078125000000000000000
0.15425148606300354003906250000000000000
0.16003604233264923095703125000000000000
-0.23522791266441345214843750000000000000
-0.05940765887498855590820312500000000000
0.05501573905348777770996093750000000000
0.27521693706512451171875000000000000000
0.10789673030376434326171875000000000000
-0.11253932863473892211914062500000000000
-0.05594799295067787170410156250000000000
-0.16237102448940277099609375000000000000
0.34289231896400451660156250000000000000
0.29070183634757995605468750000000000000
0.03669636324048042297363281250000000000
-0.03042930364608764648437500000000000000
0.02050921134650707244873046875000000000
-0.13104572892189025878906250000000000000
0.13417223095893859863281250000000000000
-0.16502203047275543212890625000000000000
-0.03574412316083908081054687500000000000
-0.28505796194076538085937500000000000000
0.03722156211733818054199218750000000000