-0.11239920556545257568359375000000000000
0.17606826126575469970703125000000000000
0.07287757843732833862304687500000000000
-0.06859559565782546997070312500000000000
-0.20205484330654144287109375000000000000
0.04644898325204849243164062500000000000
0.20352706313133239746093750000000000000
-0.19267134368419647216796875000000000000
-0.25247430801391601562500000000000000000
0.16125142574310302734375000000000000000
0.14010806381702423095703125000000000000
-0.21695244312286376953125000000000000000
0.13300108909606933593750000000000000000
-0.01661375351250171661376953125000000000
-0.10317739099264144897460937500000000000
-0.00791737809777259826660156250000000000
0.11072152853012084960937500000000000000
-0.08761703968048095703125000000000000000
-0.01574526540935039520263671875000000000
-0.11306501924991607666015625000000000000
-0.22235599160194396972656250000000000000
0.04463317245244979858398437500000000000
-0.16213782131671905517578125000000000000
-0.00580508355051279067993164062500000000
0.08245003223419189453125000000000000000
0.00920320209115743637084960937500000000
-0.07266878336668014526367187500000000000
-0.14824314415454864501953125000000000000
0.17170500755310058593750000000000000000
0.07216487079858779907226562500000000000
0.05521923676133155822753906250000000000
-0.11399354785680770874023437500000000000
-0.14810435473918914794921875000000000000
-0.17039798200130462646484375000000000000
0.08486236631870269775390625000000000000
-0.10308779031038284301757812500000000000
-0.09966378659009933471679687500000000000
-0.21499028801918029785156250000000000000
0.17431212961673736572265625000000000000
0.13918696343898773193359375000000000000
0.03719216585159301757812500000000000000
0.17546045780181884765625000000000000000
0.04185902327299118041992187500000000000
-0.12475962936878204345703125000000000000
-0.03265515714883804321289062500000000000
0.00756637332960963249206542968750000000
0.04429723694920539855957031250000000000
-0.16035731136798858642578125000000000000
0.02904493920505046844482421875000000000
0.02554722875356674194335937500000000000
-0.14530779421329498291015625000000000000
-0.02887083031237125396728515625000000000
0.20783442258834838867187500000000000000
-0.08819967508316040039062500000000000000
-0.19878327846527099609375000000000000000
-0.11874711513519287109375000000000000000
0.07743895053863525390625000000000000000
-0.09586347639560699462890625000000000000
-0.06060654297471046447753906250000000000
0.03821730986237525939941406250000000000
0.08036170899868011474609375000000000000
0.05631762742996215820312500000000000000
-0.21714398264884948730468750000000000000
0.02730605378746986389160156250000000000
-0.16006153821945190429687500000000000000
0.12734921276569366455078125000000000000
0.18020763993263244628906250000000000000
0.04357591643929481506347656250000000000
0.14314405620098114013671875000000000000
-0.05630227550864219665527343750000000000
0.05117262527346611022949218750000000000
0.19917431473731994628906250000000000000
0.14562422037124633789062500000000000000
0.03255900740623474121093750000000000000
-0.02842463180422782897949218750000000000
-0.07397069036960601806640625000000000000
0.22608388960361480712890625000000000000
-0.08633214235305786132812500000000000000
0.18784669041633605957031250000000000000
-0.05353606119751930236816406250000000000
0.14006786048412322998046875000000000000
-0.20058818161487579345703125000000000000
0.09473723918199539184570312500000000000
-0.12908838689327239990234375000000000000
0.05383348464965820312500000000000000000
0.02189645171165466308593750000000000000
-0.18777707219123840332031250000000000000
0.03868669271469116210937500000000000000
-0.18655580282211303710937500000000000000
0.21182712912559509277343750000000000000
0.05602054297924041748046875000000000000
0.07954819500446319580078125000000000000
-0.18014101684093475341796875000000000000
0.10427068173885345458984375000000000000
-0.21147780120372772216796875000000000000
-0.00901729520410299301147460937500000000
0.05640568956732749938964843750000000000
-0.01019163243472576141357421875000000000
0.04389146342873573303222656250000000000
0.08597090095281600952148437500000000000
0.13085763156414031982421875000000000000
-0.02137786336243152618408203125000000000
0.22199648618698120117187500000000000000
-0.06135728210210800170898437500000000000
-0.06293578445911407470703125000000000000
0.10839148610830307006835937500000000000
0.03853815421462059020996093750000000000
0.15889687836170196533203125000000000000
-0.03030203655362129211425781250000000000
-0.16519492864608764648437500000000000000
-0.04314368218183517456054687500000000000
0.12712934613227844238281250000000000000
-0.06451392173767089843750000000000000000
0.09129671007394790649414062500000000000
-0.16540448367595672607421875000000000000
0.07964438945055007934570312500000000000
-0.00166473421268165111541748046875000000
0.14998534321784973144531250000000000000
-0.06665582954883575439453125000000000000
-0.05005674436688423156738281250000000000
-0.19144168496131896972656250000000000000
-0.21313294768333435058593750000000000000
0.22993899881839752197265625000000000000
-0.00820924062281847000122070312500000000
0.19316688179969787597656250000000000000
0.00852830242365598678588867187500000000
-0.02953039668500423431396484375000000000
0.06375885754823684692382812500000000000
-0.00868092011660337448120117187500000000
-0.02476730942726135253906250000000000000
0.02781850844621658325195312500000000000
-0.16793508827686309814453125000000000000
0.04240685328841209411621093750000000000
-0.04758142307400703430175781250000000000
-0.24078679084777832031250000000000000000
-0.04519266262650489807128906250000000000
0.03300293162465095520019531250000000000
-0.16200840473175048828125000000000000000
0.02576621249318122863769531250000000000
-0.11556535214185714721679687500000000000
-0.20427718758583068847656250000000000000
-0.16755913197994232177734375000000000000
-0.16510556638240814208984375000000000000
0.22841481864452362060546875000000000000
-0.14543020725250244140625000000000000000
-0.15981194376945495605468750000000000000
-0.23601247370243072509765625000000000000
0.01496739406138658523559570312500000000
0.01933136954903602600097656250000000000
0.00098216126207262277603149414062500000
0.00780414277687668800354003906250000000
-0.12427266687154769897460937500000000000
-0.08097588270902633666992187500000000000
0.15752148628234863281250000000000000000
0.02470887266099452972412109375000000000
0.02916237898170948028564453125000000000
0.09752999246120452880859375000000000000
-0.18415501713752746582031250000000000000
0.22071348130702972412109375000000000000
-0.15686160326004028320312500000000000000
0.01404055487364530563354492187500000000
-0.13850265741348266601562500000000000000
-0.02209499105811119079589843750000000000
0.19237498939037322998046875000000000000
0.03262098878622055053710937500000000000
-0.11944089829921722412109375000000000000
-0.04777597263455390930175781250000000000
-0.04573547467589378356933593750000000000
-0.05619537085294723510742187500000000000
0.11353627592325210571289062500000000000
0.24410127103328704833984375000000000000
0.01722686551511287689208984375000000000
-0.03161745518445968627929687500000000000
-0.08590602874755859375000000000000000000
0.10630003362894058227539062500000000000
0.13339993357658386230468750000000000000
-0.15953600406646728515625000000000000000
-0.10750939697027206420898437500000000000
0.00597550859674811363220214843750000000
0.04207490757107734680175781250000000000
-0.02135163731873035430908203125000000000
-0.10305812209844589233398437500000000000
0.21073679625988006591796875000000000000
0.13810032606124877929687500000000000000
0.10087575763463973999023437500000000000
-0.10545280575752258300781250000000000000
-0.10716343671083450317382812500000000000
0.21749776601791381835937500000000000000
0.09476503729820251464843750000000000000
-0.07637516409158706665039062500000000000
0.00225315522402524948120117187500000000
0.05868770927190780639648437500000000000
0.22739169001579284667968750000000000000
-0.11131123453378677368164062500000000000
-0.03062996454536914825439453125000000000
0.00924471486359834671020507812500000000
0.01775408908724784851074218750000000000
0.13221113383769989013671875000000000000
0.14032323658466339111328125000000000000
-0.03992316499352455139160156250000000000
0.22463999688625335693359375000000000000
-0.01500065345317125320434570312500000000
0.16686274111270904541015625000000000000
-0.13409052789211273193359375000000000000
0.20351685583591461181640625000000000000
-0.15895065665245056152343750000000000000
-0.07363702356815338134765625000000000000
-0.17914035916328430175781250000000000000
-0.20851746201515197753906250000000000000
0.07019099593162536621093750000000000000
0.03878235071897506713867187500000000000
0.06424193084239959716796875000000000000
0.03642547503113746643066406250000000000
0.13066799938678741455078125000000000000
0.00855901464819908142089843750000000000
0.14022026956081390380859375000000000000
0.03711267933249473571777343750000000000
-0.11639368534088134765625000000000000000
-0.00724314479157328605651855468750000000
0.12738315761089324951171875000000000000
-0.17663647234439849853515625000000000000
0.03091024607419967651367187500000000000
-0.05454778671264648437500000000000000000
0.18302263319492340087890625000000000000
0.14382065832614898681640625000000000000
0.05233127996325492858886718750000000000
0.05116542056202888488769531250000000000
0.20690223574638366699218750000000000000
0.00773925567045807838439941406250000000
0.03021531179547309875488281250000000000
-0.00847320072352886199951171875000000000
-0.06050488352775573730468750000000000000
0.05628934130072593688964843750000000000
-0.18606258928775787353515625000000000000
-0.21517369151115417480468750000000000000
-0.17154520750045776367187500000000000000
0.09499524533748626708984375000000000000
0.00937660597264766693115234375000000000
0.01549922488629817962646484375000000000
0.07183554023504257202148437500000000000
0.11378856003284454345703125000000000000
-0.17277197539806365966796875000000000000
-0.06578521430492401123046875000000000000
-0.10142111778259277343750000000000000000
-0.02515468932688236236572265625000000000
0.27185341715812683105468750000000000000
0.06569962203502655029296875000000000000
0.01913733407855033874511718750000000000
-0.06268998235464096069335937500000000000
-0.05777842923998832702636718750000000000
-0.14335548877716064453125000000000000000
-0.23414480686187744140625000000000000000
-0.07279987633228302001953125000000000000
-0.22630175948143005371093750000000000000
-0.04859609156847000122070312500000000000
-0.12257140874862670898437500000000000000
-0.07986804097890853881835937500000000000
0.03502737730741500854492187500000000000
-0.02442858181893825531005859375000000000
-0.22384476661682128906250000000000000000
0.02112764865159988403320312500000000000
0.05806804820895195007324218750000000000
0.14541748166084289550781250000000000000
-0.08240325003862380981445312500000000000
-0.14081165194511413574218750000000000000
-0.08590664714574813842773437500000000000
-0.13137540221214294433593750000000000000
0.13714800775051116943359375000000000000
0.13773614168167114257812500000000000000
-0.00521140825003385543823242187500000000
-0.04421689361333847045898437500000000000
-0.08467633277177810668945312500000000000
0.06859896332025527954101562500000000000
0.01285527925938367843627929687500000000
0.01276551559567451477050781250000000000
-0.00612888392060995101928710937500000000
0.02113197557628154754638671875000000000
-0.00646952493116259574890136718750000000
-0.00931594334542751312255859375000000000
0.25698372721672058105468750000000000000
0.10199965536594390869140625000000000000
-0.13928332924842834472656250000000000000
0.11772598326206207275390625000000000000
-0.05643388628959655761718750000000000000
-0.03979839012026786804199218750000000000
-0.14077094197273254394531250000000000000
-0.17124599218368530273437500000000000000
-0.10456094890832901000976562500000000000
-0.10573761910200119018554687500000000000
0.06746590882539749145507812500000000000
0.07697878777980804443359375000000000000
-0.05562349408864974975585937500000000000
-0.24873743951320648193359375000000000000
0.17175464332103729248046875000000000000
-0.19382461905479431152343750000000000000
-0.09722471237182617187500000000000000000
0.15691713988780975341796875000000000000
-0.00020085534197278320789337158203125000
-0.03821139410138130187988281250000000000
0.01546021364629268646240234375000000000
-0.08295013755559921264648437500000000000
0.12746112048625946044921875000000000000
-0.08755107223987579345703125000000000000
-0.06284583359956741333007812500000000000
0.02741305343806743621826171875000000000
-0.01556141208857297897338867187500000000
0.00753170764073729515075683593750000000
-0.02429375611245632171630859375000000000
0.03340924903750419616699218750000000000
0.06113043427467346191406250000000000000
-0.16810944676399230957031250000000000000
-0.27712526917457580566406250000000000000
-0.10152713954448699951171875000000000000
0.06210222095251083374023437500000000000
-0.13324368000030517578125000000000000000
0.16810379922389984130859375000000000000
0.03499938920140266418457031250000000000
0.04301430657505989074707031250000000000
-0.00355837517417967319488525390625000000
-0.17294393479824066162109375000000000000
0.27048310637474060058593750000000000000
0.01854632236063480377197265625000000000
-0.04717144742608070373535156250000000000
0.09607832878828048706054687500000000000
-0.17291401326656341552734375000000000000
-0.10973753780126571655273437500000000000
0.05015197023749351501464843750000000000
-0.00759449182078242301940917968750000000
-0.12769618630409240722656250000000000000
0.00074663810664787888526916503906250000
0.02438962087035179138183593750000000000
0.07596117258071899414062500000000000000
0.01254924852401018142700195312500000000
-0.06032624095678329467773437500000000000
-0.02162426151335239410400390625000000000
0.01583506353199481964111328125000000000
-0.26761797070503234863281250000000000000
-0.01716644689440727233886718750000000000
0.05771720409393310546875000000000000000
0.16231730580329895019531250000000000000
-0.14817121624946594238281250000000000000
0.18315872550010681152343750000000000000
0.08899377286434173583984375000000000000
0.00821430794894695281982421875000000000
-0.20895430445671081542968750000000000000
-0.09162843227386474609375000000000000000
-0.20468637347221374511718750000000000000
0.02506412379443645477294921875000000000
0.10972335189580917358398437500000000000
-0.13179494440555572509765625000000000000
0.17486473917961120605468750000000000000
-0.01134794950485229492187500000000000000
0.17082606256008148193359375000000000000
0.14411103725433349609375000000000000000
0.30052602291107177734375000000000000000
-0.11686941981315612792968750000000000000
-0.00772439874708652496337890625000000000
-0.03520869836211204528808593750000000000
0.09355603903532028198242187500000000000
-0.19454212486743927001953125000000000000
-0.04524910077452659606933593750000000000
-0.25308695435523986816406250000000000000
0.03320505097508430480957031250000000000
0.05115317925810813903808593750000000000
-0.06306245923042297363281250000000000000
0.01398311927914619445800781250000000000
-0.02201691828668117523193359375000000000
0.00284705217927694320678710937500000000
0.00649852771311998367309570312500000000
0.08266690373420715332031250000000000000
-0.09341970086097717285156250000000000000
-0.12388815730810165405273437500000000000
0.14600993692874908447265625000000000000
0.04570309072732925415039062500000000000
0.20305635035037994384765625000000000000
0.15571175515651702880859375000000000000
-0.13498783111572265625000000000000000000
-0.14708061516284942626953125000000000000
-0.15762893855571746826171875000000000000
0.22832329571247100830078125000000000000
-0.12748126685619354248046875000000000000
-0.10720367729663848876953125000000000000
-0.23213757574558258056640625000000000000
0.09755530208349227905273437500000000000
-0.15528115630149841308593750000000000000
-0.03494035452604293823242187500000000000
0.04453278332948684692382812500000000000
0.03533499315381050109863281250000000000
-0.07176283746957778930664062500000000000
0.01858344115316867828369140625000000000
0.11870744824409484863281250000000000000
-0.14379924535751342773437500000000000000
0.06977744400501251220703125000000000000
-0.20989727973937988281250000000000000000
-0.11645314842462539672851562500000000000
0.23439894616603851318359375000000000000
-0.10764423012733459472656250000000000000
-0.23781523108482360839843750000000000000
-0.07179317623376846313476562500000000000
-0.02974938228726387023925781250000000000
0.20707078278064727783203125000000000000
0.22293592989444732666015625000000000000
0.18597652018070220947265625000000000000
-0.21040588617324829101562500000000000000
0.01615132950246334075927734375000000000
-0.06504607200622558593750000000000000000
0.14386530220508575439453125000000000000
0.08707312494516372680664062500000000000
-0.07593758404254913330078125000000000000
-0.23674882948398590087890625000000000000
0.04148517921566963195800781250000000000
-0.01645498909056186676025390625000000000
0.18405030667781829833984375000000000000
-0.23420652747154235839843750000000000000
0.11691970378160476684570312500000000000
0.02237794734537601470947265625000000000
0.10726964473724365234375000000000000000
0.00594936264678835868835449218750000000
0.00647374847903847694396972656250000000
0.07777635753154754638671875000000000000
-0.02918245643377304077148437500000000000
-0.11655038595199584960937500000000000000
0.11837039887905120849609375000000000000
-0.20256695151329040527343750000000000000
-0.03723041713237762451171875000000000000
0.03386272490024566650390625000000000000
0.01967250742018222808837890625000000000
0.00007847624510759487748146057128906250
0.12673537433147430419921875000000000000
-0.11820000410079956054687500000000000000
0.15661275386810302734375000000000000000
0.01482662651687860488891601562500000000
-0.11609385907649993896484375000000000000
0.19925476610660552978515625000000000000
0.00363804004155099391937255859375000000
0.17923636734485626220703125000000000000
0.13746452331542968750000000000000000000
-0.03532675281167030334472656250000000000
-0.28051885962486267089843750000000000000
-0.15870091319084167480468750000000000000
-0.15327689051628112792968750000000000000
0.17662699520587921142578125000000000000
0.00160663889255374670028686523437500000
0.07534531503915786743164062500000000000
0.05502678453922271728515625000000000000
-0.01927732676267623901367187500000000000
0.12010718882083892822265625000000000000
-0.10769290477037429809570312500000000000
0.06463374197483062744140625000000000000
-0.03036410920321941375732421875000000000
-0.12862683832645416259765625000000000000
0.16950958967208862304687500000000000000
0.12716756761074066162109375000000000000
-0.04131745174527168273925781250000000000
-0.05227370932698249816894531250000000000
-0.02128359675407409667968750000000000000
-0.01336755789816379547119140625000000000
0.16258049011230468750000000000000000000
-0.08008290827274322509765625000000000000
-0.05916084721684455871582031250000000000
0.14336459338665008544921875000000000000
0.14174486696720123291015625000000000000
0.14529657363891601562500000000000000000
-0.05266162753105163574218750000000000000
-0.28433796763420104980468750000000000000
-0.03598544746637344360351562500000000000
0.23280361294746398925781250000000000000
0.07956838607788085937500000000000000000
0.17466717958450317382812500000000000000
0.08341325819492340087890625000000000000
0.07331769168376922607421875000000000000
0.14696435630321502685546875000000000000
0.17565041780471801757812500000000000000
0.12194138020277023315429687500000000000
0.10852289199829101562500000000000000000
0.09248034656047821044921875000000000000
0.13074430823326110839843750000000000000
-0.12740075588226318359375000000000000000
0.10064113140106201171875000000000000000
0.04996078088879585266113281250000000000
0.02261217311024665832519531250000000000
0.30202373862266540527343750000000000000
0.06498210132122039794921875000000000000
-0.23118343949317932128906250000000000000
-0.00151609373278915882110595703125000000
0.02063154615461826324462890625000000000
-0.15876504778861999511718750000000000000
0.18840432167053222656250000000000000000
0.01539853028953075408935546875000000000
-0.23669375479221343994140625000000000000
0.05514054372906684875488281250000000000
-0.17671200633049011230468750000000000000
-0.04776512458920478820800781250000000000
0.12069821357727050781250000000000000000
0.06742149591445922851562500000000000000
-0.11135186254978179931640625000000000000
0.01409615762531757354736328125000000000
0.11815657466650009155273437500000000000
0.08537668734788894653320312500000000000
-0.01030348893254995346069335937500000000
0.07033915817737579345703125000000000000
0.06585373729467391967773437500000000000
-0.21711179614067077636718750000000000000
0.17680941522121429443359375000000000000
0.02921144664287567138671875000000000000
-0.18744684755802154541015625000000000000
-0.19364207983016967773437500000000000000
0.09653256833553314208984375000000000000
0.02725062705576419830322265625000000000
0.02166811563074588775634765625000000000
-0.20926678180694580078125000000000000000
0.06077228486537933349609375000000000000
0.13691219687461853027343750000000000000
-0.20991829037666320800781250000000000000
-0.20497831702232360839843750000000000000
-0.01789691112935543060302734375000000000
-0.07371333986520767211914062500000000000
0.00050304131582379341125488281250000000
0.02872979268431663513183593750000000000
-0.11748111248016357421875000000000000000
-0.04835142567753791809082031250000000000
-0.00270103220827877521514892578125000000
-0.16576191782951354980468750000000000000
0.07903517037630081176757812500000000000
0.15367151796817779541015625000000000000
0.06610537320375442504882812500000000000
-0.03838321194052696228027343750000000000
0.23823644220829010009765625000000000000
0.04501515254378318786621093750000000000
0.01188283972442150115966796875000000000
-0.04202637821435928344726562500000000000
-0.08325280249118804931640625000000000000
-0.15487918257713317871093750000000000000
0.28328719735145568847656250000000000000
0.04330936819314956665039062500000000000
0.24671351909637451171875000000000000000
0.16693234443664550781250000000000000000
-0.15439192950725555419921875000000000000
0.18173922598361968994140625000000000000
0.06439881026744842529296875000000000000
-0.04392739385366439819335937500000000000
0.02297342568635940551757812500000000000
0.13320645689964294433593750000000000000
-0.05258471146225929260253906250000000000
0.15070916712284088134765625000000000000
-0.19647890329360961914062500000000000000
0.04726635664701461791992187500000000000
0.19575993716716766357421875000000000000
0.04811169207096099853515625000000000000
0.03243944421410560607910156250000000000
0.18553195893764495849609375000000000000
0.06843605637550354003906250000000000000
0.31329637765884399414062500000000000000
-0.12591676414012908935546875000000000000
0.04502666369080543518066406250000000000
0.15224453806877136230468750000000000000
-0.02585828118026256561279296875000000000
0.12961463630199432373046875000000000000
0.17326909303665161132812500000000000000
-0.02315837517380714416503906250000000000
-0.08976253122091293334960937500000000000
-0.05002688243985176086425781250000000000
0.01383858919143676757812500000000000000
-0.04963224008679389953613281250000000000
-0.05068255215883255004882812500000000000
0.01356180850416421890258789062500000000
0.12834315001964569091796875000000000000
-0.21553272008895874023437500000000000000
0.03949307650327682495117187500000000000
-0.14354553818702697753906250000000000000
-0.01451389491558074951171875000000000000
0.18786734342575073242187500000000000000
-0.04868576675653457641601562500000000000
-0.14688220620155334472656250000000000000
0.07789022475481033325195312500000000000
-0.06525690853595733642578125000000000000
0.04297736659646034240722656250000000000
0.12126119434833526611328125000000000000
-0.04553230479359626770019531250000000000
-0.11404364556074142456054687500000000000
-0.31391695141792297363281250000000000000
0.14648945629596710205078125000000000000
-0.14096084237098693847656250000000000000
0.02560872957110404968261718750000000000
0.02434967085719108581542968750000000000
0.18489770591259002685546875000000000000
0.01932148821651935577392578125000000000
-0.01044074073433876037597656250000000000
-0.07475763559341430664062500000000000000
0.11561349034309387207031250000000000000
0.13640628755092620849609375000000000000
-0.12881965935230255126953125000000000000
0.17333245277404785156250000000000000000
0.10937656462192535400390625000000000000
0.05606894940137863159179687500000000000
-0.24026066064834594726562500000000000000
-0.14655862748622894287109375000000000000
0.00594654073938727378845214843750000000
-0.00933195278048515319824218750000000000
0.01066463347524404525756835937500000000
0.00458102906122803688049316406250000000
-0.18359583616256713867187500000000000000
0.18273650109767913818359375000000000000
0.01014482043683528900146484375000000000
-0.21046754717826843261718750000000000000
0.21320076286792755126953125000000000000
0.15566824376583099365234375000000000000
0.03018663637340068817138671875000000000
-0.01975956186652183532714843750000000000
0.00118719856254756450653076171875000000
0.02872468717396259307861328125000000000
-0.07901529967784881591796875000000000000
-0.12417018413543701171875000000000000000
-0.02104246430099010467529296875000000000
-0.09647120535373687744140625000000000000
0.31940716505050659179687500000000000000
-0.28937852382659912109375000000000000000
0.10271706432104110717773437500000000000
0.04224999248981475830078125000000000000
0.01593710482120513916015625000000000000
0.12385328859090805053710937500000000000
-0.20188443362712860107421875000000000000
-0.30807378888130187988281250000000000000
0.04476124793291091918945312500000000000
0.28654098510742187500000000000000000000
0.01508393045514822006225585937500000000
-0.03152828663587570190429687500000000000
-0.04134722426533699035644531250000000000
-0.20814281702041625976562500000000000000
-0.10198155790567398071289062500000000000
0.26692673563957214355468750000000000000
-0.16016317903995513916015625000000000000
-0.10190974920988082885742187500000000000
-0.23398256301879882812500000000000000000
0.04914269596338272094726562500000000000
0.11999817192554473876953125000000000000
-0.08250891417264938354492187500000000000
-0.16374923288822174072265625000000000000
-0.03656312078237533569335937500000000000
0.12778651714324951171875000000000000000
0.19491252303123474121093750000000000000
-0.03346531465649604797363281250000000000
0.21255424618721008300781250000000000000
-0.03802631795406341552734375000000000000
0.11212137341499328613281250000000000000
-0.01954070478677749633789062500000000000
0.02075496688485145568847656250000000000
-0.07010895758867263793945312500000000000
-0.03400928527116775512695312500000000000
0.12577366828918457031250000000000000000
0.20049031078815460205078125000000000000
0.17581355571746826171875000000000000000
-0.07291165739297866821289062500000000000
0.18097837269306182861328125000000000000
0.08101562410593032836914062500000000000
0.02916144952178001403808593750000000000
0.21341522037982940673828125000000000000
0.12322801351547241210937500000000000000
0.18023465573787689208984375000000000000
0.00603781174868345260620117187500000000
-0.00780351506546139717102050781250000000
-0.07735466212034225463867187500000000000
-0.10990840196609497070312500000000000000
0.14918567240238189697265625000000000000
-0.08632021397352218627929687500000000000
-0.04225737974047660827636718750000000000
-0.23623542487621307373046875000000000000
-0.09769052267074584960937500000000000000
0.00510409893468022346496582031250000000
-0.29584553837776184082031250000000000000
0.01667289994657039642333984375000000000
0.02927982062101364135742187500000000000
-0.14224658906459808349609375000000000000
-0.04353619739413261413574218750000000000
-0.00960676930844783782958984375000000000
0.04492118582129478454589843750000000000
0.00427425792440772056579589843750000000
-0.20483729243278503417968750000000000000
-0.11364550143480300903320312500000000000
0.10439838469028472900390625000000000000
0.14910024404525756835937500000000000000
0.09776706993579864501953125000000000000
-0.12639163434505462646484375000000000000
-0.35320639610290527343750000000000000000
0.06889083236455917358398437500000000000
-0.04676673561334609985351562500000000000
0.35026434063911437988281250000000000000
-0.02399928309023380279541015625000000000
-0.08769503235816955566406250000000000000
0.00615147687494754791259765625000000000
-0.02417650632560253143310546875000000000
0.22845204174518585205078125000000000000
0.43592843413352966308593750000000000000
-0.17526219785213470458984375000000000000
-0.16127726435661315917968750000000000000
0.08354853093624114990234375000000000000
0.02495125494897365570068359375000000000
-0.13452734053134918212890625000000000000
-0.12617920339107513427734375000000000000
-0.12358491867780685424804687500000000000
-0.11911252886056900024414062500000000000
-0.12657164037227630615234375000000000000
-0.10183766484260559082031250000000000000
-0.15492892265319824218750000000000000000
0.11200691759586334228515625000000000000
0.05245745927095413208007812500000000000
-0.08463468402624130249023437500000000000
-0.04768960177898406982421875000000000000
0.00025700221885927021503448486328125000
-0.00491004716604948043823242187500000000
0.01678433269262313842773437500000000000
-0.17213083803653717041015625000000000000
0.05065394937992095947265625000000000000
0.29791301488876342773437500000000000000
-0.25433245301246643066406250000000000000
-0.06998398900032043457031250000000000000
-0.08923447877168655395507812500000000000
0.01285851188004016876220703125000000000
0.13777489960193634033203125000000000000
0.26161214709281921386718750000000000000
-0.00493945088237524032592773437500000000
0.07134181261062622070312500000000000000
0.08567737042903900146484375000000000000
-0.06047515571117401123046875000000000000
-0.00233195396140217781066894531250000000
-0.13060578703880310058593750000000000000
-0.13164471089839935302734375000000000000
-0.01039565540850162506103515625000000000
0.10815674066543579101562500000000000000
0.12469534575939178466796875000000000000
0.05900822952389717102050781250000000000
0.17439077794551849365234375000000000000
0.02653210982680320739746093750000000000
-0.21543879806995391845703125000000000000
-0.09891449660062789916992187500000000000
-0.02183562517166137695312500000000000000
-0.09236561506986618041992187500000000000
-0.18105216324329376220703125000000000000
-0.01847322657704353332519531250000000000
-0.18373048305511474609375000000000000000
0.13553424179553985595703125000000000000
-0.00724577391520142555236816406250000000
-0.03378473967313766479492187500000000000
0.04256692528724670410156250000000000000
-0.10242844372987747192382812500000000000
-0.44397175312042236328125000000000000000
0.05742474645376205444335937500000000000
0.00340805551968514919281005859375000000
0.05699764192104339599609375000000000000
0.02686043456196784973144531250000000000
-0.20712739229202270507812500000000000000
-0.05598719045519828796386718750000000000
-0.35160282254219055175781250000000000000
0.39500728249549865722656250000000000000
-0.15231008827686309814453125000000000000
-0.20641897618770599365234375000000000000
-0.24168059229850769042968750000000000000
0.06543066352605819702148437500000000000
-0.06513991206884384155273437500000000000
-0.04217545315623283386230468750000000000
0.10932121425867080688476562500000000000
0.13981746137142181396484375000000000000
-0.10507810860872268676757812500000000000
0.27864077687263488769531250000000000000
0.01596282422542572021484375000000000000
0.07557000964879989624023437500000000000
-0.03247723728418350219726562500000000000
-0.29185241460800170898437500000000000000
0.23471149802207946777343750000000000000
0.08287465572357177734375000000000000000
0.17367909848690032958984375000000000000
0.18483258783817291259765625000000000000
0.04513029754161834716796875000000000000
0.11678812652826309204101562500000000000
0.02090577408671379089355468750000000000
0.12259125709533691406250000000000000000
0.11606658250093460083007812500000000000
-0.00282270228490233421325683593750000000
0.05996478721499443054199218750000000000
0.01948897168040275573730468750000000000
0.13806363940238952636718750000000000000
0.15627335011959075927734375000000000000
-0.13959228992462158203125000000000000000
-0.04908375069499015808105468750000000000
-0.07772009074687957763671875000000000000
0.00484622921794652938842773437500000000
0.10236896574497222900390625000000000000
-0.17593277990818023681640625000000000000
0.13627518713474273681640625000000000000
0.07664055377244949340820312500000000000
0.18348085880279541015625000000000000000
-0.05588954687118530273437500000000000000
-0.02328005805611610412597656250000000000
-0.11985351890325546264648437500000000000
0.03110018558800220489501953125000000000
-0.06055186316370964050292968750000000000
-0.02480575442314147949218750000000000000
0.11852676421403884887695312500000000000
-0.24750049412250518798828125000000000000
0.10171363502740859985351562500000000000
0.05858469754457473754882812500000000000
0.12961766123771667480468750000000000000
0.13154779374599456787109375000000000000
0.05253742635250091552734375000000000000
-0.16045154631137847900390625000000000000
0.06039078161120414733886718750000000000
0.13585485517978668212890625000000000000
-0.01195707917213439941406250000000000000
-0.10754494369029998779296875000000000000
0.13869984447956085205078125000000000000
-0.14836442470550537109375000000000000000
-0.22222508490085601806640625000000000000
-0.15158636868000030517578125000000000000
-0.07476992905139923095703125000000000000
-0.09596405923366546630859375000000000000
0.03318091854453086853027343750000000000
-0.09685926884412765502929687500000000000
0.07574702054262161254882812500000000000
-0.20788525044918060302734375000000000000
0.01029531657695770263671875000000000000
-0.19899837672710418701171875000000000000
0.06519415974617004394531250000000000000
0.10158322006464004516601562500000000000
-0.23930032551288604736328125000000000000
-0.02059638872742652893066406250000000000
-0.03596585243940353393554687500000000000
0.08237734436988830566406250000000000000
-0.07090259343385696411132812500000000000
0.08444359153509140014648437500000000000
-0.21145594120025634765625000000000000000
0.00470658624544739723205566406250000000
0.18778523802757263183593750000000000000
-0.01836332306265830993652343750000000000
0.04903044924139976501464843750000000000
0.23358230292797088623046875000000000000
-0.08616610616445541381835937500000000000
-0.00945401098579168319702148437500000000
0.22568979859352111816406250000000000000
-0.13750381767749786376953125000000000000
-0.27650988101959228515625000000000000000
-0.18001392483711242675781250000000000000
-0.13616231083869934082031250000000000000
0.07244048267602920532226562500000000000
0.09108717739582061767578125000000000000
0.08796562999486923217773437500000000000
-0.03253035247325897216796875000000000000
-0.08444254845380783081054687500000000000
-0.27924138307571411132812500000000000000
0.03252214565873146057128906250000000000
0.01494108792394399642944335937500000000
-0.12819938361644744873046875000000000000
0.23203220963478088378906250000000000000
0.06962396949529647827148437500000000000
-0.24639058113098144531250000000000000000
0.01086154393851757049560546875000000000
0.07668901979923248291015625000000000000
-0.05668483301997184753417968750000000000
0.05837622657418251037597656250000000000
-0.01432503201067447662353515625000000000
-0.16046744585037231445312500000000000000
0.04372670873999595642089843750000000000
0.03826135024428367614746093750000000000
0.00165558466687798500061035156250000000
-0.15003916621208190917968750000000000000
-0.00547170545905828475952148437500000000
0.23184520006179809570312500000000000000
0.11082349717617034912109375000000000000
-0.34695369005203247070312500000000000000
0.07825608551502227783203125000000000000
0.19887468218803405761718750000000000000
-0.13208177685737609863281250000000000000
0.09231307357549667358398437500000000000
0.11579703539609909057617187500000000000
-0.14037753641605377197265625000000000000
0.30925649404525756835937500000000000000
-0.19203613698482513427734375000000000000
-0.29737544059753417968750000000000000000
0.13430491089820861816406250000000000000
0.03539004921913146972656250000000000000
-0.00729198241606354713439941406250000000
0.15493106842041015625000000000000000000
-0.33678826689720153808593750000000000000
0.03865732252597808837890625000000000000
-0.03030051477253437042236328125000000000
-0.01850703358650207519531250000000000000
0.12870866060256958007812500000000000000
0.19236983358860015869140625000000000000
-0.02739939279854297637939453125000000000
-0.01560312975198030471801757812500000000
0.03567380458116531372070312500000000000
0.10379545390605926513671875000000000000
0.04862168803811073303222656250000000000
-0.11869589984416961669921875000000000000
0.06506069749593734741210937500000000000
-0.11769872903823852539062500000000000000
-0.17098377645015716552734375000000000000
-0.12307061254978179931640625000000000000
-0.21399284899234771728515625000000000000
-0.14932595193386077880859375000000000000
0.23984193801879882812500000000000000000
-0.16820792853832244873046875000000000000
-0.01641996763646602630615234375000000000
-0.08374404162168502807617187500000000000
0.30656561255455017089843750000000000000
0.25377130508422851562500000000000000000
0.19685691595077514648437500000000000000
0.15382203459739685058593750000000000000
0.12984922528266906738281250000000000000
0.04254666715860366821289062500000000000
0.00668838759884238243103027343750000000
0.14430780708789825439453125000000000000
0.01505510602146387100219726562500000000
0.00025281874695792794227600097656250000
0.13085514307022094726562500000000000000
0.20171210169792175292968750000000000000
-0.26055744290351867675781250000000000000
-0.01441179309040307998657226562500000000
-0.08599267154932022094726562500000000000
0.03622524812817573547363281250000000000
-0.16878990828990936279296875000000000000
-0.04296135529875755310058593750000000000
0.12727321684360504150390625000000000000
0.01182019338011741638183593750000000000
0.01494871359318494796752929687500000000
-0.04900494962930679321289062500000000000
-0.20418290793895721435546875000000000000
-0.03980798646807670593261718750000000000
-0.17475272715091705322265625000000000000
0.22758246958255767822265625000000000000
0.00121422507800161838531494140625000000
-0.11060499399900436401367187500000000000
-0.03748654201626777648925781250000000000
0.08555669337511062622070312500000000000
-0.14395570755004882812500000000000000000
-0.13655664026737213134765625000000000000
-0.10316333919763565063476562500000000000
0.01372268702834844589233398437500000000
0.09478677064180374145507812500000000000
0.04729310050606727600097656250000000000
-0.33605757355690002441406250000000000000
0.14528372883796691894531250000000000000
-0.25182139873504638671875000000000000000
-0.25689676403999328613281250000000000000
0.03048273921012878417968750000000000000
-0.07088040560483932495117187500000000000
0.20655453205108642578125000000000000000
0.10054513812065124511718750000000000000
0.03793697804212570190429687500000000000
-0.04426473379135131835937500000000000000
-0.01466922089457511901855468750000000000
0.02717633545398712158203125000000000000
-0.05757536739110946655273437500000000000
-0.33283388614654541015625000000000000000
0.01857445016503334045410156250000000000
-0.12910084426403045654296875000000000000
-0.04190032556653022766113281250000000000
0.01399234868586063385009765625000000000
0.19952675700187683105468750000000000000
0.25027590990066528320312500000000000000
0.07965413480997085571289062500000000000
-0.11252796649932861328125000000000000000
-0.09792333841323852539062500000000000000
0.13184210658073425292968750000000000000
-0.06991150975227355957031250000000000000
0.10967497527599334716796875000000000000
-0.12420110404491424560546875000000000000
0.16953568160533905029296875000000000000
-0.09751710295677185058593750000000000000
-0.16150662302970886230468750000000000000
0.18695810437202453613281250000000000000
-0.10695914179086685180664062500000000000
-0.09873228520154953002929687500000000000
-0.03162134438753128051757812500000000000
0.15316611528396606445312500000000000000
0.28418844938278198242187500000000000000
0.10849569737911224365234375000000000000
-0.01396794989705085754394531250000000000
0.07649221271276473999023437500000000000
-0.08422040939331054687500000000000000000
-0.10508125275373458862304687500000000000
-0.02746984921395778656005859375000000000
-0.10472223907709121704101562500000000000
0.03330633416771888732910156250000000000
0.11290618777275085449218750000000000000
0.09136686474084854125976562500000000000
-0.04489921405911445617675781250000000000
-0.14126086235046386718750000000000000000
-0.04911776259541511535644531250000000000
0.11552724987268447875976562500000000000
0.02534019201993942260742187500000000000
-0.10884694010019302368164062500000000000
-0.17391309142112731933593750000000000000
-0.22450815141201019287109375000000000000
0.05905959010124206542968750000000000000
-0.13032563030719757080078125000000000000
0.14065337181091308593750000000000000000
0.14318521320819854736328125000000000000
0.30927026271820068359375000000000000000
-0.05170667544007301330566406250000000000
-0.00227599893696606159210205078125000000
0.04194807633757591247558593750000000000
0.14148791134357452392578125000000000000
0.03228818625211715698242187500000000000
-0.09276422113180160522460937500000000000
0.39961841702461242675781250000000000000
-0.05365968495607376098632812500000000000
0.01219098549336194992065429687500000000
0.30006486177444458007812500000000000000
-0.02272074110805988311767578125000000000
-0.05782433226704597473144531250000000000
-0.05412667617201805114746093750000000000
0.03603689000010490417480468750000000000
0.00327357463538646697998046875000000000
0.04161158576607704162597656250000000000
0.11691651493310928344726562500000000000
0.10404645651578903198242187500000000000
0.15946735441684722900390625000000000000
0.22082222998142242431640625000000000000
-0.22718323767185211181640625000000000000
-0.01906103454530239105224609375000000000
0.10003757476806640625000000000000000000
0.15326474606990814208984375000000000000
0.12060584872961044311523437500000000000
-0.03704931586980819702148437500000000000
-0.13832755386829376220703125000000000000
0.18905730545520782470703125000000000000
-0.00706624193117022514343261718750000000
-0.05373180657625198364257812500000000000
-0.01926455646753311157226562500000000000
-0.00555728375911712646484375000000000000
-0.09538351744413375854492187500000000000
-0.04743925854563713073730468750000000000
-0.22020846605300903320312500000000000000
-0.06956284493207931518554687500000000000
0.12127792835235595703125000000000000000
-0.08135078102350234985351562500000000000
-0.19695807993412017822265625000000000000
0.02514899335801601409912109375000000000
-0.10859530419111251831054687500000000000
-0.02260269969701766967773437500000000000
-0.14249502122402191162109375000000000000
0.02769508957862854003906250000000000000
0.17133283615112304687500000000000000000
0.02804800122976303100585937500000000000
-0.00745402183383703231811523437500000000
-0.08281484991312026977539062500000000000
-0.09705599397420883178710937500000000000
0.14373026788234710693359375000000000000
0.06251368671655654907226562500000000000
-0.08613190799951553344726562500000000000
0.03912106156349182128906250000000000000
-0.09024105221033096313476562500000000000
0.03737395256757736206054687500000000000
-0.06424658745527267456054687500000000000
-0.03982533887028694152832031250000000000
-0.08390567451715469360351562500000000000
-0.04446097835898399353027343750000000000
0.14092914760112762451171875000000000000
-0.14149421453475952148437500000000000000
-0.24547789990901947021484375000000000000
0.03025496192276477813720703125000000000
0.01619260571897029876708984375000000000
0.16346327960491180419921875000000000000
-0.24472190439701080322265625000000000000
-0.14424706995487213134765625000000000000
-0.11926170438528060913085937500000000000
-0.13544325530529022216796875000000000000
0.16559959948062896728515625000000000000
0.15102006494998931884765625000000000000
0.03166835755109786987304687500000000000
-0.08982877433300018310546875000000000000
-0.05576992779970169067382812500000000000
-0.02381477691233158111572265625000000000
0.26240265369415283203125000000000000000
-0.04193036258220672607421875000000000000
0.11138615757226943969726562500000000000
-0.07456110417842864990234375000000000000
-0.12029924243688583374023437500000000000
0.15257367491722106933593750000000000000
-0.00981320627033710479736328125000000000
-0.13479907810688018798828125000000000000
-0.00753067014738917350769042968750000000
-0.06052554398775100708007812500000000000
-0.01158245839178562164306640625000000000
0.06297562271356582641601562500000000000
0.03133851662278175354003906250000000000
0.11859822273254394531250000000000000000
0.08020532876253128051757812500000000000
0.18342256546020507812500000000000000000
-0.23445038497447967529296875000000000000
0.28384533524513244628906250000000000000
-0.05114122107625007629394531250000000000
-0.11480694264173507690429687500000000000
0.00786913558840751647949218750000000000
0.08133929967880249023437500000000000000
-0.08934858441352844238281250000000000000
0.02640721946954727172851562500000000000
-0.04541561007499694824218750000000000000
-0.10307050496339797973632812500000000000
0.19208014011383056640625000000000000000
-0.02794105187058448791503906250000000000
-0.05195968225598335266113281250000000000
0.09850669652223587036132812500000000000
0.12066036462783813476562500000000000000
0.13251538574695587158203125000000000000
-0.00838062632828950881958007812500000000
-0.18479928374290466308593750000000000000
-0.03625443205237388610839843750000000000
0.26032432913780212402343750000000000000
-0.09177964925765991210937500000000000000
-0.04797455295920372009277343750000000000
0.03431971371173858642578125000000000000
0.08600123971700668334960937500000000000
-0.15654195845127105712890625000000000000
0.14713121950626373291015625000000000000
-0.03761640936136245727539062500000000000
-0.03836581483483314514160156250000000000
-0.04839677363634109497070312500000000000
0.08522919565439224243164062500000000000
0.00842994451522827148437500000000000000
-0.09564779698848724365234375000000000000
-0.27546024322509765625000000000000000000
-0.14641351997852325439453125000000000000
0.00317985145375132560729980468750000000
0.08616784960031509399414062500000000000
0.15390811860561370849609375000000000000
-0.04501887038350105285644531250000000000
-0.18807800114154815673828125000000000000
-0.07348603010177612304687500000000000000
-0.00782082416117191314697265625000000000
0.20786267518997192382812500000000000000
0.06684274226427078247070312500000000000
-0.12807108461856842041015625000000000000
-0.10800808668136596679687500000000000000
-0.00241171661764383316040039062500000000
0.07548914104700088500976562500000000000
-0.05912258476018905639648437500000000000
-0.19030946493148803710937500000000000000
0.05415940657258033752441406250000000000
-0.03810137137770652770996093750000000000
0.11508273333311080932617187500000000000
-0.13507089018821716308593750000000000000
0.07923929393291473388671875000000000000
0.05261814966797828674316406250000000000
0.14575733244419097900390625000000000000
-0.15318664908409118652343750000000000000
-0.01968767866492271423339843750000000000
-0.06773799657821655273437500000000000000
-0.02217382937669754028320312500000000000
-0.04669353365898132324218750000000000000
0.05445842817425727844238281250000000000
-0.07000257074832916259765625000000000000
-0.08022749423980712890625000000000000000
-0.05800331756472587585449218750000000000
-0.13295800983905792236328125000000000000
-0.07694056630134582519531250000000000000
0.22569148242473602294921875000000000000
0.20205928385257720947265625000000000000
0.14538508653640747070312500000000000000
-0.15108215808868408203125000000000000000
-0.17837490141391754150390625000000000000
0.12517651915550231933593750000000000000
0.06525600701570510864257812500000000000
-0.03991416096687316894531250000000000000
-0.12436215579509735107421875000000000000
-0.08011583983898162841796875000000000000
0.18355572223663330078125000000000000000
0.13282679021358489990234375000000000000
0.17481528222560882568359375000000000000
-0.00284327892586588859558105468750000000
-0.16882033646106719970703125000000000000
-0.14421834051609039306640625000000000000
-0.04618379473686218261718750000000000000
-0.04680871963500976562500000000000000000
0.07186770439147949218750000000000000000
0.12464780360460281372070312500000000000
0.14732706546783447265625000000000000000
0.03562630712985992431640625000000000000
-0.06134756654500961303710937500000000000
-0.09950999915599822998046875000000000000
0.09351845830678939819335937500000000000
-0.09207216650247573852539062500000000000
0.07126303017139434814453125000000000000
-0.03176272287964820861816406250000000000
-0.23350442945957183837890625000000000000
0.01717715896666049957275390625000000000
-0.24805982410907745361328125000000000000
-0.05744763091206550598144531250000000000
-0.00470971548929810523986816406250000000
-0.12604887783527374267578125000000000000
-0.00713385920971632003784179687500000000
-0.06739588826894760131835937500000000000
0.06131022423505783081054687500000000000
-0.10177846252918243408203125000000000000
-0.08203692734241485595703125000000000000
-0.12545089423656463623046875000000000000
-0.17133547365665435791015625000000000000
0.09740286320447921752929687500000000000
-0.09227713197469711303710937500000000000
0.16907539963722229003906250000000000000
0.05159965902566909790039062500000000000
-0.00979797169566154479980468750000000000
0.08042749762535095214843750000000000000
0.08974379301071166992187500000000000000
0.05732866749167442321777343750000000000
-0.10557209700345993041992187500000000000
-0.15078839659690856933593750000000000000
-0.21527573466300964355468750000000000000
0.07573113590478897094726562500000000000
0.07119733095169067382812500000000000000
0.00033521410659886896610260009765625000
-0.10149285197257995605468750000000000000
0.01600007899105548858642578125000000000
-0.02026582136750221252441406250000000000
0.01462265755981206893920898437500000000
0.14643102884292602539062500000000000000
0.02151704020798206329345703125000000000
-0.10601375252008438110351562500000000000
-0.18994776904582977294921875000000000000
-0.03686508536338806152343750000000000000
-0.04143751412630081176757812500000000000
-0.18613538146018981933593750000000000000
-0.10387319326400756835937500000000000000
0.14560590684413909912109375000000000000
-0.21410037577152252197265625000000000000
0.19889271259307861328125000000000000000
-0.21330092847347259521484375000000000000
0.10371980071067810058593750000000000000
-0.10165358334779739379882812500000000000
-0.00349829602055251598358154296875000000
-0.11279555410146713256835937500000000000
0.16868494451045989990234375000000000000
0.08802957832813262939453125000000000000
0.07708926498889923095703125000000000000
-0.08164967596530914306640625000000000000
-0.11834099888801574707031250000000000000
-0.13143835961818695068359375000000000000
-0.11163016408681869506835937500000000000
-0.04038451984524726867675781250000000000
0.13211034238338470458984375000000000000
-0.08707243949174880981445312500000000000
-0.10970205813646316528320312500000000000
0.21915325522422790527343750000000000000
-0.19989587366580963134765625000000000000
-0.14966644346714019775390625000000000000
0.25619652867317199707031250000000000000
0.07659330219030380249023437500000000000
0.14922575652599334716796875000000000000
0.06443282216787338256835937500000000000
-0.15962967276573181152343750000000000000
0.26016950607299804687500000000000000000
-0.17729336023330688476562500000000000000
-0.05271543189883232116699218750000000000
-0.07033525407314300537109375000000000000
0.05183492228388786315917968750000000000
-0.08563869446516036987304687500000000000
-0.14444577693939208984375000000000000000
0.09361728280782699584960937500000000000
0.00146713072899729013442993164062500000
0.02200833708047866821289062500000000000
0.03926791623234748840332031250000000000
-0.18190930783748626708984375000000000000
-0.00404541147872805595397949218750000000
-0.08048222213983535766601562500000000000
-0.04179141297936439514160156250000000000
-0.08276460319757461547851562500000000000
-0.05519165843725204467773437500000000000
-0.05542428046464920043945312500000000000
-0.04284463450312614440917968750000000000
0.17776352167129516601562500000000000000
-0.02316503599286079406738281250000000000
-0.01796673610806465148925781250000000000
0.00471417373046278953552246093750000000
0.04528595134615898132324218750000000000
0.03595940023660659790039062500000000000
0.09278283268213272094726562500000000000
0.08752116560935974121093750000000000000
0.12862767279148101806640625000000000000
0.14169898629188537597656250000000000000
0.12069950252771377563476562500000000000
-0.09702062606811523437500000000000000000
0.15037509799003601074218750000000000000
0.32475629448890686035156250000000000000
-0.16066022217273712158203125000000000000
-0.26276552677154541015625000000000000000
-0.18458122014999389648437500000000000000
0.12201122194528579711914062500000000000
-0.15312805771827697753906250000000000000
-0.21543127298355102539062500000000000000
0.05372975766658782958984375000000000000
-0.17771370708942413330078125000000000000
-0.16795845329761505126953125000000000000
-0.02697647176682949066162109375000000000
0.08557619899511337280273437500000000000
0.26808258891105651855468750000000000000
-0.00594798428937792778015136718750000000
-0.23256821930408477783203125000000000000
0.19448344409465789794921875000000000000
0.05583585798740386962890625000000000000
-0.01751870289444923400878906250000000000
-0.11890430003404617309570312500000000000
-0.19669859111309051513671875000000000000
0.11814019829034805297851562500000000000
0.08116429299116134643554687500000000000
0.08390449732542037963867187500000000000
-0.05788761004805564880371093750000000000
-0.00999725703150033950805664062500000000
0.00313274515792727470397949218750000000
-0.09871745109558105468750000000000000000
0.11217012256383895874023437500000000000
-0.07502593845129013061523437500000000000
0.10939375311136245727539062500000000000
-0.05714300274848937988281250000000000000
-0.03396142274141311645507812500000000000
0.01725777238607406616210937500000000000
-0.14387807250022888183593750000000000000
-0.10564950108528137207031250000000000000
0.14773365855216979980468750000000000000
-0.09495374560356140136718750000000000000
0.01280527748167514801025390625000000000
-0.07551634311676025390625000000000000000
0.00254213903099298477172851562500000000
-0.03658063709735870361328125000000000000
0.10430049896240234375000000000000000000
0.03931129723787307739257812500000000000
-0.07337212562561035156250000000000000000
0.00970916450023651123046875000000000000
-0.12842360138893127441406250000000000000
0.02737075090408325195312500000000000000
0.11756816506385803222656250000000000000
0.05976365134119987487792968750000000000
0.02516907453536987304687500000000000000
-0.14075061678886413574218750000000000000
-0.05545746162533760070800781250000000000
0.07247593998908996582031250000000000000
0.04889121279120445251464843750000000000
0.14424191415309906005859375000000000000
0.00140533386729657649993896484375000000
-0.01946778222918510437011718750000000000
0.06054415553808212280273437500000000000
0.03980254754424095153808593750000000000
-0.13370153307914733886718750000000000000
0.19732441008090972900390625000000000000
0.14490815997123718261718750000000000000
-0.08946622163057327270507812500000000000
-0.00176682241726666688919067382812500000
-0.01508508529514074325561523437500000000
-0.10287433862686157226562500000000000000
-0.00525660905987024307250976562500000000
0.07959410548210144042968750000000000000
-0.05944014340639114379882812500000000000
-0.01996928453445434570312500000000000000
0.08283447474241256713867187500000000000
0.15887713432312011718750000000000000000
0.18820583820343017578125000000000000000
-0.24855552613735198974609375000000000000
0.11203156411647796630859375000000000000
0.14432442188262939453125000000000000000
-0.40515562891960144042968750000000000000
-0.10047350823879241943359375000000000000
0.14452141523361206054687500000000000000
-0.26356688141822814941406250000000000000
0.12494729459285736083984375000000000000
-0.12021619826555252075195312500000000000
-0.09283677488565444946289062500000000000
0.10507208108901977539062500000000000000
0.01867451146245002746582031250000000000
-0.05901933088898658752441406250000000000
-0.13146844506263732910156250000000000000
0.12718299031257629394531250000000000000
-0.21263097226619720458984375000000000000
-0.04429825767874717712402343750000000000
0.19843967258930206298828125000000000000
-0.17533802986145019531250000000000000000
-0.02234176732599735260009765625000000000
-0.01576887629926204681396484375000000000
0.14647817611694335937500000000000000000
0.02609558776021003723144531250000000000
0.04158841073513031005859375000000000000
-0.09385652840137481689453125000000000000
-0.22257520258426666259765625000000000000
0.09237461537122726440429687500000000000
-0.03618052601814270019531250000000000000
0.24052864313125610351562500000000000000
-0.05651379004120826721191406250000000000
0.07123922556638717651367187500000000000
-0.11583734303712844848632812500000000000
-0.06052434071898460388183593750000000000
-0.11135759949684143066406250000000000000
-0.23050089180469512939453125000000000000
-0.15762339532375335693359375000000000000
-0.16354733705520629882812500000000000000
0.04354755580425262451171875000000000000
0.02479760907590389251708984375000000000
-0.12143387645483016967773437500000000000
-0.21928267180919647216796875000000000000
0.25982132554054260253906250000000000000
-0.13460345566272735595703125000000000000
-0.20244628190994262695312500000000000000
0.00222085090354084968566894531250000000
-0.10424643754959106445312500000000000000
-0.04894063249230384826660156250000000000
0.06407792121171951293945312500000000000
0.08367131650447845458984375000000000000
-0.08169990777969360351562500000000000000
-0.09070297330617904663085937500000000000
-0.03542818129062652587890625000000000000
-0.03188108652830123901367187500000000000
-0.03014966100454330444335937500000000000
0.04625990986824035644531250000000000000
-0.02903196960687637329101562500000000000
0.00051826040726155042648315429687500000
-0.11039303243160247802734375000000000000
-0.12840615212917327880859375000000000000
-0.11659342050552368164062500000000000000
-0.09676229208707809448242187500000000000
0.12885050475597381591796875000000000000
0.09906142204999923706054687500000000000
0.09993864595890045166015625000000000000
0.00917909014970064163208007812500000000
0.12063950300216674804687500000000000000
-0.06432422995567321777343750000000000000
0.23288179934024810791015625000000000000
-0.13000889122486114501953125000000000000
0.28087601065635681152343750000000000000
-0.16410192847251892089843750000000000000
-0.08757585287094116210937500000000000000
0.14944592118263244628906250000000000000
-0.14817170798778533935546875000000000000
0.22814117372035980224609375000000000000
0.07037179172039031982421875000000000000
-0.18884089589118957519531250000000000000
0.23701749742031097412109375000000000000
-0.06223166733980178833007812500000000000
-0.06926047801971435546875000000000000000
0.14945615828037261962890625000000000000
0.13467170298099517822265625000000000000
-0.09086889773607254028320312500000000000
-0.03771880269050598144531250000000000000
0.18095584213733673095703125000000000000
-0.07403622567653656005859375000000000000
0.18693745136260986328125000000000000000
0.03956164419651031494140625000000000000
0.00353559618815779685974121093750000000
0.08721677958965301513671875000000000000
-0.23469907045364379882812500000000000000
-0.29236710071563720703125000000000000000
0.17369331419467926025390625000000000000
0.01535679586231708526611328125000000000
-0.05014543980360031127929687500000000000
-0.08463735133409500122070312500000000000
-0.01411285810172557830810546875000000000
0.07625856250524520874023437500000000000
0.12888783216476440429687500000000000000
-0.10649757832288742065429687500000000000
-0.07549734413623809814453125000000000000
0.05470082908868789672851562500000000000
0.08795771002769470214843750000000000000
-0.09760750830173492431640625000000000000
0.13148669898509979248046875000000000000
0.05771589279174804687500000000000000000
0.01959126070141792297363281250000000000
0.12580573558807373046875000000000000000
-0.04322086647152900695800781250000000000
-0.01901504956185817718505859375000000000
0.21603210270404815673828125000000000000
0.01566920615732669830322265625000000000
-0.00584391551092267036437988281250000000
-0.09020343422889709472656250000000000000
-0.13887481391429901123046875000000000000
0.12199117988348007202148437500000000000
-0.09220632910728454589843750000000000000
-0.00680187623947858810424804687500000000
0.24349246919155120849609375000000000000
0.08645310997962951660156250000000000000
0.18171712756156921386718750000000000000
0.05666771531105041503906250000000000000
-0.03886355832219123840332031250000000000
0.21408373117446899414062500000000000000
-0.07079729437828063964843750000000000000
0.04238091036677360534667968750000000000
0.15181636810302734375000000000000000000
-0.06643637269735336303710937500000000000
0.07697941362857818603515625000000000000
0.01377276238054037094116210937500000000
-0.11649405956268310546875000000000000000
-0.06095628067851066589355468750000000000
0.05242222920060157775878906250000000000
0.15384487807750701904296875000000000000
0.17530812323093414306640625000000000000
0.04788538068532943725585937500000000000
-0.04907218739390373229980468750000000000
-0.01407925784587860107421875000000000000
-0.14124426245689392089843750000000000000
-0.10326251387596130371093750000000000000
-0.09250737726688385009765625000000000000
-0.17622059583663940429687500000000000000
-0.25437030196189880371093750000000000000
-0.45177903771400451660156250000000000000
-0.00745980674400925636291503906250000000
0.14715512096881866455078125000000000000
0.03554748371243476867675781250000000000
-0.21972237527370452880859375000000000000
0.01947805657982826232910156250000000000
-0.19202569127082824707031250000000000000
-0.09749283641576766967773437500000000000
0.12106823921203613281250000000000000000
0.02198017388582229614257812500000000000
0.13904304802417755126953125000000000000
0.17690092325210571289062500000000000000
-0.05475555360317230224609375000000000000
0.12542103230953216552734375000000000000
0.18864028155803680419921875000000000000
0.05638324841856956481933593750000000000
0.00561510166153311729431152343750000000
-0.00206990656442940235137939453125000000
0.09717790782451629638671875000000000000
0.05594218522310256958007812500000000000
-0.10116950422525405883789062500000000000
0.03076083399355411529541015625000000000
0.06461041420698165893554687500000000000
0.00721831386908888816833496093750000000
0.02749257907271385192871093750000000000
0.22394706308841705322265625000000000000
0.15504872798919677734375000000000000000
0.18403200805187225341796875000000000000
-0.02073978632688522338867187500000000000
-0.13062669336795806884765625000000000000
0.07295886427164077758789062500000000000
-0.08703880012035369873046875000000000000
-0.10347299277782440185546875000000000000
0.16508413851261138916015625000000000000
-0.23957802355289459228515625000000000000
0.27053353190422058105468750000000000000
-0.10497428476810455322265625000000000000
-0.18042197823524475097656250000000000000
-0.11948221176862716674804687500000000000
0.02112773992121219635009765625000000000
0.09713497757911682128906250000000000000
0.00202883360907435417175292968750000000
-0.10311307758092880249023437500000000000
-0.11010314524173736572265625000000000000
0.01948084309697151184082031250000000000
0.00255530560389161109924316406250000000
-0.13118395209312438964843750000000000000
0.20788225531578063964843750000000000000
0.13532988727092742919921875000000000000
-0.08419553190469741821289062500000000000
0.19459104537963867187500000000000000000
-0.03499671071767807006835937500000000000
-0.04595654457807540893554687500000000000
0.17429016530513763427734375000000000000
0.10829597711563110351562500000000000000
-0.10692949593067169189453125000000000000
0.05810660123825073242187500000000000000
0.08923718333244323730468750000000000000
-0.21476256847381591796875000000000000000
-0.16872525215148925781250000000000000000
0.07162235677242279052734375000000000000
-0.15878675878047943115234375000000000000
-0.04117112979292869567871093750000000000
-0.17903730273246765136718750000000000000
0.11567831784486770629882812500000000000
0.17282916605472564697265625000000000000
-0.17544876039028167724609375000000000000
-0.15470424294471740722656250000000000000
-0.14167852699756622314453125000000000000
-0.00863606389611959457397460937500000000
0.09599384665489196777343750000000000000
0.16813935339450836181640625000000000000
0.12507523596286773681640625000000000000
0.02328364923596382141113281250000000000
0.17175315320491790771484375000000000000
0.12562698125839233398437500000000000000
0.22991286218166351318359375000000000000
-0.15769281983375549316406250000000000000
0.18034197390079498291015625000000000000
0.06516288965940475463867187500000000000
-0.09116807579994201660156250000000000000
0.27177441120147705078125000000000000000
-0.00939101446419954299926757812500000000
-0.06986087560653686523437500000000000000
-0.13896341621875762939453125000000000000
-0.04434106498956680297851562500000000000
-0.04996906965970993041992187500000000000
0.36340495944023132324218750000000000000
-0.24325460195541381835937500000000000000
0.00642482470721006393432617187500000000
0.08657717704772949218750000000000000000
0.11959505826234817504882812500000000000
0.02523116767406463623046875000000000000
0.05152909457683563232421875000000000000
0.21931117773056030273437500000000000000
0.11504929512739181518554687500000000000
0.07053533941507339477539062500000000000
0.07314796745777130126953125000000000000
-0.11101667582988739013671875000000000000
-0.34223297238349914550781250000000000000
-0.01927899569272994995117187500000000000
-0.08542668074369430541992187500000000000
0.17375250160694122314453125000000000000
0.10878326743841171264648437500000000000
0.07018079608678817749023437500000000000
-0.10253219306468963623046875000000000000
-0.01135682966560125350952148437500000000
0.10402990877628326416015625000000000000
-0.09922901540994644165039062500000000000
-0.06125386431813240051269531250000000000
-0.05176015943288803100585937500000000000
0.02229701913893222808837890625000000000
-0.26355987787246704101562500000000000000
-0.29656851291656494140625000000000000000
0.01796399801969528198242187500000000000
-0.05452854558825492858886718750000000000
-0.15893997251987457275390625000000000000
-0.08245432376861572265625000000000000000
-0.18810026347637176513671875000000000000
0.07102516293525695800781250000000000000
0.03417483717203140258789062500000000000
0.15093392133712768554687500000000000000
0.21261608600616455078125000000000000000
0.04786043986678123474121093750000000000
0.00969072431325912475585937500000000000
-0.27478727698326110839843750000000000000
0.06591351330280303955078125000000000000
0.19610546529293060302734375000000000000
0.11721158027648925781250000000000000000
0.03925913572311401367187500000000000000
0.08381133526563644409179687500000000000
-0.23211449384689331054687500000000000000
0.10999268293380737304687500000000000000
0.02030177228152751922607421875000000000
-0.22299641370773315429687500000000000000
-0.14642508327960968017578125000000000000
-0.10744966566562652587890625000000000000
0.11338686943054199218750000000000000000
-0.10288792103528976440429687500000000000
0.02407065406441688537597656250000000000
-0.10803455114364624023437500000000000000
-0.00738890422508120536804199218750000000
-0.29456120729446411132812500000000000000
-0.01466360129415988922119140625000000000
-0.01036465633660554885864257812500000000
0.14327730238437652587890625000000000000
-0.00254192086867988109588623046875000000
0.08454094082117080688476562500000000000
-0.01422857120633125305175781250000000000
-0.11785862594842910766601562500000000000
0.29228135943412780761718750000000000000
0.15208259224891662597656250000000000000
-0.08237999677658081054687500000000000000
0.11253426969051361083984375000000000000
-0.15676897764205932617187500000000000000
0.15731123089790344238281250000000000000
-0.04800391569733619689941406250000000000
0.12183179706335067749023437500000000000
0.01062264014035463333129882812500000000
0.14751265943050384521484375000000000000
-0.09141934663057327270507812500000000000
-0.29683259129524230957031250000000000000
0.13981434702873229980468750000000000000
0.11321820318698883056640625000000000000
-0.14911843836307525634765625000000000000
0.24289840459823608398437500000000000000
-0.17237681150436401367187500000000000000
0.13608381152153015136718750000000000000
-0.16279585659503936767578125000000000000
0.08944371342658996582031250000000000000
0.07114031165838241577148437500000000000
0.07092101126909255981445312500000000000
-0.02604771032929420471191406250000000000
0.05855882167816162109375000000000000000
0.05222282931208610534667968750000000000
-0.18267272412776947021484375000000000000
0.07450859248638153076171875000000000000
-0.17589569091796875000000000000000000000
0.30954402685165405273437500000000000000
-0.16858804225921630859375000000000000000
-0.19154876470565795898437500000000000000
0.25338450074195861816406250000000000000
-0.03202005103230476379394531250000000000
0.12360889464616775512695312500000000000
0.15476806461811065673828125000000000000
0.13301491737365722656250000000000000000
0.03749459981918334960937500000000000000
-0.14873935282230377197265625000000000000
0.01109714340418577194213867187500000000
0.10259234905242919921875000000000000000
-0.17341604828834533691406250000000000000
-0.03951439261436462402343750000000000000
-0.09728228300809860229492187500000000000
-0.06714897602796554565429687500000000000
-0.01741911657154560089111328125000000000
0.09556578099727630615234375000000000000
0.01727878488600254058837890625000000000
0.01348595507442951202392578125000000000
0.08833652734756469726562500000000000000
-0.26933076977729797363281250000000000000
0.09675742685794830322265625000000000000
0.15314041078090667724609375000000000000
0.01313332468271255493164062500000000000
0.25536054372787475585937500000000000000
-0.16584348678588867187500000000000000000
0.02432487346231937408447265625000000000
0.37972977757453918457031250000000000000
0.11276505142450332641601562500000000000
-0.10783471167087554931640625000000000000
0.13606624305248260498046875000000000000
0.00528841791674494743347167968750000000
0.15539704263210296630859375000000000000
-0.05599564313888549804687500000000000000
0.09199863672256469726562500000000000000
0.18706434965133666992187500000000000000
-0.11780093610286712646484375000000000000
0.11936394870281219482421875000000000000
0.11753254383802413940429687500000000000
0.13822031021118164062500000000000000000
-0.00909255445003509521484375000000000000
-0.06593042612075805664062500000000000000
0.00755094643682241439819335937500000000
-0.17765632271766662597656250000000000000
0.12209787219762802124023437500000000000
0.12552258372306823730468750000000000000
-0.10553444921970367431640625000000000000
-0.07604704052209854125976562500000000000
0.00685396743938326835632324218750000000
-0.03867230191826820373535156250000000000
-0.15341219305992126464843750000000000000
-0.14171124994754791259765625000000000000
-0.06891319900751113891601562500000000000
0.02565215900540351867675781250000000000
-0.06346324831247329711914062500000000000
-0.07777779549360275268554687500000000000
-0.00194622657727450132369995117187500000
-0.28973934054374694824218750000000000000
-0.03952280059456825256347656250000000000
0.10986606031656265258789062500000000000
-0.01986364275217056274414062500000000000
0.00241553131490945816040039062500000000
-0.08547814190387725830078125000000000000
0.13342675566673278808593750000000000000
-0.08115127682685852050781250000000000000
-0.20405112206935882568359375000000000000
0.15322063863277435302734375000000000000
0.09984040260314941406250000000000000000
0.07233133912086486816406250000000000000
0.06548691540956497192382812500000000000
-0.02745300345122814178466796875000000000
0.13829497992992401123046875000000000000
-0.10703485459089279174804687500000000000
0.02429552935063838958740234375000000000
0.00682401563972234725952148437500000000
-0.18159587681293487548828125000000000000
0.13985529541969299316406250000000000000
0.05589153245091438293457031250000000000
0.26021212339401245117187500000000000000
0.01101921312510967254638671875000000000
0.01086900196969509124755859375000000000
-0.06307657063007354736328125000000000000
0.10281296819448471069335937500000000000
0.10737342387437820434570312500000000000
0.24588024616241455078125000000000000000
-0.33077117800712585449218750000000000000
-0.10274135321378707885742187500000000000
-0.04167429357767105102539062500000000000
0.06537035107612609863281250000000000000
0.08055536448955535888671875000000000000
0.12998908758163452148437500000000000000
-0.17359888553619384765625000000000000000
0.13902643322944641113281250000000000000
0.09677398949861526489257812500000000000
-0.07576603442430496215820312500000000000
0.08515736460685729980468750000000000000
-0.05986589565873146057128906250000000000
-0.15961502492427825927734375000000000000
0.04499244317412376403808593750000000000
0.15127232670783996582031250000000000000
0.00370992533862590789794921875000000000
0.07878091931343078613281250000000000000
0.06516601890325546264648437500000000000
0.15421034395694732666015625000000000000
-0.14715467393398284912109375000000000000
0.17774108052253723144531250000000000000
0.02679271437227725982666015625000000000
0.16743734478950500488281250000000000000
0.09720181673765182495117187500000000000
0.28829887509346008300781250000000000000
-0.23623646795749664306640625000000000000
0.00959141273051500320434570312500000000
0.08093932271003723144531250000000000000
0.01365607604384422302246093750000000000
0.06248266622424125671386718750000000000
-0.25417789816856384277343750000000000000
0.07607389986515045166015625000000000000
0.03874279558658599853515625000000000000
-0.21021984517574310302734375000000000000
0.08378653228282928466796875000000000000
-0.10428721457719802856445312500000000000
0.19070258736610412597656250000000000000
-0.09498495608568191528320312500000000000
-0.23823501169681549072265625000000000000
0.11642667651176452636718750000000000000
0.14601457118988037109375000000000000000
-0.03973932191729545593261718750000000000
0.11267589777708053588867187500000000000
0.11437925696372985839843750000000000000
0.15872618556022644042968750000000000000
0.02291275002062320709228515625000000000
-0.02349548600614070892333984375000000000
-0.21964994072914123535156250000000000000
-0.11881590634584426879882812500000000000
-0.03895263746380805969238281250000000000
0.03527350351214408874511718750000000000
0.15205647051334381103515625000000000000
0.12539547681808471679687500000000000000
-0.00710352184250950813293457031250000000
-0.04285318031907081604003906250000000000
0.00465918611735105514526367187500000000
0.20130619406700134277343750000000000000
-0.06807006895542144775390625000000000000
-0.16315054893493652343750000000000000000
-0.03787279129028320312500000000000000000
-0.05484308674931526184082031250000000000
0.13085891306400299072265625000000000000
-0.12120904028415679931640625000000000000
-0.27565222978591918945312500000000000000
-0.09259954094886779785156250000000000000
0.12229897081851959228515625000000000000
-0.08372002094984054565429687500000000000
-0.04929924756288528442382812500000000000
0.20162597298622131347656250000000000000
0.07505743205547332763671875000000000000
0.07661098986864089965820312500000000000
0.12765865027904510498046875000000000000
0.02839246951043605804443359375000000000
-0.05403683707118034362792968750000000000
-0.19249005615711212158203125000000000000
0.02313209511339664459228515625000000000
-0.08625379204750061035156250000000000000
0.00842182617634534835815429687500000000
-0.02396425977349281311035156250000000000
0.03527924045920372009277343750000000000
-0.15567091107368469238281250000000000000
0.01966622471809387207031250000000000000
-0.09327083081007003784179687500000000000
-0.08742982149124145507812500000000000000
0.18979522585868835449218750000000000000
0.02846224233508110046386718750000000000
0.01875559985637664794921875000000000000
-0.18260915577411651611328125000000000000
-0.07017842680215835571289062500000000000
0.25305032730102539062500000000000000000
-0.10950609296560287475585937500000000000
0.21566228568553924560546875000000000000
-0.03846233338117599487304687500000000000
-0.00733040692284703254699707031250000000
0.02212259918451309204101562500000000000
0.01348389778286218643188476562500000000
-0.24814838171005249023437500000000000000
0.01268897857517004013061523437500000000
0.06408674269914627075195312500000000000
-0.00434401305392384529113769531250000000
-0.04478888958692550659179687500000000000
-0.18426811695098876953125000000000000000
0.04710750281810760498046875000000000000
0.05033459514379501342773437500000000000
-0.02201956696808338165283203125000000000
0.06197077035903930664062500000000000000
-0.04949347302317619323730468750000000000
0.21453368663787841796875000000000000000
0.06774529069662094116210937500000000000
-0.05775240436196327209472656250000000000
-0.17102311551570892333984375000000000000
0.04891478270292282104492187500000000000
-0.01892026327550411224365234375000000000
-0.17697072029113769531250000000000000000
-0.29912132024765014648437500000000000000
0.02770580537617206573486328125000000000
0.07750511169433593750000000000000000000
-0.02312362194061279296875000000000000000
0.15036128461360931396484375000000000000
0.01616818830370903015136718750000000000
0.07230265438556671142578125000000000000
-0.16588149964809417724609375000000000000
-0.19459940493106842041015625000000000000
-0.07211670279502868652343750000000000000
0.07388634979724884033203125000000000000
-0.07522203773260116577148437500000000000
0.00261019053868949413299560546875000000
-0.08649622648954391479492187500000000000
-0.07752962410449981689453125000000000000
-0.00477232132107019424438476562500000000
0.06353480368852615356445312500000000000
-0.13253755867481231689453125000000000000
-0.08868230879306793212890625000000000000
0.05600185319781303405761718750000000000
-0.01996106281876564025878906250000000000
0.24817904829978942871093750000000000000
-0.02996961586177349090576171875000000000
-0.27048280835151672363281250000000000000
0.00017317505262326449155807495117187500
-0.21483735740184783935546875000000000000
0.24264021217823028564453125000000000000
-0.06032291799783706665039062500000000000
-0.04525467008352279663085937500000000000
-0.24330893158912658691406250000000000000
-0.08078845590353012084960937500000000000
-0.10333727300167083740234375000000000000
-0.18275021016597747802734375000000000000
0.03884191438555717468261718750000000000
0.02931505814194679260253906250000000000
-0.04353803768754005432128906250000000000
0.03946102783083915710449218750000000000
0.12708505988121032714843750000000000000
0.01925037615001201629638671875000000000
-0.06252460181713104248046875000000000000
-0.08429910242557525634765625000000000000
0.08448717743158340454101562500000000000
-0.13462284207344055175781250000000000000
0.10247688740491867065429687500000000000
-0.21030217409133911132812500000000000000
-0.04484283551573753356933593750000000000
-0.05167858302593231201171875000000000000
0.15635348856449127197265625000000000000
-0.05991088598966598510742187500000000000
0.03304688259959220886230468750000000000
-0.11812499165534973144531250000000000000
0.05026572570204734802246093750000000000
-0.13007286190986633300781250000000000000
-0.13784877955913543701171875000000000000
-0.08133041113615036010742187500000000000
0.09972196817398071289062500000000000000
-0.18570318818092346191406250000000000000
0.16279554367065429687500000000000000000
-0.08110837638378143310546875000000000000
0.09795873612165451049804687500000000000
0.12084739655256271362304687500000000000
0.18136473000049591064453125000000000000
0.10270822048187255859375000000000000000
0.01071402058005332946777343750000000000
-0.08514180779457092285156250000000000000
-0.02584796212613582611083984375000000000
-0.13991333544254302978515625000000000000
-0.13994239270687103271484375000000000000
0.04786019027233123779296875000000000000
0.08954954892396926879882812500000000000
-0.14630161225795745849609375000000000000
0.13550920784473419189453125000000000000
0.02166159078478813171386718750000000000
-0.00791958253830671310424804687500000000
0.14686293900012969970703125000000000000
0.05040501803159713745117187500000000000
-0.12856011092662811279296875000000000000
0.02547403238713741302490234375000000000
0.00381021364592015743255615234375000000
-0.01559371594339609146118164062500000000
-0.11231516301631927490234375000000000000
0.10204760730266571044921875000000000000
-0.13504377007484436035156250000000000000
-0.40471217036247253417968750000000000000
0.02787291444838047027587890625000000000
0.13791105151176452636718750000000000000
-0.14000283181667327880859375000000000000
-0.16628013551235198974609375000000000000
0.02305031567811965942382812500000000000
0.12946420907974243164062500000000000000
0.24476030468940734863281250000000000000
-0.18040995299816131591796875000000000000
-0.20391550660133361816406250000000000000
-0.10227154195308685302734375000000000000
0.22452338039875030517578125000000000000
-0.01172502804547548294067382812500000000
0.31899183988571166992187500000000000000
-0.06659153848886489868164062500000000000
-0.11723726987838745117187500000000000000
0.09796519577503204345703125000000000000
-0.27178019285202026367187500000000000000
0.05067638680338859558105468750000000000
-0.16486352682113647460937500000000000000
-0.11602680385112762451171875000000000000
0.08137391507625579833984375000000000000
-0.03371322527527809143066406250000000000
0.06467940658330917358398437500000000000
-0.25654268264770507812500000000000000000
0.24798077344894409179687500000000000000
0.09773893654346466064453125000000000000
0.00291385082527995109558105468750000000
-0.11655671149492263793945312500000000000
-0.24738638103008270263671875000000000000
-0.19721695780754089355468750000000000000
-0.00012866751058027148246765136718750000
0.10815825313329696655273437500000000000
-0.10342694073915481567382812500000000000
-0.00362397893331944942474365234375000000
-0.07161328941583633422851562500000000000
0.18653668463230133056640625000000000000
0.00238335505127906799316406250000000000
-0.05722289904952049255371093750000000000
-0.01888928376138210296630859375000000000
-0.14259989559650421142578125000000000000
-0.20450921356678009033203125000000000000
-0.01366226002573966979980468750000000000
-0.10308966785669326782226562500000000000
0.01851647347211837768554687500000000000
-0.03426106274127960205078125000000000000
-0.00164952571503818035125732421875000000
-0.03100156970322132110595703125000000000
0.07917401939630508422851562500000000000
0.11961720138788223266601562500000000000
-0.10753341764211654663085937500000000000
0.20322659611701965332031250000000000000
0.12658306956291198730468750000000000000
-0.08128472417593002319335937500000000000
-0.04290325939655303955078125000000000000
-0.10950686037540435791015625000000000000
0.10953737795352935791015625000000000000
-0.16267395019531250000000000000000000000
-0.06400824338197708129882812500000000000
0.16677321493625640869140625000000000000
0.20417733490467071533203125000000000000
-0.07557796686887741088867187500000000000
0.05688096955418586730957031250000000000
0.08420912921428680419921875000000000000
0.18358050286769866943359375000000000000
-0.13473004102706909179687500000000000000
0.12312697619199752807617187500000000000
-0.05383372306823730468750000000000000000
0.02184076234698295593261718750000000000
0.04587048664689064025878906250000000000
-0.09435199946165084838867187500000000000
0.05294200405478477478027343750000000000
0.03597275540232658386230468750000000000
0.19080087542533874511718750000000000000
-0.17109686136245727539062500000000000000
0.27627971768379211425781250000000000000
0.02991333045065402984619140625000000000
0.06585844606161117553710937500000000000
0.05982163548469543457031250000000000000
-0.14557984471321105957031250000000000000
-0.05444272980093955993652343750000000000
0.03390888124704360961914062500000000000
-0.07611609995365142822265625000000000000
0.06244713813066482543945312500000000000
0.00101179955527186393737792968750000000
-0.00540738366544246673583984375000000000
-0.14778697490692138671875000000000000000
0.07195449620485305786132812500000000000
-0.09424708783626556396484375000000000000
-0.15344908833503723144531250000000000000
0.07136888802051544189453125000000000000
0.12512661516666412353515625000000000000
0.07799923419952392578125000000000000000
-0.13581305742263793945312500000000000000
0.06083575636148452758789062500000000000
0.05467631295323371887207031250000000000
0.11903457343578338623046875000000000000
-0.16104164719581604003906250000000000000
0.25245782732963562011718750000000000000
0.15719899535179138183593750000000000000
0.19439987838268280029296875000000000000
-0.15912792086601257324218750000000000000
0.01309704873710870742797851562500000000
0.02676857262849807739257812500000000000
0.01878809742629528045654296875000000000
-0.26405608654022216796875000000000000000
-0.06018267944455146789550781250000000000
0.12894980609416961669921875000000000000
0.04087429121136665344238281250000000000
-0.02843579463660717010498046875000000000
-0.20512455701828002929687500000000000000
0.01988821290433406829833984375000000000
0.05678202584385871887207031250000000000
0.13682885468006134033203125000000000000
-0.13376146554946899414062500000000000000
-0.02732762135565280914306640625000000000
0.09308747947216033935546875000000000000
0.04901823028922080993652343750000000000
0.01225439645349979400634765625000000000
-0.14366175234317779541015625000000000000
-0.12485180795192718505859375000000000000
0.20203055441379547119140625000000000000
0.11832895874977111816406250000000000000
-0.06914091110229492187500000000000000000
-0.11877288669347763061523437500000000000
-0.11489909142255783081054687500000000000
0.15916384756565093994140625000000000000
0.23891201615333557128906250000000000000
-0.08542609214782714843750000000000000000
0.11809633672237396240234375000000000000
-0.08066530525684356689453125000000000000
0.07877970486879348754882812500000000000
-0.01141692698001861572265625000000000000
0.21544206142425537109375000000000000000
-0.14197592437267303466796875000000000000
-0.05161184072494506835937500000000000000
0.04729013517498970031738281250000000000
0.16415902972221374511718750000000000000
-0.04266549646854400634765625000000000000
-0.00473617110401391983032226562500000000
-0.21486227214336395263671875000000000000
-0.09019746631383895874023437500000000000
-0.07081042230129241943359375000000000000
0.18096998333930969238281250000000000000
0.07645435631275177001953125000000000000
-0.08986785262823104858398437500000000000
-0.14890487492084503173828125000000000000
-0.10268285870552062988281250000000000000
0.09383016079664230346679687500000000000
0.19370190799236297607421875000000000000
-0.01217585895210504531860351562500000000
0.13669003546237945556640625000000000000
0.27321037650108337402343750000000000000
0.08633918315172195434570312500000000000
-0.20257002115249633789062500000000000000
0.12236771732568740844726562500000000000
-0.10792517662048339843750000000000000000
-0.15704423189163208007812500000000000000
0.05153940618038177490234375000000000000
-0.11168409138917922973632812500000000000
0.02044297382235527038574218750000000000
-0.04839656874537467956542968750000000000
-0.09139816462993621826171875000000000000
0.19198542833328247070312500000000000000
-0.11562217026948928833007812500000000000
-0.10052859783172607421875000000000000000
-0.05982455983757972717285156250000000000
0.41329488158226013183593750000000000000
-0.07378369569778442382812500000000000000
0.02151201665401458740234375000000000000
0.18918037414550781250000000000000000000
0.04421937465667724609375000000000000000
0.03558686375617980957031250000000000000
0.07020854949951171875000000000000000000
-0.23386004567146301269531250000000000000
-0.04627507552504539489746093750000000000
-0.01942369528114795684814453125000000000
-0.13196042180061340332031250000000000000
0.23603837192058563232421875000000000000
0.18452672660350799560546875000000000000
-0.03646222874522209167480468750000000000
-0.07094475626945495605468750000000000000
-0.08531711995601654052734375000000000000
0.42058297991752624511718750000000000000
0.01392906252294778823852539062500000000
-0.18201056122779846191406250000000000000
0.04695784300565719604492187500000000000
0.08532717078924179077148437500000000000
0.03883497416973114013671875000000000000
0.17589028179645538330078125000000000000
0.08895441889762878417968750000000000000
0.21259799599647521972656250000000000000
0.01414874196052551269531250000000000000
0.18823587894439697265625000000000000000
0.11240370571613311767578125000000000000
0.10868836194276809692382812500000000000
0.13172248005867004394531250000000000000
-0.01434428244829177856445312500000000000
-0.02754293568432331085205078125000000000
-0.00046892781392671167850494384765625000
0.05262713506817817687988281250000000000
-0.08319711685180664062500000000000000000
0.13810725510120391845703125000000000000
0.00766789773479104042053222656250000000
0.19704268872737884521484375000000000000
-0.02671585604548454284667968750000000000
-0.04205299168825149536132812500000000000
-0.15012404322624206542968750000000000000
0.24300529062747955322265625000000000000
-0.14075979590415954589843750000000000000
0.03376463055610656738281250000000000000
0.00089491409016773104667663574218750000
-0.05206868425011634826660156250000000000
0.09519891440868377685546875000000000000
0.13777528703212738037109375000000000000
-0.18055042624473571777343750000000000000
-0.00101835676468908786773681640625000000
-0.04179432988166809082031250000000000000
-0.04180587455630302429199218750000000000
-0.22450025379657745361328125000000000000
-0.16060200333595275878906250000000000000
0.03306022658944129943847656250000000000
-0.32781276106834411621093750000000000000
-0.03116104379296302795410156250000000000
0.06556410342454910278320312500000000000
-0.06249844655394554138183593750000000000
0.06665548682212829589843750000000000000
-0.10709360986948013305664062500000000000
0.03690622746944427490234375000000000000
-0.07259725034236907958984375000000000000
0.05822535231709480285644531250000000000
0.03891102224588394165039062500000000000
0.15148663520812988281250000000000000000
0.15722589194774627685546875000000000000
0.18219064176082611083984375000000000000
-0.03674329444766044616699218750000000000
-0.12912738323211669921875000000000000000
0.21978069841861724853515625000000000000
0.02391124516725540161132812500000000000
0.01519186142832040786743164062500000000
-0.00708140991628170013427734375000000000
0.01382216252386569976806640625000000000
-0.02292935736477375030517578125000000000
0.09995209425687789916992187500000000000
-0.11137738823890686035156250000000000000
-0.06407485902309417724609375000000000000
0.17066743969917297363281250000000000000
0.22004210948944091796875000000000000000
0.03746739774942398071289062500000000000
-0.05548186227679252624511718750000000000
0.03750524669885635375976562500000000000
-0.07492016255855560302734375000000000000
-0.00009693485480966046452522277832031250
-0.12335054576396942138671875000000000000
0.27127486467361450195312500000000000000
-0.05578891187906265258789062500000000000
-0.01723111234605312347412109375000000000
-0.06841661781072616577148437500000000000
-0.10945124924182891845703125000000000000
0.00902490969747304916381835937500000000
-0.02213149331510066986083984375000000000
-0.03108737245202064514160156250000000000
-0.03481582179665565490722656250000000000
0.16379892826080322265625000000000000000
-0.01939621753990650177001953125000000000
0.02676651440560817718505859375000000000
0.08361726999282836914062500000000000000
0.05154286324977874755859375000000000000
-0.01780189760029315948486328125000000000
-0.08732175827026367187500000000000000000
-0.18430706858634948730468750000000000000
-0.20597666501998901367187500000000000000
0.08863740414381027221679687500000000000
-0.08360176533460617065429687500000000000
0.10288077592849731445312500000000000000
-0.03345190361142158508300781250000000000
-0.26266735792160034179687500000000000000
0.17510451376438140869140625000000000000
0.02954014204442501068115234375000000000
0.09139309823513031005859375000000000000
-0.08471683412790298461914062500000000000
-0.08502800762653350830078125000000000000
-0.02568529173731803894042968750000000000
0.00859722308814525604248046875000000000
-0.05817395076155662536621093750000000000
0.13395881652832031250000000000000000000
-0.08289750665426254272460937500000000000
0.08180107921361923217773437500000000000
-0.17905390262603759765625000000000000000
-0.06264876574277877807617187500000000000
0.00260952953249216079711914062500000000
0.07739489525556564331054687500000000000
-0.05840330943465232849121093750000000000
0.03593496978282928466796875000000000000
-0.02900800295174121856689453125000000000
0.12630319595336914062500000000000000000
0.21337306499481201171875000000000000000
0.16454493999481201171875000000000000000
0.06330762058496475219726562500000000000
-0.06735716015100479125976562500000000000
0.05578564479947090148925781250000000000
0.03100061230361461639404296875000000000
-0.20889548957347869873046875000000000000
-0.02314873971045017242431640625000000000
0.18761374056339263916015625000000000000
0.23486074805259704589843750000000000000
-0.23012687265872955322265625000000000000
-0.20355835556983947753906250000000000000
-0.06814396381378173828125000000000000000
-0.15163816511631011962890625000000000000
0.08697325736284255981445312500000000000
-0.20963254570960998535156250000000000000
-0.02122071199119091033935546875000000000
-0.06114310026168823242187500000000000000
0.15940371155738830566406250000000000000
0.00051692174747586250305175781250000000
0.17221145331859588623046875000000000000
-0.09604830294847488403320312500000000000
0.11997118592262268066406250000000000000
0.02385030873119831085205078125000000000
0.02479567751288414001464843750000000000
0.00620498321950435638427734375000000000
0.13400878012180328369140625000000000000
0.13428755104541778564453125000000000000
-0.02186731062829494476318359375000000000
0.18924511969089508056640625000000000000
-0.02593128383159637451171875000000000000
0.01725316047668457031250000000000000000
0.09855782985687255859375000000000000000
-0.08737739920616149902343750000000000000
0.13259662687778472900390625000000000000
0.22797103226184844970703125000000000000
-0.27745896577835083007812500000000000000
-0.09248591214418411254882812500000000000
-0.16412940621376037597656250000000000000
-0.13820488750934600830078125000000000000
-0.09444888681173324584960937500000000000
-0.16853716969490051269531250000000000000
-0.09146670997142791748046875000000000000
-0.11292418092489242553710937500000000000
-0.20155754685401916503906250000000000000
0.08238044381141662597656250000000000000
0.11802317947149276733398437500000000000
0.03468256816267967224121093750000000000
-0.18172426521778106689453125000000000000
-0.04328643158078193664550781250000000000
-0.21795824170112609863281250000000000000
0.19316864013671875000000000000000000000
0.19208718836307525634765625000000000000
0.01122826151549816131591796875000000000
0.11909671127796173095703125000000000000
0.04867793247103691101074218750000000000
0.24896840751171112060546875000000000000
0.08638537675142288208007812500000000000
0.03927714377641677856445312500000000000
-0.08282019942998886108398437500000000000
0.02865921892225742340087890625000000000
0.01930522732436656951904296875000000000
0.01867983676493167877197265625000000000
0.04300929978489875793457031250000000000
0.02662152796983718872070312500000000000
0.17352300882339477539062500000000000000
-0.05740372091531753540039062500000000000
0.03697500750422477722167968750000000000
0.05071421712636947631835937500000000000
-0.18605902791023254394531250000000000000
-0.12410765141248703002929687500000000000
-0.21125681698322296142578125000000000000
-0.09537677466869354248046875000000000000
-0.01725421287119388580322265625000000000
0.04715669527649879455566406250000000000
-0.02066286094486713409423828125000000000
0.20486320555210113525390625000000000000
0.00188850937411189079284667968750000000
-0.01853758096694946289062500000000000000
0.06093063578009605407714843750000000000
0.05935280025005340576171875000000000000
-0.10600506514310836791992187500000000000
-0.00120774749666452407836914062500000000
-0.08847083151340484619140625000000000000
0.18518351018428802490234375000000000000
-0.00500955758616328239440917968750000000
-0.02402631938457489013671875000000000000
-0.08224155008792877197265625000000000000
-0.17813484370708465576171875000000000000
0.10575556755065917968750000000000000000
-0.23949722945690155029296875000000000000
0.20230506360530853271484375000000000000
0.06776224076747894287109375000000000000
-0.09058433771133422851562500000000000000
0.11449434608221054077148437500000000000
-0.14483174681663513183593750000000000000
0.06288686394691467285156250000000000000
-0.06160196661949157714843750000000000000
-0.14065133035182952880859375000000000000
0.25449252128601074218750000000000000000
0.02315704151988029479980468750000000000
0.12437181919813156127929687500000000000
-0.10959897935390472412109375000000000000
0.08116079121828079223632812500000000000
0.22539082169532775878906250000000000000
0.05678023025393486022949218750000000000
-0.08472465723752975463867187500000000000
-0.08352718502283096313476562500000000000
-0.10069049894809722900390625000000000000
-0.17417778074741363525390625000000000000
0.07930054515600204467773437500000000000
-0.13204850256443023681640625000000000000
-0.21424198150634765625000000000000000000
-0.13848103582859039306640625000000000000
-0.26740807294845581054687500000000000000
-0.10011423379182815551757812500000000000
0.09093751758337020874023437500000000000
-0.07633060961961746215820312500000000000
0.14903746545314788818359375000000000000
0.05324834585189819335937500000000000000
0.10635170340538024902343750000000000000
0.16008946299552917480468750000000000000
-0.04931093007326126098632812500000000000
-0.13688048720359802246093750000000000000
0.09195914864540100097656250000000000000
-0.05807781964540481567382812500000000000
0.00217062793672084808349609375000000000
0.07310642302036285400390625000000000000
0.04092438519001007080078125000000000000
0.25191414356231689453125000000000000000
0.11289951205253601074218750000000000000
-0.19088634848594665527343750000000000000
-0.08541656285524368286132812500000000000
0.18540367484092712402343750000000000000
0.12205538898706436157226562500000000000
-0.22240592539310455322265625000000000000
-0.09459926933050155639648437500000000000
0.13827076554298400878906250000000000000
0.26474452018737792968750000000000000000
-0.23444336652755737304687500000000000000
-0.03971870243549346923828125000000000000
-0.17195424437522888183593750000000000000
0.02836503833532333374023437500000000000
-0.05881046876311302185058593750000000000
-0.13987274467945098876953125000000000000
0.21858502924442291259765625000000000000
0.08736648410558700561523437500000000000
0.13849405944347381591796875000000000000
0.13316750526428222656250000000000000000
-0.12787003815174102783203125000000000000
-0.10188078880310058593750000000000000000
-0.18999205529689788818359375000000000000
0.10539992153644561767578125000000000000
0.08644126355648040771484375000000000000
