0.21106947958469390869140625000000000000
0.09805532544851303100585937500000000000
0.12701880931854248046875000000000000000
0.06309477239847183227539062500000000000
0.02956461161375045776367187500000000000
0.21661692857742309570312500000000000000
-0.17415601015090942382812500000000000000
-0.13015258312225341796875000000000000000
0.18155416846275329589843750000000000000
0.14763188362121582031250000000000000000
-0.00022827490465715527534484863281250000
-0.07172708958387374877929687500000000000
0.20124784111976623535156250000000000000
-0.12660616636276245117187500000000000000
-0.06815201789140701293945312500000000000
-0.15501399338245391845703125000000000000
-0.04472906887531280517578125000000000000
-0.14580272138118743896484375000000000000
0.15294030308723449707031250000000000000
0.10423475503921508789062500000000000000
0.05195389315485954284667968750000000000
0.00702768610790371894836425781250000000
0.15032704174518585205078125000000000000
0.12538217008113861083984375000000000000
-0.01225206069648265838623046875000000000
0.06177402660250663757324218750000000000
-0.09920058399438858032226562500000000000
0.01711528562009334564208984375000000000
-0.03883597999811172485351562500000000000
-0.09648986905813217163085937500000000000
-0.15501426160335540771484375000000000000
-0.11399492621421813964843750000000000000
-0.13037586212158203125000000000000000000
-0.09306683391332626342773437500000000000
-0.21936869621276855468750000000000000000
-0.15340533852577209472656250000000000000
0.08079806715250015258789062500000000000
0.01510119065642356872558593750000000000
-0.08401440829038619995117187500000000000
-0.10859813541173934936523437500000000000
0.25448510050773620605468750000000000000
0.09957846999168395996093750000000000000
0.07956620305776596069335937500000000000
-0.19541820883750915527343750000000000000
0.02350891754031181335449218750000000000
-0.21158982813358306884765625000000000000
0.03989784047007560729980468750000000000
0.14151474833488464355468750000000000000
0.07707196474075317382812500000000000000
-0.08406115323305130004882812500000000000
0.02934305369853973388671875000000000000
-0.31167489290237426757812500000000000000
-0.00445516314357519149780273437500000000
-0.04684257879853248596191406250000000000
-0.16297836601734161376953125000000000000
-0.06322236359119415283203125000000000000
0.03560123965144157409667968750000000000
0.26556855440139770507812500000000000000
-0.26435595750808715820312500000000000000
-0.00731287430971860885620117187500000000
-0.24155545234680175781250000000000000000
0.11330977827310562133789062500000000000
-0.10935322195291519165039062500000000000
-0.08500422537326812744140625000000000000
0.23025810718536376953125000000000000000
-0.15302331745624542236328125000000000000
-0.11372592300176620483398437500000000000
0.17799057066440582275390625000000000000
0.34052425622940063476562500000000000000
0.06549265980720520019531250000000000000
-0.22408318519592285156250000000000000000
0.00122758746147155761718750000000000000
0.08955188840627670288085937500000000000
-0.15725368261337280273437500000000000000
-0.05508631840348243713378906250000000000
0.05977730453014373779296875000000000000
-0.10914234817028045654296875000000000000
0.08945191651582717895507812500000000000
-0.06392891705036163330078125000000000000
0.02514391578733921051025390625000000000
0.00122101174201816320419311523437500000
0.06065436825156211853027343750000000000
0.15719500184059143066406250000000000000
-0.16437260806560516357421875000000000000
0.07362598180770874023437500000000000000
0.11196617037057876586914062500000000000
-0.22434610128402709960937500000000000000
0.23863339424133300781250000000000000000
-0.06662569940090179443359375000000000000
-0.11974107474088668823242187500000000000
0.04760876297950744628906250000000000000
0.03038397990167140960693359375000000000
0.20281143486499786376953125000000000000
-0.02653120458126068115234375000000000000
0.08047201484441757202148437500000000000
0.06801343709230422973632812500000000000
0.01552765257656574249267578125000000000
-0.16075159609317779541015625000000000000
-0.03803282231092453002929687500000000000
-0.26181960105895996093750000000000000000
0.05719517543911933898925781250000000000
-0.21614105999469757080078125000000000000
-0.33013078570365905761718750000000000000
-0.09291546046733856201171875000000000000
0.14949023723602294921875000000000000000
-0.02514329180121421813964843750000000000
-0.19721105694770812988281250000000000000
0.00557983573526144027709960937500000000
-0.06356297433376312255859375000000000000
0.15854345262050628662109375000000000000
0.20033776760101318359375000000000000000
0.05895761400461196899414062500000000000
0.21468991041183471679687500000000000000
0.18047311902046203613281250000000000000
0.11394670605659484863281250000000000000
-0.20583680272102355957031250000000000000
0.05892167985439300537109375000000000000
-0.00504589825868606567382812500000000000
0.18257045745849609375000000000000000000
-0.14810743927955627441406250000000000000
0.09276492148637771606445312500000000000
-0.15121893584728240966796875000000000000
-0.06833251565694808959960937500000000000
-0.17540764808654785156250000000000000000
0.13197489082813262939453125000000000000
0.04546814039349555969238281250000000000
-0.13425365090370178222656250000000000000
0.16043104231357574462890625000000000000
-0.10870227962732315063476562500000000000
0.06081635504961013793945312500000000000
0.07861942052841186523437500000000000000
-0.13914522528648376464843750000000000000
0.09099589288234710693359375000000000000
-0.08495578914880752563476562500000000000
-0.22537538409233093261718750000000000000
-0.11849998682737350463867187500000000000
0.00448802346363663673400878906250000000
-0.03691004589200019836425781250000000000
0.02518946491181850433349609375000000000
0.13316245377063751220703125000000000000
-0.07287283986806869506835937500000000000
-0.01577557623386383056640625000000000000
0.18163292109966278076171875000000000000
0.10292458534240722656250000000000000000
0.09899248182773590087890625000000000000
0.09865856915712356567382812500000000000
-0.15385808050632476806640625000000000000
-0.16120010614395141601562500000000000000
0.10050658136606216430664062500000000000
-0.21509887278079986572265625000000000000
0.13156469166278839111328125000000000000
0.16976058483123779296875000000000000000
0.20456159114837646484375000000000000000
-0.12012223154306411743164062500000000000
0.10994031280279159545898437500000000000
0.10726273059844970703125000000000000000
-0.12801393866539001464843750000000000000
-0.18997895717620849609375000000000000000
-0.15088264644145965576171875000000000000
0.08317483961582183837890625000000000000
0.19695734977722167968750000000000000000
-0.04483327642083168029785156250000000000
0.11635801196098327636718750000000000000
0.04528867080807685852050781250000000000
0.08680362254381179809570312500000000000
0.12787497043609619140625000000000000000
-0.08130078017711639404296875000000000000
-0.15753415226936340332031250000000000000
-0.17905935645103454589843750000000000000
0.15893447399139404296875000000000000000
0.01705964840948581695556640625000000000
0.03354156762361526489257812500000000000
-0.08757483959197998046875000000000000000
-0.05903505533933639526367187500000000000
0.04935251548886299133300781250000000000
0.18127283453941345214843750000000000000
0.17181214690208435058593750000000000000
-0.14905849099159240722656250000000000000
0.17700730264186859130859375000000000000
0.11924520879983901977539062500000000000
-0.13851520419120788574218750000000000000
-0.08321056514978408813476562500000000000
0.32951736450195312500000000000000000000
-0.16923402249813079833984375000000000000
0.16000024974346160888671875000000000000
0.07573266327381134033203125000000000000
-0.08569386601448059082031250000000000000
-0.09268101304769515991210937500000000000
0.31346783041954040527343750000000000000
0.04843744263052940368652343750000000000
-0.17021498084068298339843750000000000000
-0.12336331605911254882812500000000000000
-0.03753292560577392578125000000000000000
0.02586201019585132598876953125000000000
-0.03649917989969253540039062500000000000
0.02745207026600837707519531250000000000
0.21107020974159240722656250000000000000
0.11255759745836257934570312500000000000
-0.01503514032810926437377929687500000000
0.04757312685251235961914062500000000000
-0.14333072304725646972656250000000000000
0.19058051705360412597656250000000000000
-0.13261294364929199218750000000000000000
0.16465534269809722900390625000000000000
-0.11895129829645156860351562500000000000
0.32830050587654113769531250000000000000
-0.14730086922645568847656250000000000000
-0.03230840712785720825195312500000000000
0.01432809233665466308593750000000000000
0.05302187800407409667968750000000000000
0.13198193907737731933593750000000000000
-0.16582894325256347656250000000000000000
0.14933654665946960449218750000000000000
0.02198254689574241638183593750000000000
-0.04254866391420364379882812500000000000
-0.13261061906814575195312500000000000000
-0.07063055038452148437500000000000000000
0.22522845864295959472656250000000000000
0.39094731211662292480468750000000000000
-0.26674923300743103027343750000000000000
0.07975927740335464477539062500000000000
-0.25872346758842468261718750000000000000
-0.09391271322965621948242187500000000000
0.02044231630861759185791015625000000000
0.00524822855368256568908691406250000000
0.16363459825515747070312500000000000000
-0.10191091895103454589843750000000000000
0.16929860413074493408203125000000000000
0.23748123645782470703125000000000000000
-0.02426623739302158355712890625000000000
0.06278039515018463134765625000000000000
0.10460092127323150634765625000000000000
-0.20385587215423583984375000000000000000
0.06884619593620300292968750000000000000
-0.08908861130475997924804687500000000000
-0.05820762366056442260742187500000000000
0.27648440003395080566406250000000000000
-0.02950633689761161804199218750000000000
0.16812236607074737548828125000000000000
-0.17712806165218353271484375000000000000
-0.01332974899560213088989257812500000000
-0.25332033634185791015625000000000000000
0.18454748392105102539062500000000000000
-0.20997518301010131835937500000000000000
-0.01377600058913230895996093750000000000
0.22319154441356658935546875000000000000
-0.16838304698467254638671875000000000000
-0.20816801488399505615234375000000000000
-0.00475106900557875633239746093750000000
-0.07778868824243545532226562500000000000
-0.13721859455108642578125000000000000000
0.13541962206363677978515625000000000000
-0.03423836082220077514648437500000000000
-0.24528574943542480468750000000000000000
0.02595159038901329040527343750000000000
-0.04232284799218177795410156250000000000
0.22800391912460327148437500000000000000
0.18577338755130767822265625000000000000
0.05916317924857139587402343750000000000
-0.09058283269405364990234375000000000000
-0.08289719372987747192382812500000000000
-0.05005918070673942565917968750000000000
-0.24640797078609466552734375000000000000
-0.07454123347997665405273437500000000000
-0.20682877302169799804687500000000000000
0.02760844491422176361083984375000000000
-0.03573069348931312561035156250000000000
-0.02635068632662296295166015625000000000
-0.10467571765184402465820312500000000000
0.14076627790927886962890625000000000000
-0.01668656244874000549316406250000000000
0.12264362722635269165039062500000000000
-0.03554593026638031005859375000000000000
0.04824447631835937500000000000000000000
0.18242034316062927246093750000000000000
-0.06682813167572021484375000000000000000
0.10257521271705627441406250000000000000
-0.11407964676618576049804687500000000000
-0.03627987205982208251953125000000000000
-0.12839746475219726562500000000000000000
0.12090224027633666992187500000000000000
0.24325507879257202148437500000000000000
0.11394832283258438110351562500000000000
-0.07450544834136962890625000000000000000
-0.03118237666785717010498046875000000000
-0.05308933556079864501953125000000000000
0.20241117477416992187500000000000000000
-0.15846690535545349121093750000000000000
-0.04485503956675529479980468750000000000
-0.11907825618982315063476562500000000000
-0.02435837499797344207763671875000000000
-0.18312470614910125732421875000000000000
0.22171193361282348632812500000000000000
-0.08235405385494232177734375000000000000
-0.19727061688899993896484375000000000000
0.28609469532966613769531250000000000000
0.11031331121921539306640625000000000000
-0.06104252859950065612792968750000000000
0.14211606979370117187500000000000000000
-0.21601338684558868408203125000000000000
-0.08499138057231903076171875000000000000
-0.06408278644084930419921875000000000000
0.06794943660497665405273437500000000000
-0.13121777772903442382812500000000000000
0.25297999382019042968750000000000000000
0.07456585019826889038085937500000000000
0.14567312598228454589843750000000000000
0.16124594211578369140625000000000000000
0.08443211019039154052734375000000000000
-0.00215850234962999820709228515625000000
0.03157005459070205688476562500000000000
-0.14671258628368377685546875000000000000
0.00421067606657743453979492187500000000
-0.18577285110950469970703125000000000000
0.17020237445831298828125000000000000000
0.20853766798973083496093750000000000000
0.07481699436902999877929687500000000000
0.11020670831203460693359375000000000000
-0.11388539522886276245117187500000000000
0.06883735954761505126953125000000000000
-0.07120684534311294555664062500000000000
0.08149126172065734863281250000000000000
0.05194137990474700927734375000000000000
0.05681148171424865722656250000000000000
-0.17164522409439086914062500000000000000
0.26222136616706848144531250000000000000
-0.25351792573928833007812500000000000000
0.08092333376407623291015625000000000000
-0.08626613020896911621093750000000000000
0.12269263714551925659179687500000000000
0.22391459345817565917968750000000000000
0.03152199834585189819335937500000000000
-0.06407240778207778930664062500000000000
0.12496818602085113525390625000000000000
0.04375883191823959350585937500000000000
-0.05838525667786598205566406250000000000
-0.16706407070159912109375000000000000000
-0.02687976136803627014160156250000000000
0.13218855857849121093750000000000000000
-0.10011911392211914062500000000000000000
0.05298561975359916687011718750000000000
0.01377755496650934219360351562500000000
0.10628631711006164550781250000000000000
-0.15038548409938812255859375000000000000
-0.33341255784034729003906250000000000000
-0.12079732120037078857421875000000000000
0.21702784299850463867187500000000000000
0.01684366539120674133300781250000000000
0.01929555647075176239013671875000000000
0.00323769054375588893890380859375000000
-0.07932962477207183837890625000000000000
0.19811686873435974121093750000000000000
-0.05150315165519714355468750000000000000
0.00689094001427292823791503906250000000
0.23080173134803771972656250000000000000
0.02894534170627593994140625000000000000
-0.12455954402685165405273437500000000000
0.10290618240833282470703125000000000000
0.02339555881917476654052734375000000000
0.00874947663396596908569335937500000000
-0.23394389450550079345703125000000000000
-0.02382660098373889923095703125000000000
-0.03820838406682014465332031250000000000
0.10074525326490402221679687500000000000
0.07446279376745223999023437500000000000
-0.03718796372413635253906250000000000000
-0.01885245926678180694580078125000000000
-0.25211107730865478515625000000000000000
-0.06726715713739395141601562500000000000
0.01630016602575778961181640625000000000
0.11552292108535766601562500000000000000
-0.02996780350804328918457031250000000000
0.21634338796138763427734375000000000000
-0.06812518090009689331054687500000000000
-0.17599661648273468017578125000000000000
0.25121471285820007324218750000000000000
-0.14178974926471710205078125000000000000
-0.02274229004979133605957031250000000000
0.01750557683408260345458984375000000000
-0.17769850790500640869140625000000000000
-0.08342318236827850341796875000000000000
-0.17436073720455169677734375000000000000
0.04713016748428344726562500000000000000
-0.17900586128234863281250000000000000000
0.09351936727762222290039062500000000000
-0.11853189021348953247070312500000000000
-0.09368916600942611694335937500000000000
0.13431152701377868652343750000000000000
-0.11446932703256607055664062500000000000
-0.17389817535877227783203125000000000000
-0.05206171423196792602539062500000000000
0.23807121813297271728515625000000000000
0.10390283167362213134765625000000000000
0.03551148623228073120117187500000000000
-0.14990527927875518798828125000000000000
-0.00439413916319608688354492187500000000
0.01249517966061830520629882812500000000
-0.18362830579280853271484375000000000000
0.06259331852197647094726562500000000000
-0.11920092999935150146484375000000000000
0.11927103251218795776367187500000000000
0.02851559966802597045898437500000000000
-0.11164549738168716430664062500000000000
0.22188030183315277099609375000000000000
-0.18164439499378204345703125000000000000
-0.13148175179958343505859375000000000000
0.09359186887741088867187500000000000000
0.09661848843097686767578125000000000000
-0.12166921794414520263671875000000000000
0.14610098302364349365234375000000000000
-0.23480318486690521240234375000000000000
-0.02951580658555030822753906250000000000
0.16623683273792266845703125000000000000
-0.23101380467414855957031250000000000000
0.15052227675914764404296875000000000000
-0.08939068019390106201171875000000000000
-0.03825992718338966369628906250000000000
0.21414671838283538818359375000000000000
-0.24392107129096984863281250000000000000
-0.11742860078811645507812500000000000000
0.08779384940862655639648437500000000000
0.00794242601841688156127929687500000000
0.09431926161050796508789062500000000000
-0.20094664394855499267578125000000000000
0.06492501497268676757812500000000000000
0.21071036159992218017578125000000000000
-0.05583189427852630615234375000000000000
0.00030868925387039780616760253906250000
0.03439271450042724609375000000000000000
-0.13429555296897888183593750000000000000
0.17610622942447662353515625000000000000
-0.13202947378158569335937500000000000000
0.25837376713752746582031250000000000000
-0.04593912884593009948730468750000000000
-0.12939919531345367431640625000000000000
-0.13713341951370239257812500000000000000
0.09700272232294082641601562500000000000
0.09309325367212295532226562500000000000
0.08246912807226181030273437500000000000
-0.14404264092445373535156250000000000000
-0.04820869863033294677734375000000000000
0.12245780229568481445312500000000000000
0.00611120369285345077514648437500000000
0.12915825843811035156250000000000000000
-0.04148318246006965637207031250000000000
-0.10701505094766616821289062500000000000
-0.06293987482786178588867187500000000000
-0.14699392020702362060546875000000000000
0.16313165426254272460937500000000000000
0.00797716435045003890991210937500000000
0.23887570202350616455078125000000000000
0.09281733632087707519531250000000000000
0.05312664806842803955078125000000000000
-0.18494476377964019775390625000000000000
-0.29260617494583129882812500000000000000
-0.05779121443629264831542968750000000000
0.07438675314188003540039062500000000000
0.08060642331838607788085937500000000000
0.12908962368965148925781250000000000000
-0.13060782849788665771484375000000000000
0.02426288463175296783447265625000000000
0.08066091686487197875976562500000000000
-0.15613646805286407470703125000000000000
-0.00794719252735376358032226562500000000
-0.24153141677379608154296875000000000000
-0.01879256777465343475341796875000000000
-0.08363942801952362060546875000000000000
0.19013783335685729980468750000000000000
-0.28250256180763244628906250000000000000
0.23901641368865966796875000000000000000
0.08202701807022094726562500000000000000
-0.21450841426849365234375000000000000000
0.18142881989479064941406250000000000000
0.16259710490703582763671875000000000000
0.02716917172074317932128906250000000000
0.06038337200880050659179687500000000000
0.09816253185272216796875000000000000000
0.02250930853188037872314453125000000000
-0.13428007066249847412109375000000000000
-0.10466666519641876220703125000000000000
-0.16611020267009735107421875000000000000
-0.04193132370710372924804687500000000000
-0.18565408885478973388671875000000000000
0.16522738337516784667968750000000000000
-0.12419655919075012207031250000000000000
0.15766353905200958251953125000000000000
0.15397170186042785644531250000000000000
0.17972232401371002197265625000000000000
0.15887677669525146484375000000000000000
-0.10441590100526809692382812500000000000
0.20113709568977355957031250000000000000
0.16855013370513916015625000000000000000
0.25130051374435424804687500000000000000
-0.04571699723601341247558593750000000000
-0.12108425796031951904296875000000000000
0.21301046013832092285156250000000000000
-0.21859049797058105468750000000000000000
0.06596999615430831909179687500000000000
-0.06501233577728271484375000000000000000
-0.07682332396507263183593750000000000000
0.07910867035388946533203125000000000000
0.02556714043021202087402343750000000000
0.00297922920435667037963867187500000000
0.04909120127558708190917968750000000000
0.10465833544731140136718750000000000000
-0.12132929265499114990234375000000000000
0.07257507741451263427734375000000000000
0.17039136588573455810546875000000000000
0.03245612978935241699218750000000000000
-0.13415879011154174804687500000000000000
-0.00416716886684298515319824218750000000
0.15917550027370452880859375000000000000
0.18536034226417541503906250000000000000
0.11347375065088272094726562500000000000
0.16637504100799560546875000000000000000
-0.01804526522755622863769531250000000000
0.09357333183288574218750000000000000000
-0.14267908036708831787109375000000000000
0.09493862092494964599609375000000000000
0.15375214815139770507812500000000000000
0.16345462203025817871093750000000000000
0.12197613716125488281250000000000000000
0.08584158867597579956054687500000000000
-0.18023864924907684326171875000000000000
-0.06965785473585128784179687500000000000
0.04696634411811828613281250000000000000
-0.16231489181518554687500000000000000000
0.19377613067626953125000000000000000000
-0.04573000967502593994140625000000000000
-0.04394693300127983093261718750000000000
0.27151203155517578125000000000000000000
0.08415136486291885375976562500000000000
0.16548179090023040771484375000000000000
-0.10541868209838867187500000000000000000
-0.12253887951374053955078125000000000000
0.09715569019317626953125000000000000000
0.22470219433307647705078125000000000000
0.07045205682516098022460937500000000000
0.04411462321877479553222656250000000000
0.07637148350477218627929687500000000000
0.02146481350064277648925781250000000000
-0.33383020758628845214843750000000000000
-0.17557416856288909912109375000000000000
0.19533728063106536865234375000000000000
0.10207927227020263671875000000000000000
-0.02191489748656749725341796875000000000
0.08203140646219253540039062500000000000
-0.16913902759552001953125000000000000000
-0.17195974290370941162109375000000000000
0.03991969674825668334960937500000000000
-0.12310001254081726074218750000000000000
-0.02787750400602817535400390625000000000
0.16997069120407104492187500000000000000
-0.25823995471000671386718750000000000000
0.15500034391880035400390625000000000000
-0.15839235484600067138671875000000000000
0.01977623999118804931640625000000000000
-0.00197126134298741817474365234375000000
0.24807928502559661865234375000000000000
-0.02308147400617599487304687500000000000
-0.25441840291023254394531250000000000000
-0.03088773041963577270507812500000000000
-0.22511078417301177978515625000000000000
0.05431919172406196594238281250000000000
-0.10421551764011383056640625000000000000
-0.12723536789417266845703125000000000000
0.00454526022076606750488281250000000000
-0.28602126240730285644531250000000000000
0.12428129464387893676757812500000000000
-0.10325106978416442871093750000000000000
-0.01567712984979152679443359375000000000
0.21746265888214111328125000000000000000
0.05212825909256935119628906250000000000
0.01378211658447980880737304687500000000
-0.17809471487998962402343750000000000000
-0.10678521543741226196289062500000000000
0.18554629385471343994140625000000000000
-0.18135271966457366943359375000000000000
0.15871775150299072265625000000000000000
0.00383909977972507476806640625000000000
-0.16513377428054809570312500000000000000
0.28048235177993774414062500000000000000
0.07089038193225860595703125000000000000
-0.08489318937063217163085937500000000000
0.04447108879685401916503906250000000000
-0.17372620105743408203125000000000000000
-0.07474451512098312377929687500000000000
0.17315481603145599365234375000000000000
0.22825887799263000488281250000000000000
-0.07807938754558563232421875000000000000
-0.19790063798427581787109375000000000000
0.13090336322784423828125000000000000000
-0.15280966460704803466796875000000000000
0.08898679167032241821289062500000000000
-0.17468762397766113281250000000000000000
0.02287004329264163970947265625000000000
-0.17853043973445892333984375000000000000
-0.00938068330287933349609375000000000000
0.12432610243558883666992187500000000000
0.19070293009281158447265625000000000000
-0.09301159530878067016601562500000000000
0.02358143776655197143554687500000000000
-0.11330473423004150390625000000000000000
0.08162271976470947265625000000000000000
0.29243540763854980468750000000000000000
0.21112655103206634521484375000000000000
-0.11907131224870681762695312500000000000
0.20476232469081878662109375000000000000
-0.12362312525510787963867187500000000000
0.02057413011789321899414062500000000000
0.27138623595237731933593750000000000000
0.10130959004163742065429687500000000000
0.16231602430343627929687500000000000000
0.08355370163917541503906250000000000000
-0.08198379725217819213867187500000000000
0.15349698066711425781250000000000000000
0.00767686078324913978576660156250000000
0.02384689450263977050781250000000000000
0.05746078491210937500000000000000000000
-0.00935444980859756469726562500000000000
0.06411226838827133178710937500000000000
-0.05876268073916435241699218750000000000
0.16457778215408325195312500000000000000
0.15171965956687927246093750000000000000
-0.13526719808578491210937500000000000000
0.29712155461311340332031250000000000000
-0.19770862162113189697265625000000000000
0.10198196023702621459960937500000000000
-0.05200343951582908630371093750000000000
0.14009949564933776855468750000000000000
-0.09560400992631912231445312500000000000
0.08279483765363693237304687500000000000
-0.05827501788735389709472656250000000000
-0.09777309000492095947265625000000000000
-0.11730479449033737182617187500000000000
-0.07536762207746505737304687500000000000
-0.13729538023471832275390625000000000000
-0.15236578881740570068359375000000000000
-0.13204360008239746093750000000000000000
0.15812875330448150634765625000000000000
0.09274848550558090209960937500000000000
0.13873893022537231445312500000000000000
0.04212726652622222900390625000000000000
0.10421244800090789794921875000000000000
-0.17154119908809661865234375000000000000
0.24425874650478363037109375000000000000
-0.08068801462650299072265625000000000000
-0.09564653784036636352539062500000000000
-0.04057791084051132202148437500000000000
-0.33131724596023559570312500000000000000
-0.01590047590434551239013671875000000000
-0.04128313437104225158691406250000000000
0.11716759949922561645507812500000000000
-0.11031848937273025512695312500000000000
0.07033253461122512817382812500000000000
-0.23868261277675628662109375000000000000
-0.09853950887918472290039062500000000000
0.07301349192857742309570312500000000000
-0.04486262425780296325683593750000000000
-0.23239079117774963378906250000000000000
-0.00571147538721561431884765625000000000
0.23896196484565734863281250000000000000
0.09480077773332595825195312500000000000
-0.17309275269508361816406250000000000000
0.04869827628135681152343750000000000000
0.15112446248531341552734375000000000000
-0.19058935344219207763671875000000000000
-0.09213429689407348632812500000000000000
-0.22832210361957550048828125000000000000
-0.31469604372978210449218750000000000000
-0.04139012470841407775878906250000000000
0.02802475728094577789306640625000000000
0.08472200483083724975585937500000000000
-0.01448910869657993316650390625000000000
0.01290176343172788619995117187500000000
0.09693340212106704711914062500000000000
0.17078289389610290527343750000000000000
0.03510313481092453002929687500000000000
-0.25370240211486816406250000000000000000
-0.04053704440593719482421875000000000000
0.03163357451558113098144531250000000000
0.00191779132001101970672607421875000000
-0.04253797605633735656738281250000000000
-0.14646504819393157958984375000000000000
0.02915330231189727783203125000000000000
-0.12345229834318161010742187500000000000
-0.02712640911340713500976562500000000000
-0.03471202403306961059570312500000000000
0.32861551642417907714843750000000000000
-0.35052561759948730468750000000000000000
-0.09981954842805862426757812500000000000
0.20971184968948364257812500000000000000
-0.20029518008232116699218750000000000000
-0.22702394425868988037109375000000000000
-0.17025908827781677246093750000000000000
0.13965623080730438232421875000000000000
0.18723773956298828125000000000000000000
-0.25837671756744384765625000000000000000
-0.06100190803408622741699218750000000000
0.01675246469676494598388671875000000000
-0.00268591917119920253753662109375000000
0.03117080591619014739990234375000000000
-0.21776032447814941406250000000000000000
-0.20651657879352569580078125000000000000
0.21965311467647552490234375000000000000
-0.01688456721603870391845703125000000000
0.11005814373493194580078125000000000000
-0.06423294544219970703125000000000000000
0.07113542407751083374023437500000000000
-0.15595145523548126220703125000000000000
0.11099145561456680297851562500000000000
0.00299721932969987392425537109375000000
0.14407186210155487060546875000000000000
-0.19392661750316619873046875000000000000
-0.21960219740867614746093750000000000000
0.19051882624626159667968750000000000000
0.02437358163297176361083984375000000000
-0.10685162246227264404296875000000000000
-0.07142613083124160766601562500000000000
-0.29134187102317810058593750000000000000
-0.13770987093448638916015625000000000000
0.23674088716506958007812500000000000000
0.10729217529296875000000000000000000000
0.09105665981769561767578125000000000000
0.00947143975645303726196289062500000000
0.04030349105596542358398437500000000000
0.13436132669448852539062500000000000000
-0.16500087082386016845703125000000000000
-0.11001196503639221191406250000000000000
0.11675936728715896606445312500000000000
0.18030245602130889892578125000000000000
-0.14072842895984649658203125000000000000
-0.13060761988162994384765625000000000000
0.07126102596521377563476562500000000000
-0.24429361522197723388671875000000000000
-0.18752473592758178710937500000000000000
-0.10195150226354598999023437500000000000
-0.10136228799819946289062500000000000000
-0.01118499133735895156860351562500000000
0.04932065308094024658203125000000000000
0.02275968529284000396728515625000000000
-0.07800327241420745849609375000000000000
-0.04413425922393798828125000000000000000
-0.16268777847290039062500000000000000000
-0.04195949435234069824218750000000000000
0.05419470369815826416015625000000000000
-0.06611800193786621093750000000000000000
-0.07229294627904891967773437500000000000
0.23948320746421813964843750000000000000
0.12085453420877456665039062500000000000
-0.06833704560995101928710937500000000000
-0.07704841345548629760742187500000000000
-0.17126436531543731689453125000000000000
-0.08023675531148910522460937500000000000
-0.03647324442863464355468750000000000000
-0.04702703654766082763671875000000000000
-0.18968422710895538330078125000000000000
0.19709101319313049316406250000000000000
0.20132754743099212646484375000000000000
0.05879580229520797729492187500000000000
-0.28271156549453735351562500000000000000
0.17144450545310974121093750000000000000
-0.21226705610752105712890625000000000000
-0.01065453514456748962402343750000000000
0.12784330546855926513671875000000000000
0.11084605008363723754882812500000000000
-0.19735215604305267333984375000000000000
-0.09297437965869903564453125000000000000
-0.09483744949102401733398437500000000000
0.17165160179138183593750000000000000000
0.27913230657577514648437500000000000000
-0.00657845148816704750061035156250000000
-0.00536245293915271759033203125000000000
0.12010864168405532836914062500000000000
0.19992153346538543701171875000000000000
0.16306577622890472412109375000000000000
-0.00812063086777925491333007812500000000
-0.12312176078557968139648437500000000000
0.01431306079030036926269531250000000000
0.31219273805618286132812500000000000000
0.05688965693116188049316406250000000000
0.04468693956732749938964843750000000000
-0.02870993129909038543701171875000000000
0.17930287122726440429687500000000000000
-0.18895962834358215332031250000000000000
-0.26163509488105773925781250000000000000
0.15598666667938232421875000000000000000
-0.01626791618764400482177734375000000000
0.05884931609034538269042968750000000000
0.18962453305721282958984375 
0.01712069101631641387939453125 
-0.0066649517975747585296630859375 
-0.15756191313266754150390625 
0.17057211697101593017578125 
0.2314318120479583740234375 
-0.14143271744251251220703125 
-0.0438747368752956390380859375 
-0.097268618643283843994140625 
-0.06483356654644012451171875 
-0.080154247581958770751953125 
0.1908049285411834716796875 
-0.18395270407199859619140625 
-0.02629804424941539764404296875 
-0.010898350737988948822021484375 
0.132369935512542724609375 
-0.0373675338923931121826171875 
-0.06308324635028839111328125 
0.0509157665073871612548828125 
-0.122951231896877288818359375 
-0.2613796889781951904296875 
-0.099506534636020660400390625 
0.050871782004833221435546875 
0.0349731929600238800048828125 
0.29673278331756591796875 
-0.132880985736846923828125 
-0.22333677113056182861328125 
-0.14607988297939300537109375 
0.08713223040103912353515625 
-0.06559638679027557373046875 
-0.1318657398223876953125 
0.015726156532764434814453125 
-0.21794818341732025146484375 
-0.2664096653461456298828125 
-0.16026766598224639892578125 
0.008527210913598537445068359375 
-0.0003892697277478873729705810546875 
0.01359654776751995086669921875 
0.0511890016496181488037109375 
0.08931015431880950927734375 
-0.2052819430828094482421875 
0.15780079364776611328125 
0.018459625542163848876953125 
-0.266329348087310791015625 
-0.11839397251605987548828125 
0.205163896083831787109375 
-0.02926298044621944427490234375 
-0.1331118047237396240234375 
0.071108758449554443359375 
0.21889404952526092529296875 
0.1716713607311248779296875 
-0.063270695507526397705078125 
-0.039086125791072845458984375 
-0.034728229045867919921875 
-0.047066234052181243896484375 
-0.059621870517730712890625 
-0.0463034547865390777587890625 
-0.0515860207378864288330078125 
-0.0319076813757419586181640625 
-0.0448468886315822601318359375 
-0.0492218397557735443115234375 