0.10875990241765975952148437500000000000
-0.15772567689418792724609375000000000000
-0.18983711302280426025390625000000000000
-0.15522062778472900390625000000000000000
-0.07705070078372955322265625000000000000
-0.24366314709186553955078125000000000000
-0.26468124985694885253906250000000000000
-0.15342175960540771484375000000000000000
-0.00362826231867074966430664062500000000
-0.17861127853393554687500000000000000000
0.00874390359967947006225585937500000000
0.01635458134114742279052734375000000000
0.03596446663141250610351562500000000000
0.11584457010030746459960937500000000000
-0.06077609583735466003417968750000000000
0.17486526072025299072265625000000000000
0.11259581148624420166015625000000000000
0.10385265201330184936523437500000000000
0.06055127829313278198242187500000000000
-0.02504003047943115234375000000000000000
0.10339188575744628906250000000000000000
0.00225340062752366065979003906250000000
-0.11034440249204635620117187500000000000
0.04258466139435768127441406250000000000
0.00437547313049435615539550781250000000
-0.15379321575164794921875000000000000000
-0.21189272403717041015625000000000000000
-0.23015025258064270019531250000000000000
-0.24881167709827423095703125000000000000
-0.18882961571216583251953125000000000000
-0.12587378919124603271484375000000000000
-0.20643958449363708496093750000000000000
-0.23296338319778442382812500000000000000
-0.20770552754402160644531250000000000000
-0.01086805481463670730590820312500000000
0.12545534968376159667968750000000000000
0.06530076265335083007812500000000000000
-0.02978692390024662017822265625000000000
-0.18689578771591186523437500000000000000
-0.16873350739479064941406250000000000000
0.30056411027908325195312500000000000000
0.23205947875976562500000000000000000000
0.03559034690260887145996093750000000000
-0.06436864286661148071289062500000000000
-0.00715653225779533386230468750000000000
-0.03996232524514198303222656250000000000
-0.00266312807798385620117187500000000000
0.05386401340365409851074218750000000000
-0.03325961530208587646484375000000000000
0.05243256688117980957031250000000000000
0.11267423629760742187500000000000000000
-0.07213422656059265136718750000000000000
0.08640141785144805908203125000000000000
0.10204489529132843017578125000000000000
-0.01389685831964015960693359375000000000
0.05237758159637451171875000000000000000
0.31310781836509704589843750000000000000
0.28754702210426330566406250000000000000
0.34706369042396545410156250000000000000
0.19079448282718658447265625000000000000
0.08313558250665664672851562500000000000
0.00901214778423309326171875000000000000
0.15181793272495269775390625000000000000
0.07641763985157012939453125000000000000
0.00249992241151630878448486328125000000
-0.25538590550422668457031250000000000000
-0.32722175121307373046875000000000000000
-0.27395486831665039062500000000000000000
-0.14172673225402832031250000000000000000
-0.04326096177101135253906250000000000000
-0.20443144440650939941406250000000000000
-0.14975596964359283447265625000000000000
-0.21967180073261260986328125000000000000
-0.10548904538154602050781250000000000000
0.07508083432912826538085937500000000000
-0.04413540288805961608886718750000000000
0.00811154395341873168945312500000000000
-0.05603382736444473266601562500000000000
0.01103415340185165405273437500000000000
0.09769263863563537597656250000000000000
0.07144792377948760986328125000000000000
-0.04630767926573753356933593750000000000
-0.07850763201713562011718750000000000000
-0.05564443767070770263671875000000000000
-0.04612702131271362304687500000000000000
-0.08532107621431350708007812500000000000
0.01791452616453170776367187500000000000
0.01463644206523895263671875000000000000
0.09809534251689910888671875000000000000
-0.01714458316564559936523437500000000000
0.01274879276752471923828125000000000000
-0.02760664373636245727539062500000000000
-0.10055129975080490112304687500000000000
0.06538251042366027832031250000000000000
0.06280010938644409179687500000000000000
-0.04391770437359809875488281250000000000
-0.05577985197305679321289062500000000000
0.04541163146495819091796875000000000000
0.06415218114852905273437500000000000000
0.02359409630298614501953125000000000000
-0.02342514693737030029296875000000000000
-0.01526803523302078247070312500000000000
0.07594141364097595214843750000000000000
0.05261453986167907714843750000000000000
0.05162201821804046630859375000000000000
-0.01507944613695144653320312500000000000
0.01174820959568023681640625000000000000
-0.01496043056249618530273437500000000000
-0.07594202458858489990234375000000000000
-0.02884721755981445312500000000000000000
-0.09193019568920135498046875000000000000
-0.07241523265838623046875000000000000000
-0.07909876853227615356445312500000000000
0.09132608771324157714843750000000000000
-0.09514001011848449707031250000000000000
0.08698517084121704101562500000000000000
-0.08199179917573928833007812500000000000
0.05889919400215148925781250000000000000
-0.05729744955897331237792968750000000000
0.02430032193660736083984375000000000000
0.04449194669723510742187500000000000000
-0.09692655503749847412109375000000000000
0.01247447729110717773437500000000000000
0.03223718702793121337890625000000000000
-0.10182373225688934326171875000000000000
-0.07733860611915588378906250000000000000
-0.08941165357828140258789062500000000000
-0.04295690357685089111328125000000000000
0.09761084616184234619140625000000000000
-0.02907484769821166992187500000000000000
0.01422572135925292968750000000000000000
-0.04707509279251098632812500000000000000
-0.06198002025485038757324218750000000000
-0.08899497240781784057617187500000000000
-0.05173746123909950256347656250000000000
-0.07266617566347122192382812500000000000
0.05093355476856231689453125000000000000
-0.07068558037281036376953125000000000000
-0.06362270563840866088867187500000000000
0.09164388477802276611328125000000000000
0.01699531823396682739257812500000000000
-0.02691925317049026489257812500000000000
0.09818397462368011474609375000000000000
-0.09399815648794174194335937500000000000
0.07245017588138580322265625000000000000
0.05033396184444427490234375000000000000
-0.05434402823448181152343750000000000000
-0.04205432534217834472656250000000000000
-0.00130146741867065429687500000000000000
-0.06175757199525833129882812500000000000
0.02505792677402496337890625000000000000
0.10063567757606506347656250000000000000
0.06872187554836273193359375000000000000
0.08209945261478424072265625000000000000
-0.07169394195079803466796875000000000000
0.05417619645595550537109375000000000000
-0.10056614875793457031250000000000000000
0.03156805038452148437500000000000000000
-0.08981943875551223754882812500000000000
-0.09615697711706161499023437500000000000
-0.00285241007804870605468750000000000000
0.06556664407253265380859375000000000000
0.02221149206161499023437500000000000000
0.05484972894191741943359375000000000000
0.01438259333372116088867187500000000000
-0.00934118777513504028320312500000000000
-0.03815174847841262817382812500000000000
0.00664832442998886108398437500000000000
0.10206858813762664794921875000000000000
-0.08160702884197235107421875000000000000
0.01665823161602020263671875000000000000
-0.07394134253263473510742187500000000000
-0.02503769099712371826171875000000000000
0.00183591246604919433593750000000000000
0.01064272969961166381835937500000000000
-0.03104813955724239349365234375000000000
0.13221104443073272705078125000000000000
0.16247253119945526123046875000000000000
0.12485165894031524658203125000000000000
0.08488360047340393066406250000000000000
-0.01205637864768505096435546875000000000
-0.07416155189275741577148437500000000000
-0.08715678006410598754882812500000000000
0.14546576142311096191406250000000000000
0.06057913228869438171386718750000000000
-0.04517983272671699523925781250000000000
-0.05157960206270217895507812500000000000
-0.16218340396881103515625000000000000000
-0.06517238914966583251953125000000000000
-0.07645959407091140747070312500000000000
0.08327426016330718994140625000000000000
-0.08455111086368560791015625000000000000
-0.14072827994823455810546875000000000000
-0.09702695161104202270507812500000000000
-0.08735992014408111572265625000000000000
0.00196439120918512344360351562500000000
0.15198829770088195800781250000000000000
-0.04918718338012695312500000000000000000
-0.08090665191411972045898437500000000000
0.09588375687599182128906250000000000000
0.09759847074747085571289062500000000000
0.07804232835769653320312500000000000000
-0.05817788466811180114746093750000000000
-0.00615486735478043556213378906250000000
-0.01030874345451593399047851562500000000
0.10638234764337539672851562500000000000
-0.01425702963024377822875976562500000000
-0.02266226150095462799072265625000000000
-0.09479480236768722534179687500000000000
-0.04919904842972755432128906250000000000
0.06991568207740783691406250000000000000
0.04674907028675079345703125000000000000
0.18646094202995300292968750000000000000
0.16008678078651428222656250000000000000
0.05178723111748695373535156250000000000
-0.06777581572532653808593750000000000000
0.13000190258026123046875000000000000000
0.08397676050662994384765625000000000000
0.01302992459386587142944335937500000000
0.06007698550820350646972656250000000000
-0.08076448738574981689453125000000000000
-0.05093152076005935668945312500000000000
-0.08383581042289733886718750000000000000
0.05673039704561233520507812500000000000
0.13957580924034118652343750000000000000
0.01297013182193040847778320312500000000
0.16303190588951110839843750000000000000
0.09827261418104171752929687500000000000
0.01120903436094522476196289062500000000
-0.06311212480068206787109375000000000000
0.11170645803213119506835937500000000000
-0.10988382995128631591796875000000000000
0.01104838214814662933349609375000000000
0.10342326760292053222656250000000000000
-0.05115360766649246215820312500000000000
-0.06472309678792953491210937500000000000
-0.07079073786735534667968750000000000000
-0.10265751928091049194335937500000000000
0.01009674370288848876953125000000000000
-0.17161309719085693359375000000000000000
-0.01004022639244794845581054687500000000
-0.03987103700637817382812500000000000000
0.06403793394565582275390625000000000000
0.02834068983793258666992187500000000000
0.03167799860239028930664062500000000000
0.00165301910601556301116943359375000000
0.00440944405272603034973144531250000000
0.00036575846024788916110992431640625000
0.06702886521816253662109375000000000000
-0.10417357087135314941406250000000000000
-0.06810843944549560546875000000000000000
-0.03037782013416290283203125000000000000
-0.07805721461772918701171875000000000000
-0.08804430067539215087890625000000000000
-0.07622947543859481811523437500000000000
0.04035507142543792724609375000000000000
0.00118277966976165771484375000000000000
-0.10179100185632705688476562500000000000
-0.09995020180940628051757812500000000000
-0.00845071673393249511718750000000000000
0.09357792139053344726562500000000000000
0.09636601805686950683593750000000000000
0.06833219528198242187500000000000000000
-0.03463757783174514770507812500000000000
-0.10130922496318817138671875000000000000
-0.00583158433437347412109375000000000000
-0.06764039397239685058593750000000000000
-0.08243107795715332031250000000000000000
-0.03508076816797256469726562500000000000
0.00064253062009811401367187500000000000
-0.07708224654197692871093750000000000000
0.08056798577308654785156250000000000000
0.06465049088001251220703125000000000000
0.00718118995428085327148437500000000000
-0.03243345022201538085937500000000000000
-0.04564801231026649475097656250000000000
0.09193544089794158935546875000000000000
-0.03037626296281814575195312500000000000
0.01713220775127410888671875000000000000
0.08278024196624755859375000000000000000
0.07913541793823242187500000000000000000
-0.05400115624070167541503906250000000000
0.07201267778873443603515625000000000000
-0.09945736825466156005859375000000000000
0.08468368649482727050781250000000000000
0.09728714823722839355468750000000000000
-0.00838074088096618652343750000000000000
-0.01462922245264053344726562500000000000
0.00968153774738311767578125000000000000
-0.03210928291082382202148437500000000000
0.06237626075744628906250000000000000000
0.01609890162944793701171875000000000000
-0.04476187005639076232910156250000000000
-0.07801613956689834594726562500000000000
-0.00203597545623779296875000000000000000
0.09401097893714904785156250000000000000
0.02070346474647521972656250000000000000
-0.03893543034791946411132812500000000000
-0.10120179504156112670898437500000000000
0.09459334611892700195312500000000000000
0.01952762901782989501953125000000000000
-0.05882573127746582031250000000000000000
-0.01385455578565597534179687500000000000
-0.05249481275677680969238281250000000000
0.06420551240444183349609375000000000000
0.07599571347236633300781250000000000000
-0.03859410434961318969726562500000000000
-0.05530064180493354797363281250000000000
0.08207178115844726562500000000000000000
0.06582225859165191650390625000000000000
0.01626383513212203979492187500000000000
0.00916982442140579223632812500000000000
-0.06600811332464218139648437500000000000
-0.06449362635612487792968750000000000000
0.06014645099639892578125000000000000000
0.01855806261301040649414062500000000000
0.02340254187583923339843750000000000000
-0.09439113736152648925781250000000000000
-0.09318531304597854614257812500000000000
-0.10113083571195602416992187500000000000
-0.01667099446058273315429687500000000000
-0.09406229853630065917968750000000000000
0.03740626573562622070312500000000000000
-0.02101146429777145385742187500000000000
0.08744305372238159179687500000000000000
0.01606471091508865356445312500000000000
-0.10436260700225830078125000000000000000
0.07677190005779266357421875000000000000
0.09959173202514648437500000000000000000
0.05977734923362731933593750000000000000
-0.02578152716159820556640625000000000000
-0.05124092474579811096191406250000000000
0.09897015988826751708984375000000000000
-0.08726409822702407836914062500000000000
0.02187448740005493164062500000000000000
-0.07149243354797363281250000000000000000
0.06869363784790039062500000000000000000
-0.06068495661020278930664062500000000000
0.01560672372579574584960937500000000000
-0.01725816726684570312500000000000000000
0.02675424516201019287109375000000000000
-0.03181651979684829711914062500000000000
-0.04479165375232696533203125000000000000
0.04175440967082977294921875000000000000
0.01813889294862747192382812500000000000
0.04125837981700897216796875000000000000
0.05222783982753753662109375000000000000
-0.08883728086948394775390625000000000000
0.07484932243824005126953125000000000000
-0.09682831913232803344726562500000000000
0.14714577794075012207031250000000000000
0.18192549049854278564453125000000000000
0.16707041859626770019531250000000000000
0.16329017281532287597656250000000000000
0.18360319733619689941406250000000000000
-0.09135149419307708740234375000000000000
0.09093500673770904541015625000000000000
-0.00700371572747826576232910156250000000
0.01698753982782363891601562500000000000
0.01014549005776643753051757812500000000
0.00802459474653005599975585937500000000
0.04806026443839073181152343750000000000
-0.14810931682586669921875000000000000000
-0.34005936980247497558593750000000000000
-0.33248752355575561523437500000000000000
-0.11429635435342788696289062500000000000
-0.08362436294555664062500000000000000000
-0.11188284307718276977539062500000000000
-0.17609992623329162597656250000000000000
-0.09191166609525680541992187500000000000
0.06180609762668609619140625000000000000
0.00070214207516983151435852050781250000
0.06946485489606857299804687500000000000
0.11204601824283599853515625000000000000
0.24437731504440307617187500000000000000
-0.05879468470811843872070312500000000000
0.06794852018356323242187500000000000000
0.04508874565362930297851562500000000000
-0.12672458589076995849609375000000000000
-0.03780125826597213745117187500000000000
-0.09538397938013076782226562500000000000
0.01408310420811176300048828125000000000
0.17284557223320007324218750000000000000
0.04505450278520584106445312500000000000
0.16306315362453460693359375000000000000
-0.05905280634760856628417968750000000000
0.29675599932670593261718750000000000000
0.23583538830280303955078125000000000000
0.13481679558753967285156250000000000000
0.03417642787098884582519531250000000000
0.02345066331326961517333984375000000000
-0.03132281824946403503417968750000000000
-0.12025938928127288818359375000000000000
-0.21888870000839233398437500000000000000
-0.17913892865180969238281250000000000000
-0.15007419884204864501953125000000000000
-0.06056024134159088134765625000000000000
-0.05311144515872001647949218750000000000
0.01098803989589214324951171875000000000
0.12200397253036499023437500000000000000
-0.00861275848001241683959960937500000000
-0.12827119231224060058593750000000000000
0.02306167408823966979980468750000000000
-0.09446095675230026245117187500000000000
0.04579373449087142944335937500000000000
-0.17046609520912170410156250000000000000
-0.18020543456077575683593750000000000000
-0.24812792241573333740234375000000000000
-0.13319794833660125732421875000000000000
-0.26474183797836303710937500000000000000
-0.02522941678762435913085937500000000000
-0.21859598159790039062500000000000000000
-0.05387984961271286010742187500000000000
0.18594707548618316650390625000000000000
0.07647214084863662719726562500000000000
0.03916937112808227539062500000000000000
-0.10654862225055694580078125000000000000
0.25355157256126403808593750000000000000
0.29512357711791992187500000000000000000
0.27995413541793823242187500000000000000
-0.03234069049358367919921875000000000000
-0.05212656408548355102539062500000000000
0.11698002368211746215820312500000000000
-0.09866140782833099365234375000000000000
-0.12737517058849334716796875000000000000
-0.04570230096578598022460937500000000000
0.06514516472816467285156250000000000000
0.07626473903656005859375000000000000000
0.07832694053649902343750000000000000000
-0.08917162567377090454101562500000000000
0.03935824334621429443359375000000000000
0.03349223732948303222656250000000000000
0.01451691240072250366210937500000000000
-0.06530448049306869506835937500000000000
-0.07082075625658035278320312500000000000
0.00465551763772964477539062500000000000
-0.00691853463649749755859375000000000000
0.08436763286590576171875000000000000000
-0.03234250098466873168945312500000000000
-0.00519042462110519409179687500000000000
-0.05743727833032608032226562500000000000
0.07249058783054351806640625000000000000
0.01932509988546371459960937500000000000
0.07076869904994964599609375000000000000
-0.03921554982662200927734375000000000000
-0.07535193860530853271484375000000000000
0.08696338534355163574218750000000000000
0.00841934233903884887695312500000000000
0.08557006716728210449218750000000000000
-0.00687565654516220092773437500000000000
-0.05073633417487144470214843750000000000
-0.05876522511243820190429687500000000000
-0.08128215372562408447265625000000000000
-0.01236055791378021240234375000000000000
-0.06413799524307250976562500000000000000
-0.00411975383758544921875000000000000000
-0.00008686631917953491210937500000000000
-0.03482577204704284667968750000000000000
0.04774998128414154052734375000000000000
-0.10258479416370391845703125000000000000
-0.06095619127154350280761718750000000000
0.00114138424396514892578125000000000000
-0.05263407155871391296386718750000000000
0.03616927564144134521484375000000000000
0.07346186041831970214843750000000000000
-0.09286151826381683349609375000000000000
-0.01757862418889999389648437500000000000
-0.07152928411960601806640625000000000000
0.02437472343444824218750000000000000000
0.02195535600185394287109375000000000000
-0.05563532933592796325683593750000000000
-0.03776291757822036743164062500000000000
-0.08314632624387741088867187500000000000
0.08157636225223541259765625000000000000
0.00331243127584457397460937500000000000
0.06065703928470611572265625000000000000
-0.00477509200572967529296875000000000000
-0.05901248380541801452636718750000000000
-0.07255452871322631835937500000000000000
-0.06262429803609848022460937500000000000
0.02544449269771575927734375000000000000
0.03769269585609436035156250000000000000
0.00919341295957565307617187500000000000
-0.07181395590305328369140625000000000000
0.03219825029373168945312500000000000000
0.00216434895992279052734375000000000000
-0.07425200939178466796875000000000000000
0.10195338726043701171875000000000000000
0.05254244804382324218750000000000000000
-0.07422143965959548950195312500000000000
-0.05806203931570053100585937500000000000
-0.09435704350471496582031250000000000000
0.00404246896505355834960937500000000000
0.08336174488067626953125000000000000000
0.05959638953208923339843750000000000000
0.04498088359832763671875000000000000000
-0.09978191554546356201171875000000000000
-0.03962122648954391479492187500000000000
-0.03668948262929916381835937500000000000
-0.02236405014991760253906250000000000000
0.07790093123912811279296875000000000000
-0.08757141977548599243164062500000000000
0.07200749218463897705078125000000000000
-0.03089084476232528686523437500000000000
0.00802997499704360961914062500000000000
-0.10423492640256881713867187500000000000
0.07658196985721588134765625000000000000
0.02603444457054138183593750000000000000
0.09396140277385711669921875000000000000
-0.06261125952005386352539062500000000000
0.06818419694900512695312500000000000000
0.02613495290279388427734375000000000000
0.07397229969501495361328125000000000000
-0.03729749470949172973632812500000000000
-0.08381976932287216186523437500000000000
-0.09456213563680648803710937500000000000
0.03160643577575683593750000000000000000
0.04665938019752502441406250000000000000
0.04251331090927124023437500000000000000
0.05415597558021545410156250000000000000
0.02302855253219604492187500000000000000
-0.01957239210605621337890625000000000000
0.06258758902549743652343750000000000000
0.04268419742584228515625000000000000000
-0.09722489863634109497070312500000000000
0.02226595953106880187988281250000000000
0.09519923478364944458007812500000000000
0.19886839389801025390625000000000000000
0.10079399496316909790039062500000000000
-0.01816793344914913177490234375000000000
-0.03506771475076675415039062500000000000
0.05787182226777076721191406250000000000
0.02071726322174072265625000000000000000
-0.12402407824993133544921875000000000000
-0.00765215931460261344909667968750000000
0.04230660572648048400878906250000000000
0.04216258600354194641113281250000000000
0.03861148655414581298828125000000000000
-0.05423892289400100708007812500000000000
0.02194082736968994140625000000000000000
-0.00074239302193745970726013183593750000
0.10703973472118377685546875000000000000
0.05660254508256912231445312500000000000
-0.13863289356231689453125000000000000000
0.15001642704010009765625000000000000000
0.06006663292646408081054687500000000000
0.02745247446000576019287109375000000000
0.09438780695199966430664062500000000000
-0.08087633550167083740234375000000000000
-0.03070021606981754302978515625000000000
0.08786250650882720947265625000000000000
-0.00386047316715121269226074218750000000
-0.04742832109332084655761718750000000000
-0.04917204752564430236816406250000000000
0.06306260079145431518554687500000000000
0.12084712833166122436523437500000000000
0.00181390752550214529037475585937500000
-0.05752157419919967651367187500000000000
0.18437279760837554931640625000000000000
0.12892386317253112792968750000000000000
0.00188318209256976842880249023437500000
0.01498610991984605789184570312500000000
0.06472761183977127075195312500000000000
0.13862133026123046875000000000000000000
-0.15730232000350952148437500000000000000
-0.13257603347301483154296875000000000000
-0.14088851213455200195312500000000000000
0.10053505003452301025390625000000000000
-0.09135249257087707519531250000000000000
-0.13004317879676818847656250000000000000
-0.22951579093933105468750000000000000000
-0.12400180101394653320312500000000000000
0.07016804069280624389648437500000000000
0.11401722580194473266601562500000000000
-0.14941900968551635742187500000000000000
-0.00003626726174843497574329376220703125
0.03964041545987129211425781250000000000
0.09820432960987091064453125000000000000
0.14074684679508209228515625000000000000
0.11685281991958618164062500000000000000
0.03092603571712970733642578125000000000
0.00846625119447708129882812500000000000
0.04939750581979751586914062500000000000
0.10823611170053482055664062500000000000
-0.01393918134272098541259765625000000000
0.01686878316104412078857421875000000000
-0.15669387578964233398437500000000000000
-0.09150341898202896118164062500000000000
0.13911223411560058593750000000000000000
0.00277878297492861747741699218750000000
0.09516458958387374877929687500000000000
-0.16479770839214324951171875000000000000
-0.16565547883510589599609375000000000000
0.02912933193147182464599609375000000000
0.04311363399028778076171875000000000000
0.04097225889563560485839843750000000000
-0.09712770581245422363281250000000000000
-0.03707176074385643005371093750000000000
0.02459576353430747985839843750000000000
0.14685477316379547119140625000000000000
0.03274510428309440612792968750000000000
-0.14328466355800628662109375000000000000
-0.23485748469829559326171875000000000000
-0.03790208324790000915527343750000000000
-0.09343483299016952514648437500000000000
-0.09761983901262283325195312500000000000
-0.28783607482910156250000000000000000000
-0.17809791862964630126953125000000000000
-0.05897267162799835205078125000000000000
-0.09100086987018585205078125000000000000
-0.10554185509681701660156250000000000000
-0.07718095928430557250976562500000000000
-0.13703934848308563232421875000000000000
-0.01112020853906869888305664062500000000
0.06078553199768066406250000000000000000
0.05064537748694419860839843750000000000
0.28620034456253051757812500000000000000
0.19721959531307220458984375000000000000
0.12041800469160079956054687500000000000
0.08805530518293380737304687500000000000
0.21707050502300262451171875000000000000
0.23562294244766235351562500000000000000
0.15797358751296997070312500000000000000
0.13490249216556549072265625000000000000
0.07655881345272064208984375000000000000
-0.05858950689435005187988281250000000000
0.09597270190715789794921875000000000000
0.04974393546581268310546875000000000000
0.06349536776542663574218750000000000000
-0.05059332028031349182128906250000000000
-0.09769452363252639770507812500000000000
0.01341276615858078002929687500000000000
0.04373957216739654541015625000000000000
-0.07678294181823730468750000000000000000
-0.00731094926595687866210937500000000000
-0.02672000974416732788085937500000000000
0.09348991513252258300781250000000000000
-0.08713865280151367187500000000000000000
-0.05819080397486686706542968750000000000
0.00119616836309432983398437500000000000
-0.04865706712007522583007812500000000000
0.04061026871204376220703125000000000000
-0.08742723613977432250976562500000000000
-0.00898702442646026611328125000000000000
-0.01491104066371917724609375000000000000
-0.02897876501083374023437500000000000000
-0.08167330920696258544921875000000000000
0.06601181626319885253906250000000000000
0.02794714272022247314453125000000000000
-0.09487687796354293823242187500000000000
0.06328696012496948242187500000000000000
-0.02343200892210006713867187500000000000
0.04111027717590332031250000000000000000
-0.00866422057151794433593750000000000000
0.05560974776744842529296875000000000000
0.04924283921718597412109375000000000000
-0.03291026502847671508789062500000000000
0.08557036519050598144531250000000000000
0.07224601507186889648437500000000000000
-0.04649847745895385742187500000000000000
-0.01487971842288970947265625000000000000
0.06637965142726898193359375000000000000
0.06768345832824707031250000000000000000
0.03265331685543060302734375000000000000
0.02642418444156646728515625000000000000
-0.10209020972251892089843750000000000000
-0.07448649406433105468750000000000000000
0.04916378855705261230468750000000000000
-0.08807209879159927368164062500000000000
0.02161931991577148437500000000000000000
-0.10061702877283096313476562500000000000
0.03760476410388946533203125000000000000
-0.09050819277763366699218750000000000000
0.01753863692283630371093750000000000000
-0.00865156203508377075195312500000000000
0.01535802334547042846679687500000000000
-0.08077023178339004516601562500000000000
-0.02903250604867935180664062500000000000
-0.09864284098148345947265625000000000000
0.09581927955150604248046875000000000000
0.05323882400989532470703125000000000000
0.10171903669834136962890625000000000000
-0.02196501195430755615234375000000000000
-0.02357663959264755249023437500000000000
0.05158376693725585937500000000000000000
0.07022571563720703125000000000000000000
-0.00994230806827545166015625000000000000
0.10071626305580139160156250000000000000
-0.01042653620243072509765625000000000000
0.01782964915037155151367187500000000000
-0.00458050519227981567382812500000000000
0.03570653498172760009765625000000000000
-0.00543040037155151367187500000000000000
-0.08642818778753280639648437500000000000
0.06332875788211822509765625000000000000
0.10266067087650299072265625000000000000
-0.02038954198360443115234375000000000000
0.05838568508625030517578125000000000000
0.08453617990016937255859375000000000000
0.10326942801475524902343750000000000000
-0.12201053649187088012695312500000000000
0.05220001935958862304687500000000000000
0.04537427052855491638183593750000000000
-0.15376445651054382324218750000000000000
-0.12618911266326904296875000000000000000
0.00747431162744760513305664062500000000
-0.05654610320925712585449218750000000000
-0.16934107244014739990234375000000000000
-0.36982300877571105957031250000000000000
-0.17998147010803222656250000000000000000
0.00932503398507833480834960937500000000
-0.25431898236274719238281250000000000000
-0.43632704019546508789062500000000000000
-0.38131746649742126464843750000000000000
-0.12040256708860397338867187500000000000
0.16400130093097686767578125000000000000
0.05349472537636756896972656250000000000
0.01706863753497600555419921875000000000
-0.01620012894272804260253906250000000000
-0.03162259235978126525878906250000000000
0.22350372374057769775390625000000000000
0.22718518972396850585937500000000000000
0.16942650079727172851562500000000000000
0.08104935288429260253906250000000000000
0.02567913010716438293457031250000000000
-0.05961235612630844116210937500000000000
-0.11405524611473083496093750000000000000
-0.00653576897457242012023925781250000000
-0.09305351972579956054687500000000000000
-0.07228331267833709716796875000000000000
0.07707832008600234985351562500000000000
0.05340910702943801879882812500000000000
0.10287555307149887084960937500000000000
0.04569009318947792053222656250000000000
-0.00854717474430799484252929687500000000
0.10434746742248535156250000000000000000
0.13004811108112335205078125000000000000
0.05695045366883277893066406250000000000
0.20983828604221343994140625000000000000
0.14220272004604339599609375000000000000
-0.05072123184800148010253906250000000000
-0.00595222832635045051574707031250000000
0.03905523568391799926757812500000000000
0.19027684628963470458984375000000000000
0.02831719629466533660888671875000000000
-0.04079481959342956542968750000000000000
-0.24344600737094879150390625000000000000
-0.03987667337059974670410156250000000000
0.03589997440576553344726562500000000000
0.06632569432258605957031250000000000000
-0.09135778993368148803710937500000000000
0.08027479797601699829101562500000000000
-0.07759562879800796508789062500000000000
0.06832987070083618164062500000000000000
0.15000537037849426269531250000000000000
-0.04445235431194305419921875000000000000
-0.06423074752092361450195312500000000000
-0.06088180467486381530761718750000000000
0.18628393113613128662109375000000000000
0.20912186801433563232421875000000000000
-0.01210223697125911712646484375000000000
0.11173246800899505615234375000000000000
0.03963116556406021118164062500000000000
0.07116191834211349487304687500000000000
0.02044281177222728729248046875000000000
0.15868520736694335937500000000000000000
0.13034258782863616943359375000000000000
-0.10290729999542236328125000000000000000
-0.05296895653009414672851562500000000000
0.08672329783439636230468750000000000000
0.02800097316503524780273437500000000000
-0.11481704562902450561523437500000000000
-0.04149633646011352539062500000000000000
-0.09017074108123779296875000000000000000
0.09458421915769577026367187500000000000
0.02566725760698318481445312500000000000
-0.14584726095199584960937500000000000000
-0.11399360001087188720703125000000000000
-0.01562505215406417846679687500000000000
0.02193793654441833496093750000000000000
-0.01448621880263090133666992187500000000
-0.05249391123652458190917968750000000000
-0.17474950850009918212890625000000000000
-0.11438492685556411743164062500000000000
0.03103629685938358306884765625000000000
-0.04248511791229248046875000000000000000
-0.04236839339137077331542968750000000000
0.03452625870704650878906250000000000000
0.01351915299892425537109375000000000000
0.04435472190380096435546875000000000000
0.04410138353705406188964843750000000000
-0.00166187353897839784622192382812500000
-0.03902692347764968872070312500000000000
-0.15072174370288848876953125000000000000
-0.08159101009368896484375000000000000000
0.06562443077564239501953125000000000000
-0.00718602025881409645080566406250000000
-0.04959649965167045593261718750000000000
-0.10591239482164382934570312500000000000
-0.09038522094488143920898437500000000000
-0.10249373316764831542968750000000000000
0.08244942128658294677734375000000000000
0.01603379100561141967773437500000000000
-0.06173147633671760559082031250000000000
-0.03938801586627960205078125000000000000
0.06676322221755981445312500000000000000
0.00360707938671112060546875000000000000
0.07078091800212860107421875000000000000
0.08698433637619018554687500000000000000
0.00476193428039550781250000000000000000
-0.01535891741514205932617187500000000000
-0.07061886787414550781250000000000000000
-0.05276724323630332946777343750000000000
0.09378823637962341308593750000000000000
-0.02688585966825485229492187500000000000
-0.09202808141708374023437500000000000000
0.09021283686161041259765625000000000000
0.08073709905147552490234375000000000000
0.09125882387161254882812500000000000000
0.01552999764680862426757812500000000000
0.07192817330360412597656250000000000000
-0.02530805766582489013671875000000000000
0.08777827024459838867187500000000000000
0.02943414449691772460937500000000000000
-0.05683977156877517700195312500000000000
-0.07774858176708221435546875000000000000
-0.08617214858531951904296875000000000000
-0.01948913186788558959960937500000000000
-0.05696313828229904174804687500000000000
-0.02999495714902877807617187500000000000
-0.03877545893192291259765625000000000000
-0.07287112623453140258789062500000000000
-0.06793919205665588378906250000000000000
0.07446479797363281250000000000000000000
0.02237124741077423095703125000000000000
-0.08313788473606109619140625000000000000
-0.01805120706558227539062500000000000000
0.09465388953685760498046875000000000000
0.06608368456363677978515625000000000000
-0.06960032135248184204101562500000000000
-0.06577411293983459472656250000000000000
-0.01265799999237060546875000000000000000
0.04217062890529632568359375000000000000
-0.07093669474124908447265625000000000000
-0.05423793941736221313476562500000000000
0.07922728359699249267578125000000000000
0.01550386846065521240234375000000000000
-0.00450157374143600463867187500000000000
-0.03154546022415161132812500000000000000
-0.02106616646051406860351562500000000000
-0.09254711866378784179687500000000000000
-0.04690274596214294433593750000000000000
-0.05664897337555885314941406250000000000
-0.09365908801555633544921875000000000000
0.03427989780902862548828125000000000000
-0.07547005265951156616210937500000000000
-0.00057443976402282714843750000000000000
0.05820566415786743164062500000000000000
0.00397230684757232666015625000000000000
-0.06725245714187622070312500000000000000
-0.06794874370098114013671875000000000000
0.01742973923683166503906250000000000000
0.01477205753326416015625000000000000000
0.08943215012550354003906250000000000000
0.10376840829849243164062500000000000000
-0.08195634186267852783203125000000000000
0.06618469953536987304687500000000000000
-0.00989227741956710815429687500000000000
0.01971379667520523071289062500000000000
-0.07186082005500793457031250000000000000
0.09943085908889770507812500000000000000
-0.04089902341365814208984375000000000000
0.08388368785381317138671875000000000000
0.05517368018627166748046875000000000000
0.01997184753417968750000000000000000000
0.05410602688789367675781250000000000000
-0.08419580757617950439453125000000000000
0.07809005677700042724609375000000000000
-0.05029387027025222778320312500000000000
-0.16436971724033355712890625000000000000
-0.11196165531873703002929687500000000000
-0.13907577097415924072265625000000000000
0.02729450538754463195800781250000000000
0.16455394029617309570312500000000000000
-0.08878724277019500732421875000000000000
0.02222022786736488342285156250000000000
0.16249293088912963867187500000000000000
0.13902036845684051513671875000000000000
-0.04696366190910339355468750000000000000
0.01579237170517444610595703125000000000
0.10067692399024963378906250000000000000
0.00517565291374921798706054687500000000
0.06621466577053070068359375000000000000
-0.11391535401344299316406250000000000000
0.02742318809032440185546875000000000000
-0.16344286501407623291015625000000000000
-0.04598137363791465759277343750000000000
-0.02381331101059913635253906250000000000
0.02480535954236984252929687500000000000
-0.05911082029342651367187500000000000000
-0.01840874738991260528564453125000000000
-0.02132540941238403320312500000000000000
0.01105512212961912155151367187500000000
0.17608521878719329833984375000000000000
-0.01434408873319625854492187500000000000
0.26263964176177978515625000000000000000
0.19130681455135345458984375000000000000
0.09195910394191741943359375000000000000
0.08174229413270950317382812500000000000
0.02537596784532070159912109375000000000
0.12782697379589080810546875000000000000
0.03726675733923912048339843750000000000
-0.10580281168222427368164062500000000000
-0.04595658555626869201660156250000000000
-0.09874810278415679931640625000000000000
-0.17460100352764129638671875000000000000
-0.33768972754478454589843750000000000000
-0.24880014359951019287109375000000000000
0.06367648392915725708007812500000000000
0.00713412184268236160278320312500000000
-0.18471956253051757812500000000000000000
0.04461379349231719970703125000000000000
0.13055677711963653564453125000000000000
0.00019554328173398971557617187500000000
-0.03413200378417968750000000000000000000
0.01234520040452480316162109375000000000
-0.02062957547605037689208984375000000000
0.09024030715227127075195312500000000000
0.08082747459411621093750000000000000000
-0.09710870683193206787109375000000000000
0.35161828994750976562500000000000000000
0.14656358957290649414062500000000000000
0.10224184393882751464843750000000000000
0.10576438158750534057617187500000000000
-0.08155346661806106567382812500000000000
0.05515395477414131164550781250000000000
-0.05155799537897109985351562500000000000
-0.17249278724193572998046875000000000000
-0.03281973302364349365234375000000000000
0.03503933548927307128906250000000000000
-0.14822411537170410156250000000000000000
-0.09438204765319824218750000000000000000
-0.02330215275287628173828125000000000000
-0.00299574434757232666015625000000000000
-0.04364996030926704406738281250000000000
-0.10599116235971450805664062500000000000
-0.10012615472078323364257812500000000000
0.09525476396083831787109375000000000000
-0.00361772556789219379425048828125000000
0.06429859995841979980468750000000000000
0.18651205301284790039062500000000000000
0.05885047465562820434570312500000000000
-0.01412961166352033615112304687500000000
0.07456795871257781982421875000000000000
-0.05908580869436264038085937500000000000
0.06146959960460662841796875000000000000
-0.21776007115840911865234375000000000000
-0.18935424089431762695312500000000000000
-0.20479378104209899902343750000000000000
-0.13580454885959625244140625000000000000
0.03497249260544776916503906250000000000
-0.34699895977973937988281250000000000000
-0.16105282306671142578125000000000000000
0.02420205064117908477783203125000000000
-0.12682536244392395019531250000000000000
-0.00800476875156164169311523437500000000
0.08974494785070419311523437500000000000
0.10601704567670822143554687500000000000
0.17034164071083068847656250000000000000
0.00032379725598730146884918212890625000
0.23951101303100585937500000000000000000
0.24199709296226501464843750000000000000
0.10241148620843887329101562500000000000
-0.02062389254570007324218750000000000000
-0.04596680402755737304687500000000000000
0.17569099366664886474609375000000000000
0.10960977524518966674804687500000000000
0.06811167299747467041015625000000000000
0.05051102489233016967773437500000000000
-0.01916800811886787414550781250000000000
0.29230886697769165039062500000000000000
0.09974081069231033325195312500000000000
0.04397666826844215393066406250000000000
-0.00557851186022162437438964843750000000
-0.04889629781246185302734375000000000000
-0.03338259086012840270996093750000000000
-0.10624852031469345092773437500000000000
-0.26854094862937927246093750000000000000
-0.07665088772773742675781250000000000000
0.00546095008030533790588378906250000000
-0.09795680642127990722656250000000000000
-0.17259107530117034912109375000000000000
0.01226617582142353057861328125000000000
0.15462602674961090087890625000000000000
0.13516566157341003417968750000000000000
0.00085327849956229329109191894531250000
0.15379413962364196777343750000000000000
0.15183231234550476074218750000000000000
0.10616859793663024902343750000000000000
-0.05166616290807723999023437500000000000
-0.03059556335210800170898437500000000000
-0.09690769761800765991210937500000000000
-0.05980753153562545776367187500000000000
0.07177704572677612304687500000000000000
0.05583390593528747558593750000000000000
-0.01045168191194534301757812500000000000
-0.03997339308261871337890625000000000000
0.09953361749649047851562500000000000000
0.04872331023216247558593750000000000000
-0.09244625270366668701171875000000000000
0.05106878280639648437500000000000000000
-0.07037831842899322509765625000000000000
-0.05819832906126976013183593750000000000
-0.06630389392375946044921875000000000000
-0.05972002446651458740234375000000000000
0.00862574577331542968750000000000000000
-0.06288772821426391601562500000000000000
-0.04748165234923362731933593750000000000
-0.07467547804117202758789062500000000000
-0.00140620768070220947265625000000000000
-0.02567660808563232421875000000000000000
0.04886908829212188720703125000000000000
-0.09888420253992080688476562500000000000
-0.06585244834423065185546875000000000000
-0.08127608150243759155273437500000000000
0.08788080513477325439453125000000000000
0.03646522760391235351562500000000000000
0.03343605995178222656250000000000000000
0.06262128055095672607421875000000000000
0.03970544040203094482421875000000000000
-0.08762452006340026855468750000000000000
-0.06933449953794479370117187500000000000
-0.05604555830359458923339843750000000000
0.03880265355110168457031250000000000000
-0.06107500568032264709472656250000000000
0.02126623690128326416015625000000000000
0.08717812597751617431640625000000000000
0.03237032890319824218750000000000000000
0.04414215683937072753906250000000000000
0.00369616597890853881835937500000000000
0.01125612854957580566406250000000000000
-0.08993174880743026733398437500000000000
-0.04083485901355743408203125000000000000
-0.00546524673700332641601562500000000000
0.06994873285293579101562500000000000000
-0.00318691879510879516601562500000000000
-0.01351414620876312255859375000000000000
0.02462819218635559082031250000000000000
0.08845710754394531250000000000000000000
-0.08340660482645034790039062500000000000
0.04304282367229461669921875000000000000
-0.09854128211736679077148437500000000000
-0.00458911061286926269531250000000000000
-0.09024840593338012695312500000000000000
-0.07808215916156768798828125000000000000
-0.02592714875936508178710937500000000000
0.09944224357604980468750000000000000000
0.05699324607849121093750000000000000000
-0.07105842977762222290039062500000000000
-0.01939977705478668212890625000000000000
-0.06212439015507698059082031250000000000
0.09085905551910400390625000000000000000
-0.01437566429376602172851562500000000000
0.00682606548070907592773437500000000000
-0.02001157402992248535156250000000000000
-0.01119451224803924560546875000000000000
-0.07379120588302612304687500000000000000
-0.03575848788022994995117187500000000000
0.04790315032005310058593750000000000000
-0.03257371485233306884765625000000000000
-0.06501903384923934936523437500000000000
-0.09453169256448745727539062500000000000
0.03005881607532501220703125000000000000
-0.01073554158210754394531250000000000000
0.05312277376651763916015625000000000000
0.08185614645481109619140625000000000000
-0.07967238128185272216796875000000000000
0.05448014289140701293945312500000000000
-0.02084672078490257263183593750000000000
0.03847783058881759643554687500000000000
0.06745392829179763793945312500000000000
0.14321506023406982421875000000000000000
0.06268061697483062744140625000000000000
-0.07280343025922775268554687500000000000
0.00167132879141718149185180664062500000
0.09889607876539230346679687500000000000
0.01705821417272090911865234375000000000
-0.02061138860881328582763671875000000000
0.06955219805240631103515625000000000000
-0.01527547650039196014404296875000000000
0.07796771079301834106445312500000000000
-0.07794743776321411132812500000000000000
0.04470153525471687316894531250000000000
0.13766288757324218750000000000000000000
0.09231120347976684570312500000000000000
-0.08763577789068222045898437500000000000
-0.16401711106300354003906250000000000000
0.02908058837056159973144531250000000000
0.04826201125979423522949218750000000000
0.03884443268179893493652343750000000000
-0.10502096265554428100585937500000000000
-0.03423995897173881530761718750000000000
0.03189338743686676025390625000000000000
0.02034420147538185119628906250000000000
0.05766228958964347839355468750000000000
-0.11486391723155975341796875000000000000
-0.13723926246166229248046875000000000000
-0.07003834098577499389648437500000000000
0.13070771098136901855468750000000000000
0.11890328675508499145507812500000000000
-0.04363199695944786071777343750000000000
0.02129564061760902404785156250000000000
-0.00422407686710357666015625000000000000
-0.07422059029340744018554687500000000000
-0.00062958296621218323707580566406250000
0.01602854579687118530273437500000000000
-0.08629352599382400512695312500000000000
-0.05469677969813346862792968750000000000
-0.17094552516937255859375000000000000000
-0.02784981578588485717773437500000000000
-0.07066395878791809082031250000000000000
0.18309505283832550048828125000000000000
0.12974256277084350585937500000000000000
0.01766638644039630889892578125000000000
-0.04704925790429115295410156250000000000
0.01960801146924495697021484375000000000
-0.03822368010878562927246093750000000000
0.09494508802890777587890625000000000000
-0.07856962829828262329101562500000000000
0.09106058627367019653320312500000000000
0.07412615418434143066406250000000000000
0.04286941885948181152343750000000000000
-0.06632885336875915527343750000000000000
0.04586480930447578430175781250000000000
0.12180275470018386840820312500000000000
0.07564357668161392211914062500000000000
-0.03199234232306480407714843750000000000
0.13356965780258178710937500000000000000
0.01677520386874675750732421875000000000
0.06522405147552490234375000000000000000
-0.08648966252803802490234375000000000000
0.10389816761016845703125000000000000000
0.09662169963121414184570312500000000000
-0.08047003298997879028320312500000000000
-0.05291829630732536315917968750000000000
-0.01080045010894536972045898437500000000
-0.01814953982830047607421875000000000000
0.01669115573167800903320312500000000000
0.02665533870458602905273437500000000000
-0.04411480203270912170410156250000000000
-0.05540277436375617980957031250000000000
-0.06817881762981414794921875000000000000
-0.07954242825508117675781250000000000000
-0.09151493012905120849609375000000000000
-0.09628278017044067382812500000000000000
0.04898655787110328674316406250000000000
0.07082260400056838989257812500000000000
0.02784401364624500274658203125000000000
-0.00545589113608002662658691406250000000
0.01290300767868757247924804687500000000
-0.03776684403419494628906250000000000000
-0.01002980023622512817382812500000000000
0.11627565324306488037109375000000000000
0.10742436349391937255859375000000000000
-0.15671446919441223144531250000000000000
0.07445479184389114379882812500000000000
0.11511518806219100952148437500000000000
0.07403117418289184570312500000000000000
0.11290041357278823852539062500000000000
0.05866158008575439453125000000000000000
-0.07135307788848876953125000000000000000
0.02088008821010589599609375000000000000
0.10991655290126800537109375000000000000
0.05165885016322135925292968750000000000
0.10815794765949249267578125000000000000
0.05106842517852783203125000000000000000
0.10179911553859710693359375000000000000
0.09979200363159179687500000000000000000
-0.04635651782155036926269531250000000000
-0.01762972772121429443359375000000000000
-0.10365411639213562011718750000000000000
-0.08532069623470306396484375000000000000
0.09063929319381713867187500000000000000
-0.04986318945884704589843750000000000000
0.07476226985454559326171875000000000000
-0.05664042383432388305664062500000000000
0.04780539870262145996093750000000000000
0.06923572719097137451171875000000000000
0.00348617136478424072265625000000000000
0.00560128688812255859375000000000000000
0.04323175549507141113281250000000000000
-0.09761588275432586669921875000000000000
0.05860070884227752685546875000000000000
0.05448837578296661376953125000000000000
-0.02613756060600280761718750000000000000
-0.01600674539804458618164062500000000000
0.05646853148937225341796875000000000000
-0.06747053563594818115234375000000000000
0.05235370993614196777343750000000000000
0.04203742742538452148437500000000000000
0.02364905178546905517578125000000000000
0.02038753777742385864257812500000000000
-0.02049953490495681762695312500000000000
-0.04687899351119995117187500000000000000
0.04121629893779754638671875000000000000
-0.09152861684560775756835937500000000000
-0.10379633307456970214843750000000000000
0.04279893636703491210937500000000000000
0.05742402374744415283203125000000000000
-0.02962227165699005126953125000000000000
0.08280871808528900146484375000000000000
0.04663273692131042480468750000000000000
-0.05445517227053642272949218750000000000
0.00563479959964752197265625000000000000
-0.07921914756298065185546875000000000000
-0.08461383730173110961914062500000000000
-0.05843076854944229125976562500000000000
-0.02998580783605575561523437500000000000
-0.04134064167737960815429687500000000000
0.08564275503158569335937500000000000000
0.08001203835010528564453125000000000000
-0.06712439656257629394531250000000000000
0.00901717692613601684570312500000000000
-0.06424978375434875488281250000000000000
-0.04455447942018508911132812500000000000
-0.06239488720893859863281250000000000000
-0.07554523646831512451171875000000000000
-0.07892943918704986572265625000000000000
-0.04383738711476325988769531250000000000
0.02708746492862701416015625000000000000
0.02378690242767333984375000000000000000
0.09399254620075225830078125000000000000
-0.03673626482486724853515625000000000000
-0.09607093781232833862304687500000000000
-0.00890716910362243652343750000000000000
-0.00747147947549819946289062500000000000
-0.01167355477809906005859375000000000000
-0.08988613635301589965820312500000000000
0.06854523718357086181640625000000000000
0.01960337162017822265625000000000000000
-0.01538536697626113891601562500000000000
0.02059279382228851318359375000000000000
-0.03223246335983276367187500000000000000
-0.03123909235000610351562500000000000000
0.03655037283897399902343750000000000000
-0.04971825331449508666992187500000000000
-0.05818049982190132141113281250000000000
-0.03899542242288589477539062500000000000
-0.00684212893247604370117187500000000000
0.08458295464515686035156250000000000000
0.04377380385994911193847656250000000000
-0.00888602994382381439208984375000000000
0.19961354136466979980468750000000000000
0.37059083580970764160156250000000000000
0.24151614308357238769531250000000000000
0.05397923290729522705078125000000000000
0.02437581121921539306640625000000000000
0.14438799023628234863281250000000000000
0.46400868892669677734375000000000000000
0.06100273877382278442382812500000000000
0.00897518172860145568847656250000000000
-0.09534681588411331176757812500000000000
0.22300507128238677978515625000000000000
0.39399364590644836425781250000000000000
-0.17620155215263366699218750000000000000
-0.08345475792884826660156250000000000000
-0.06673458963632583618164062500000000000
0.19280698895454406738281250000000000000
0.18686459958553314208984375000000000000
-0.21811431646347045898437500000000000000
0.00074894685531035065650939941406250000
0.13300855457782745361328125000000000000
0.26119184494018554687500000000000000000
0.09900169819593429565429687500000000000
-0.09683016687631607055664062500000000000
0.10297853499650955200195312500000000000
-0.06677103042602539062500000000000000000
-0.13224515318870544433593750000000000000
0.11016382277011871337890625000000000000
0.06278815120458602905273437500000000000
-0.05028351396322250366210937500000000000
-0.00207810429856181144714355468750000000
-0.09337466210126876831054687500000000000
0.21451519429683685302734375000000000000
0.18231843411922454833984375000000000000
0.09937204420566558837890625000000000000
-0.13425616919994354248046875000000000000
-0.18417103588581085205078125000000000000
0.12835206091403961181640625000000000000
-0.10572718083858489990234375000000000000
0.00130869122222065925598144531250000000
-0.13633136451244354248046875000000000000
0.04263652116060256958007812500000000000
0.27400180697441101074218750000000000000
-0.04029578715562820434570312500000000000
-0.10591926425695419311523437500000000000
-0.10743604600429534912109375000000000000
0.21285706758499145507812500000000000000
0.10491276532411575317382812500000000000
-0.03666925057768821716308593750000000000
-0.05707550793886184692382812500000000000
-0.02517969533801078796386718750000000000
-0.01786009967327117919921875000000000000
-0.21016423404216766357421875000000000000
-0.13325107097625732421875000000000000000
-0.02700382471084594726562500000000000000
0.06163665652275085449218750000000000000
-0.10862254351377487182617187500000000000
-0.31720259785652160644531250000000000000
-0.17557789385318756103515625000000000000
-0.01021026726812124252319335937500000000
0.03774173185229301452636718750000000000
0.06579369306564331054687500000000000000
-0.13370123505592346191406250000000000000
-0.12098189443349838256835937500000000000
-0.06027450412511825561523437500000000000
0.13221739232540130615234375000000000000
-0.16872265934944152832031250000000000000
-0.13412410020828247070312500000000000000
0.03832164034247398376464843750000000000
0.00868860259652137756347656250000000000
0.01767224818468093872070312500000000000
-0.21320044994354248046875000000000000000
0.00822641700506210327148437500000000000
0.14671622216701507568359375000000000000
-0.03561887145042419433593750000000000000
-0.04851471260190010070800781250000000000
0.01784026436507701873779296875000000000
-0.22664026916027069091796875000000000000
-0.14830034971237182617187500000000000000
0.02106249518692493438720703125000000000
0.11266124993562698364257812500000000000
0.29231479763984680175781250000000000000
-0.05859056860208511352539062500000000000
-0.08785004168748855590820312500000000000
-0.17391711473464965820312500000000000000
0.12121602892875671386718750000000000000
0.21459460258483886718750000000000000000
-0.12474727630615234375000000000000000000
-0.03432023897767066955566406250000000000
-0.06656647473573684692382812500000000000
-0.05128445476293563842773437500000000000
-0.03495422378182411193847656250000000000
-0.29418414831161499023437500000000000000
-0.10118182748556137084960937500000000000
-0.01150534301996231079101562500000000000
0.03001478128135204315185546875000000000
-0.03376001119613647460937500000000000000
-0.14409419894218444824218750000000000000
-0.05029785260558128356933593750000000000
-0.05090413987636566162109375000000000000
-0.11415933072566986083984375000000000000
-0.13089905679225921630859375000000000000
-0.04321640729904174804687500000000000000
-0.17486245930194854736328125000000000000
-0.25917568802833557128906250000000000000
-0.32178771495819091796875000000000000000
-0.11615208536386489868164062500000000000
-0.08175509423017501831054687500000000000
-0.22564519941806793212890625000000000000
-0.00527998432517051696777343750000000000
-0.21957591176033020019531250000000000000
-0.08649960905313491821289062500000000000
-0.26675817370414733886718750000000000000
-0.15570786595344543457031250000000000000
-0.02026134543120861053466796875000000000
0.06137581169605255126953125000000000000
0.01076795067638158798217773437500000000
-0.05773222818970680236816406250000000000
-0.16474990546703338623046875000000000000
0.05823131278157234191894531250000000000
-0.04783926159143447875976562500000000000
-0.03642422705888748168945312500000000000
-0.07660704851150512695312500000000000000
0.04482927173376083374023437500000000000
0.03165674209594726562500000000000000000
-0.06688878685235977172851562500000000000
-0.07442724704742431640625000000000000000
-0.03722059726715087890625000000000000000
-0.03948757052421569824218750000000000000
-0.06839066743850708007812500000000000000
0.09500078856945037841796875000000000000
-0.01908505707979202270507812500000000000
0.08721391856670379638671875000000000000
-0.05401585996150970458984375000000000000
0.07280914485454559326171875000000000000
-0.01944336295127868652343750000000000000
0.00527910143136978149414062500000000000
0.09927070140838623046875000000000000000
-0.08423115313053131103515625000000000000
-0.03753406554460525512695312500000000000
-0.07388034462928771972656250000000000000
0.10078907012939453125000000000000000000
-0.01773430407047271728515625000000000000
0.02847342193126678466796875000000000000
0.00519563257694244384765625000000000000
-0.02609263360500335693359375000000000000
-0.04553099349141120910644531250000000000
0.07467608153820037841796875000000000000
-0.04967094957828521728515625000000000000
0.02498085796833038330078125000000000000
-0.00898697227239608764648437500000000000
-0.05179859697818756103515625000000000000
-0.02172421663999557495117187500000000000
0.06117555499076843261718750000000000000
0.04803656041622161865234375000000000000
-0.01400868594646453857421875000000000000
-0.10319165885448455810546875000000000000
-0.02976494282484054565429687500000000000
0.02375526726245880126953125000000000000
-0.03545399010181427001953125000000000000
-0.09792983531951904296875000000000000000
0.04122900962829589843750000000000000000
-0.09134685993194580078125000000000000000
-0.04832741245627403259277343750000000000
-0.05063315108418464660644531250000000000
0.06439717113971710205078125000000000000
0.01919497549533843994140625000000000000
-0.04276277497410774230957031250000000000
-0.08602081239223480224609375000000000000
0.00921665877103805541992187500000000000
0.07541945576667785644531250000000000000
-0.00252311676740646362304687500000000000
-0.08930917084217071533203125000000000000
0.07423152029514312744140625000000000000
-0.04518652334809303283691406250000000000
0.00270903506316244602203369140625000000
-0.06009953841567039489746093750000000000
-0.12464974820613861083984375000000000000
-0.03255417197942733764648437500000000000
-0.02456974610686302185058593750000000000
-0.13986860215663909912109375000000000000
0.04992201551795005798339843750000000000
-0.01237150467932224273681640625000000000
-0.05319386348128318786621093750000000000
0.12892770767211914062500000000000000000
0.06974545866250991821289062500000000000
-0.05771650746464729309082031250000000000
-0.15794746577739715576171875000000000000
-0.05299490317702293395996093750000000000
0.11594006419181823730468750000000000000
0.09577885270118713378906250000000000000
-0.08021788299083709716796875000000000000
-0.10503829270601272583007812500000000000
0.02593613415956497192382812500000000000
-0.08261398226022720336914062500000000000
-0.10698098689317703247070312500000000000
-0.10283213853836059570312500000000000000
-0.00670740380883216857910156250000000000
0.10748041421175003051757812500000000000
0.14022156596183776855468750000000000000
0.04174665361642837524414062500000000000
0.03820435702800750732421875000000000000
0.04558878764510154724121093750000000000
0.12462192028760910034179687500000000000
0.07549513876438140869140625000000000000
-0.06546016782522201538085937500000000000
0.04719257727265357971191406250000000000
-0.10406282544136047363281250000000000000
0.02961446158587932586669921875000000000
-0.21862724423408508300781250000000000000
-0.16661278903484344482421875000000000000
-0.06903062760829925537109375000000000000
-0.19019265472888946533203125000000000000
-0.01995894312858581542968750000000000000
-0.02335290424525737762451171875000000000
0.05158739164471626281738281250000000000
0.02857763133943080902099609375000000000
-0.17502300441265106201171875000000000000
-0.24188923835754394531250000000000000000
0.09442251175642013549804687500000000000
0.09613714367151260375976562500000000000
0.01029371470212936401367187500000000000
0.00754400575533509254455566406250000000
-0.11459089070558547973632812500000000000
-0.12992210686206817626953125000000000000
-0.19582346081733703613281250000000000000
-0.25137299299240112304687500000000000000
-0.19061073660850524902343750000000000000
-0.03811892867088317871093750000000000000
-0.14639276266098022460937500000000000000
-0.10471699386835098266601562500000000000
-0.00273252301849424839019775390625000000
-0.19794173538684844970703125000000000000
0.00795413739979267120361328125000000000
0.10603577643632888793945312500000000000
0.21549418568611145019531250000000000000
0.15837126970291137695312500000000000000
0.07966817915439605712890625000000000000
-0.10319104790687561035156250000000000000
-0.03212488070130348205566406250000000000
0.13669718801975250244140625000000000000
0.12062827497720718383789062500000000000
0.20556272566318511962890625000000000000
0.04142459109425544738769531250000000000
-0.23272490501403808593750000000000000000
-0.02561645209789276123046875000000000000
0.16366280615329742431640625000000000000
0.05606752634048461914062500000000000000
0.15744595229625701904296875000000000000
-0.03687591105699539184570312500000000000
0.10840409249067306518554687500000000000
-0.11863891780376434326171875000000000000
-0.25101122260093688964843750000000000000
-0.17914979159832000732421875000000000000
0.04628653451800346374511718750000000000
0.11641371995210647583007812500000000000
0.20355150103569030761718750000000000000
-0.04506487399339675903320312500000000000
0.02728338725864887237548828125000000000
-0.07155002653598785400390625000000000000
0.40216973423957824707031250000000000000
0.41368925571441650390625000000000000000
0.15959820151329040527343750000000000000
0.14160098135471343994140625000000000000
0.05131085216999053955078125000000000000
0.23473761975765228271484375000000000000
0.17285205423831939697265625000000000000
0.01040892675518989562988281250000000000
-0.12052444368600845336914062500000000000
-0.19464454054832458496093750000000000000
0.02343074046075344085693359375000000000
-0.04170576110482215881347656250000000000
-0.13057284057140350341796875000000000000
-0.13709333539009094238281250000000000000
-0.16888016462326049804687500000000000000
-0.01899697445333003997802734375000000000
0.01372703351080417633056640625000000000
-0.10734707862138748168945312500000000000
-0.11247138679027557373046875000000000000
-0.03248515725135803222656250000000000000
0.03891581296920776367187500000000000000
0.09570328891277313232421875000000000000
0.04307641834020614624023437500000000000
-0.04921947792172431945800781250000000000
-0.16518189013004302978515625000000000000
0.22493736445903778076171875000000000000
0.35860359668731689453125000000000000000
0.37640807032585144042968750000000000000
0.13714247941970825195312500000000000000
-0.06061542034149169921875000000000000000
-0.00811302661895751953125000000000000000
0.12231580168008804321289062500000000000
0.12360792607069015502929687500000000000
0.06444849818944931030273437500000000000
-0.14283050596714019775390625000000000000
-0.04459744691848754882812500000000000000
0.01829631626605987548828125000000000000
-0.05521558970212936401367187500000000000
0.05043973401188850402832031250000000000
-0.01503248512744903564453125000000000000
0.03152211010456085205078125000000000000
0.02073676884174346923828125000000000000
-0.09117436408996582031250000000000000000
0.07310631871223449707031250000000000000
-0.04072870314121246337890625000000000000
0.05245746672153472900390625000000000000
-0.00173011422157287597656250000000000000
0.01657787710428237915039062500000000000
-0.01847721636295318603515625000000000000
0.08871780335903167724609375000000000000
-0.03804671019315719604492187500000000000
-0.09092284739017486572265625000000000000
-0.00244773924350738525390625000000000000
0.10263894498348236083984375000000000000
-0.09134573489427566528320312500000000000
-0.09337639063596725463867187500000000000
-0.08077970147132873535156250000000000000
-0.06277333199977874755859375000000000000
0.09375895559787750244140625000000000000
-0.01613644510507583618164062500000000000
0.05261720716953277587890625000000000000
-0.08198872208595275878906250000000000000
-0.08326345682144165039062500000000000000
0.02583390474319458007812500000000000000
0.01774291694164276123046875000000000000
-0.09442126750946044921875000000000000000
0.08513095974922180175781250000000000000
-0.04499059915542602539062500000000000000
0.02993316948413848876953125000000000000
-0.09169644117355346679687500000000000000
0.03437185287475585937500000000000000000
0.04251380264759063720703125000000000000
-0.05744484812021255493164062500000000000
0.03518934547901153564453125000000000000
-0.08743275701999664306640625000000000000
-0.02536368370056152343750000000000000000
-0.08543982356786727905273437500000000000
-0.06513409316539764404296875000000000000
-0.10364364087581634521484375000000000000
0.05159762501716613769531250000000000000
0.09555351734161376953125000000000000000
-0.03334367275238037109375000000000000000
-0.09091189503669738769531250000000000000
0.06168639659881591796875000000000000000
0.05534270405769348144531250000000000000
-0.00252740830183029174804687500000000000
0.00955787301063537597656250000000000000
0.00536217540502548217773437500000000000
-0.00003950297832489013671875000000000000
-0.18601989746093750000000000000000000000
-0.17702621221542358398437500000000000000
-0.09808948636054992675781250000000000000
-0.17328251898288726806640625000000000000
-0.17606468498706817626953125000000000000
-0.10519795864820480346679687500000000000
-0.12267852574586868286132812500000000000
-0.22753989696502685546875000000000000000
-0.08301706612110137939453125000000000000
-0.06618131697177886962890625000000000000
-0.00307847629301249980926513671875000000
-0.11028552800416946411132812500000000000
0.12160206586122512817382812500000000000
0.27635300159454345703125000000000000000
0.23861813545227050781250000000000000000
-0.04985365644097328186035156250000000000
-0.06595163047313690185546875000000000000
0.26780399680137634277343750000000000000
0.43592172861099243164062500000000000000
0.37434759736061096191406250000000000000
-0.16379477083683013916015625000000000000
-0.02479822561144828796386718750000000000
0.20130164921283721923828125000000000000
0.27860832214355468750000000000000000000
0.10051286965608596801757812500000000000
0.02539158239960670471191406250000000000
0.05181493982672691345214843750000000000
-0.00147136731538921594619750976562500000
0.20811951160430908203125000000000000000
0.13211858272552490234375000000000000000
-0.04530410841107368469238281250000000000
0.13615681231021881103515625000000000000
0.10256488621234893798828125000000000000
0.16498158872127532958984375000000000000
0.40617406368255615234375000000000000000
-0.08876078575849533081054687500000000000
-0.10253594815731048583984375000000000000
-0.00818701647222042083740234375000000000
0.22637580335140228271484375000000000000
0.41871964931488037109375000000000000000
-0.11020816117525100708007812500000000000
-0.15717123448848724365234375000000000000
-0.21352028846740722656250000000000000000
0.00813003815710544586181640625000000000
0.01374506764113903045654296875000000000
0.12123918533325195312500000000000000000
-0.15464715659618377685546875000000000000
-0.35027414560317993164062500000000000000
-0.12310587614774703979492187500000000000
-0.06759672611951828002929687500000000000
-0.10765785723924636840820312500000000000
0.01326120737940073013305664062500000000
0.30050233006477355957031250000000000000
0.24655087292194366455078125000000000000
0.46766936779022216796875000000000000000
0.09907711297273635864257812500000000000
0.23612365126609802246093750000000000000
0.28728994727134704589843750000000000000
0.24067930877208709716796875000000000000
0.11245200037956237792968750000000000000
0.16367250680923461914062500000000000000
0.00013405521167442202568054199218750000
-0.04175193607807159423828125000000000000
-0.06160476058721542358398437500000000000
-0.03483414649963378906250000000000000000
-0.22754974663257598876953125000000000000
-0.35018360614776611328125000000000000000
-0.32125955820083618164062500000000000000
-0.20174118876457214355468750000000000000
0.00368329836055636405944824218750000000
-0.24784380197525024414062500000000000000
-0.17577634751796722412109375000000000000
-0.02713109739124774932861328125000000000
-0.09383505582809448242187500000000000000
-0.00689168320968747138977050781250000000
-0.20224979519844055175781250000000000000
0.05773941427469253540039062500000000000
0.25918537378311157226562500000000000000
0.39515271782875061035156250000000000000
0.31262546777725219726562500000000000000
0.06251349300146102905273437500000000000
0.27047032117843627929687500000000000000
0.15778759121894836425781250000000000000
0.05082333087921142578125000000000000000
0.02794740907847881317138671875000000000
-0.03833580762147903442382812500000000000
-0.13031245768070220947265625000000000000
-0.06660575419664382934570312500000000000
-0.13282927870750427246093750000000000000
0.05218060687184333801269531250000000000
-0.29321596026420593261718750000000000000
-0.22907015681266784667968750000000000000
-0.35018998384475708007812500000000000000
-0.22227577865123748779296875000000000000
-0.08247512578964233398437500000000000000
-0.09790606051683425903320312500000000000
0.02764339558780193328857421875000000000
-0.09299066662788391113281250000000000000
-0.17162230610847473144531250000000000000
-0.20891800522804260253906250000000000000
0.09648226946592330932617187500000000000
0.00179216067772358655929565429687500000
-0.05577608197927474975585937500000000000
-0.33690872788429260253906250000000000000
-0.25053551793098449707031250000000000000
0.18819457292556762695312500000000000000
-0.07607014477252960205078125000000000000
-0.11424500495195388793945312500000000000
-0.42608416080474853515625000000000000000
-0.23636059463024139404296875000000000000
-0.00497800670564174652099609375000000000
-0.19664847850799560546875000000000000000
-0.17261037230491638183593750000000000000
-0.04451697692275047302246093750000000000
-0.10943703353404998779296875000000000000
-0.04215018078684806823730468750000000000
0.08705896139144897460937500000000000000
0.15966907143592834472656250000000000000
0.25785410404205322265625000000000000000
0.21184080839157104492187500000000000000
0.03697728738188743591308593750000000000
0.11753200739622116088867187500000000000
0.06173664703965187072753906250000000000
0.15356566011905670166015625000000000000
0.13906072080135345458984375000000000000
-0.04817128553986549377441406250000000000
-0.02484126389026641845703125000000000000
0.09280267357826232910156250000000000000
0.03328606486320495605468750000000000000
-0.04084972292184829711914062500000000000
-0.08963222056627273559570312500000000000
0.01765763759613037109375000000000000000
-0.07256865501403808593750000000000000000
-0.01575990766286849975585937500000000000
-0.10098399966955184936523437500000000000
-0.03288868069648742675781250000000000000
-0.08067530393600463867187500000000000000
-0.01732787489891052246093750000000000000
0.03170773386955261230468750000000000000
0.05448754131793975830078125000000000000
-0.02033431828022003173828125000000000000
0.07573412358760833740234375000000000000
-0.03738638013601303100585937500000000000
0.00329035520553588867187500000000000000
0.01209741830825805664062500000000000000
-0.04358593374490737915039062500000000000
0.10308052599430084228515625000000000000
-0.05951581895351409912109375000000000000
0.06987194716930389404296875000000000000
0.09570233523845672607421875000000000000
0.04169991612434387207031250000000000000
0.10398738086223602294921875000000000000
0.08737136423587799072265625000000000000
0.01040086150169372558593750000000000000
-0.09614753723144531250000000000000000000
0.05167642235755920410156250000000000000
-0.08975441753864288330078125000000000000
0.04931057989597320556640625000000000000
-0.00542990863323211669921875000000000000
-0.04179830849170684814453125000000000000
-0.03150790184736251831054687500000000000
0.07493764162063598632812500000000000000
0.09133897721767425537109375000000000000
-0.03296433389186859130859375000000000000
-0.00217980891466140747070312500000000000
0.06127104163169860839843750000000000000
0.00828243046998977661132812500000000000
-0.00544137507677078247070312500000000000
0.08256720006465911865234375000000000000
-0.05078328773379325866699218750000000000
-0.01114757359027862548828125000000000000
-0.08446979522705078125000000000000000000
0.07875990867614746093750000000000000000
-0.08235943317413330078125000000000000000
-0.05147508904337882995605468750000000000
-0.13769435882568359375000000000000000000
-0.16808697581291198730468750000000000000
0.02511171810328960418701171875000000000
0.07658836990594863891601562500000000000
0.12325204908847808837890625000000000000
0.05103645846247673034667968750000000000
-0.06642746180295944213867187500000000000
-0.03447455167770385742187500000000000000
-0.07420355826616287231445312500000000000
-0.15008826553821563720703125000000000000
0.11266941577196121215820312500000000000
-0.07913614064455032348632812500000000000
0.04780974611639976501464843750000000000
-0.28667706251144409179687500000000000000
-0.33603313565254211425781250000000000000
0.04649746045470237731933593750000000000
-0.11124878376722335815429687500000000000
-0.08260966092348098754882812500000000000
-0.11475447565317153930664062500000000000
-0.11147391051054000854492187500000000000
-0.02702100947499275207519531250000000000
0.11065742373466491699218750000000000000
0.16447092592716217041015625000000000000
0.15969944000244140625000000000000000000
0.09678979963064193725585937500000000000
-0.16199749708175659179687500000000000000
-0.11323305964469909667968750000000000000
0.01059828791767358779907226562500000000
-0.24915820360183715820312500000000000000
-0.17009554803371429443359375000000000000
0.24344041943550109863281250000000000000
0.31316006183624267578125000000000000000
0.12471152096986770629882812500000000000
-0.11839668452739715576171875000000000000
-0.15435129404067993164062500000000000000
0.24623167514801025390625000000000000000
0.38564917445182800292968750000000000000
0.06330022960901260375976562500000000000
-0.08250016719102859497070312500000000000
-0.03282781690359115600585937500000000000
-0.02544502541422843933105468750000000000
0.07462246716022491455078125000000000000
-0.16629937291145324707031250000000000000
-0.20500983297824859619140625000000000000
-0.07866594195365905761718750000000000000
-0.14607921242713928222656250000000000000
-0.16937206685543060302734375000000000000
-0.31124827265739440917968750000000000000
-0.05609558522701263427734375000000000000
-0.07998522371053695678710937500000000000
-0.17697566747665405273437500000000000000
-0.10101226717233657836914062500000000000
-0.04354222118854522705078125000000000000
-0.01435516029596328735351562500000000000
-0.31788635253906250000000000000000000000
0.18033932149410247802734375000000000000
0.26295104622840881347656250000000000000
0.40344998240470886230468750000000000000
-0.07363935559988021850585937500000000000
-0.11262554675340652465820312500000000000
0.16480587422847747802734375000000000000
0.34417632222175598144531250000000000000
0.33625712990760803222656250000000000000
-0.13969792425632476806640625000000000000
0.11199124157428741455078125000000000000
-0.08853433281183242797851562500000000000
0.03738200291991233825683593750000000000
-0.11971741914749145507812500000000000000
-0.05135880783200263977050781250000000000
0.02417583577334880828857421875000000000
-0.05129544064402580261230468750000000000
-0.08468902111053466796875000000000000000
-0.16388042271137237548828125000000000000
-0.08317831158638000488281250000000000000
-0.07310862094163894653320312500000000000
0.05593930184841156005859375000000000000
-0.07003712654113769531250000000000000000
0.00752192735671997070312500000000000000
-0.03078161925077438354492187500000000000
-0.09612012654542922973632812500000000000
0.06084163486957550048828125000000000000
-0.07628922909498214721679687500000000000
-0.09552301466464996337890625000000000000
-0.06404322385787963867187500000000000000
0.02793398499488830566406250000000000000
-0.03432871401309967041015625000000000000
0.05518186092376708984375000000000000000
-0.09351877123117446899414062500000000000
0.06597344577312469482421875000000000000
0.02195817232131958007812500000000000000
-0.00972734391689300537109375000000000000
0.00251945853233337402343750000000000000
0.04420301318168640136718750000000000000
0.02453680336475372314453125000000000000
-0.07070545852184295654296875000000000000
-0.01413045823574066162109375000000000000
0.02451549470424652099609375000000000000
0.07263225317001342773437500000000000000
0.07757562398910522460937500000000000000
-0.00959675014019012451171875000000000000
0.14601868391036987304687500000000000000
-0.12694253027439117431640625000000000000
0.03980508074164390563964843750000000000
-0.03579925000667572021484375000000000000
-0.22096036374568939208984375000000000000
0.27812996506690979003906250000000000000
0.29382315278053283691406250000000000000
0.31496965885162353515625000000000000000
-0.21243582665920257568359375000000000000
0.10028026998043060302734375000000000000
0.10848886519670486450195312500000000000
0.12126528471708297729492187500000000000
-0.06062969937920570373535156250000000000
-0.32319396734237670898437500000000000000
0.08576914668083190917968750000000000000
0.08402520418167114257812500000000000000
-0.04734991490840911865234375000000000000
-0.27095365524291992187500000000000000000
-0.03265359625220298767089843750000000000
0.10813165456056594848632812500000000000
0.10481367260217666625976562500000000000
-0.10245639830827713012695312500000000000
-0.01725615561008453369140625000000000000
0.10490135103464126586914062500000000000
-0.05084954574704170227050781250000000000
-0.34062790870666503906250000000000000000
-0.00714320736005902290344238281250000000
-0.07523773610591888427734375000000000000
-0.11483521014451980590820312500000000000
-0.05598810687661170959472656250000000000
-0.20773033797740936279296875000000000000
-0.12938025593757629394531250000000000000
-0.07116951048374176025390625000000000000
-0.02720432169735431671142578125000000000
-0.14165264368057250976562500000000000000
0.02692429907619953155517578125000000000
0.33081480860710144042968750000000000000
0.53284239768981933593750000000000000000
0.36534219980239868164062500000000000000
0.04938462749123573303222656250000000000
0.09189911186695098876953125000000000000
0.30734261870384216308593750000000000000
0.53373086452484130859375000000000000000
0.36463913321495056152343750000000000000
-0.00790404807776212692260742187500000000
-0.34193959832191467285156250000000000000
-0.18133385479450225830078125000000000000
0.09344502538442611694335937500000000000
-0.00705827772617340087890625000000000000
-0.05013165995478630065917968750000000000
0.09005606174468994140625000000000000000
-0.05518652126193046569824218750000000000
0.06832554936408996582031250000000000000
0.09208595752716064453125000000000000000
0.03337265551090240478515625000000000000
0.03848189115524291992187500000000000000
-0.05022690817713737487792968750000000000
-0.09088700264692306518554687500000000000
0.00106453895568847656250000000000000000
0.07737922668457031250000000000000000000
0.03708213567733764648437500000000000000
0.04206697642803192138671875000000000000
0.02290688455104827880859375000000000000
0.02191850543022155761718750000000000000
-0.00067833811044692993164062500000000000
0.04854153096675872802734375000000000000
-0.10192340612411499023437500000000000000
-0.05150490254163742065429687500000000000
-0.00609633326530456542968750000000000000
0.02099145948886871337890625000000000000
-0.04887202754616737365722656250000000000
0.06572179496288299560546875000000000000
0.04055860638618469238281250000000000000
-0.09314261376857757568359375000000000000
0.00886772572994232177734375000000000000
-0.07718379795551300048828125000000000000
0.05993375182151794433593750000000000000
0.07153458893299102783203125000000000000
0.01576508581638336181640625000000000000
0.02472163736820220947265625000000000000
0.04164779186248779296875000000000000000
0.00653580576181411743164062500000000000
0.07036821544170379638671875000000000000
-0.05258034914731979370117187500000000000
0.00615280121564865112304687500000000000
-0.04280668869614601135253906250000000000
0.09430782496929168701171875000000000000
0.07785159349441528320312500000000000000
-0.03916256874799728393554687500000000000
-0.01636344939470291137695312500000000000
0.05233275890350341796875000000000000000
-0.09098754823207855224609375000000000000
0.00383406132459640502929687500000000000
0.08292746543884277343750000000000000000
-0.08789601922035217285156250000000000000
-0.06196172162890434265136718750000000000
-0.04169675707817077636718750000000000000
0.06814670562744140625000000000000000000
0.02607575058937072753906250000000000000
0.07974927127361297607421875000000000000
0.02694090083241462707519531250000000000
-0.09287130832672119140625000000000000000
-0.20858028531074523925781250000000000000
-0.12010374665260314941406250000000000000
-0.05119601264595985412597656250000000000
-0.09725756198167800903320312500000000000
-0.15620344877243041992187500000000000000
0.01346983294934034347534179687500000000
-0.08504553139209747314453125000000000000
0.03206083923578262329101562500000000000
0.02303364127874374389648437500000000000
0.18386344611644744873046875000000000000
0.28867205977439880371093750000000000000
0.25870710611343383789062500000000000000
0.05192558839917182922363281250000000000
0.00158545235171914100646972656250000000
0.01674676127731800079345703125000000000
-0.00140767917037010192871093750000000000
0.19670288264751434326171875000000000000
0.00051062396960332989692687988281250000
-0.07267461717128753662109375000000000000
-0.12201918661594390869140625000000000000
-0.06034525856375694274902343750000000000
-0.02799362502992153167724609375000000000
0.12187789380550384521484375000000000000
-0.08125273883342742919921875000000000000
-0.03363116458058357238769531250000000000
-0.00406046025454998016357421875000000000
0.01975044235587120056152343750000000000
0.11804379522800445556640625000000000000
0.10516168177127838134765625000000000000
0.10758730769157409667968750000000000000
0.14424200356006622314453125000000000000
0.12552799284458160400390625000000000000
0.04251005500555038452148437500000000000
-0.04258248582482337951660156250000000000
0.03936585783958435058593750000000000000
-0.16136139631271362304687500000000000000
-0.26324757933616638183593750000000000000
-0.15902815759181976318359375000000000000
0.03381548821926116943359375000000000000
-0.05679518729448318481445312500000000000
-0.18981502950191497802734375000000000000
-0.35183623433113098144531250000000000000
-0.36200082302093505859375000000000000000
0.23169246315956115722656250000000000000
0.11274674534797668457031250000000000000
0.13693377375602722167968750000000000000
0.02031418494880199432373046875000000000
-0.09857984632253646850585937500000000000
-0.04933503642678260803222656250000000000
-0.06422294676303863525390625000000000000
0.03035420179367065429687500000000000000
0.05283449590206146240234375000000000000
0.03361697494983673095703125000000000000
-0.10291770845651626586914062500000000000
-0.01368509978055953979492187500000000000
-0.03587613254785537719726562500000000000
-0.01375763863325119018554687500000000000
0.08723512291908264160156250000000000000
-0.06701113283634185791015625000000000000
0.01845933496952056884765625000000000000
0.03142501413822174072265625000000000000
0.07419683039188385009765625000000000000
0.08633305132389068603515625000000000000
0.02186527848243713378906250000000000000
-0.09370842576026916503906250000000000000
0.06738437712192535400390625000000000000
0.04892098903656005859375000000000000000
0.07927152514457702636718750000000000000
-0.03590504080057144165039062500000000000
-0.03739472478628158569335937500000000000
0.08515095710754394531250000000000000000
-0.07876217365264892578125000000000000000
-0.08679669350385665893554687500000000000
0.10486987233161926269531250000000000000
-0.00663048261776566505432128906250000000
-0.00789130013436079025268554687500000000
-0.03499662876129150390625000000000000000
-0.03468685969710350036621093750000000000
0.11237474530935287475585937500000000000
-0.03523136302828788757324218750000000000
-0.05907003208994865417480468750000000000
-0.28500357270240783691406250000000000000
-0.23260521888732910156250000000000000000
-0.13000799715518951416015625000000000000
-0.04445112496614456176757812500000000000
-0.02990468032658100128173828125000000000
-0.04909745231270790100097656250000000000
-0.24304753541946411132812500000000000000
0.10723540931940078735351562500000000000
0.13273353874683380126953125000000000000
0.37268453836441040039062500000000000000
0.25303536653518676757812500000000000000
0.26135933399200439453125000000000000000
0.15250678360462188720703125000000000000
0.13226740062236785888671875000000000000
0.25322765111923217773437500000000000000
0.07702711969614028930664062500000000000
0.14309406280517578125000000000000000000
0.00665635569021105766296386718750000000
0.12619164586067199707031250000000000000
-0.05279938504099845886230468750000000000
-0.03081256709992885589599609375000000000
-0.03265022858977317810058593750000000000
0.02615433186292648315429687500000000000
0.09840730577707290649414062500000000000
0.13208167254924774169921875000000000000
0.29433229565620422363281250000000000000
0.03959348052740097045898437500000000000
0.16574467718601226806640625000000000000
0.03475888445973396301269531250000000000
0.22555543482303619384765625000000000000
0.25851795077323913574218750000000000000
0.33961224555969238281250000000000000000
-0.07171600311994552612304687500000000000
-0.20622882246971130371093750000000000000
-0.08937778323888778686523437500000000000
0.05562267452478408813476562500000000000
0.13091617822647094726562500000000000000
-0.10939814895391464233398437500000000000
-0.20037087798118591308593750000000000000
-0.17121542990207672119140625000000000000
-0.09555117785930633544921875000000000000
0.05905093252658843994140625000000000000
0.06382835656404495239257812500000000000
-0.05304398015141487121582031250000000000
-0.05489165335893630981445312500000000000
-0.19499763846397399902343750000000000000
0.04735036194324493408203125000000000000
-0.30055192112922668457031250000000000000
-0.16445782780647277832031250000000000000
-0.00320301554165780544281005859375000000
-0.04323964565992355346679687500000000000
0.06336283683776855468750000000000000000
-0.02324328571557998657226562500000000000
0.22282901406288146972656250000000000000
0.22615805268287658691406250000000000000
0.03759539499878883361816406250000000000
0.03885462135076522827148437500000000000
0.20324876904487609863281250000000000000
0.20213940739631652832031250000000000000
-0.04837138205766677856445312500000000000
-0.03887044265866279602050781250000000000
-0.07735931128263473510742187500000000000
0.08740844577550888061523437500000000000
-0.06397733092308044433593750000000000000
-0.09493908286094665527343750000000000000
-0.12658455967903137207031250000000000000
-0.09016742557287216186523437500000000000
0.10289411246776580810546875000000000000
0.05447985231876373291015625000000000000
-0.07474660128355026245117187500000000000
0.05870854854583740234375000000000000000
0.04569849371910095214843750000000000000
0.08441436290740966796875000000000000000
0.03078393638134002685546875000000000000
-0.05561390519142150878906250000000000000
0.06242845952510833740234375000000000000
-0.06753957271575927734375000000000000000
0.02375629544258117675781250000000000000
-0.02274864912033081054687500000000000000
0.04724787175655364990234375000000000000
-0.03748282045125961303710937500000000000
0.00759045779705047607421875000000000000
0.06590098142623901367187500000000000000
0.03082269430160522460937500000000000000
0.02371479570865631103515625000000000000
-0.03704661130905151367187500000000000000
0.05431260168552398681640625000000000000
-0.00492946803569793701171875000000000000
-0.01511026173830032348632812500000000000
-0.09896940737962722778320312500000000000
-0.08367413282394409179687500000000000000
-0.01554761826992034912109375000000000000
-0.17691907286643981933593750000000000000
0.11707584559917449951171875000000000000
-0.03683052957057952880859375000000000000
0.01657101698219776153564453125000000000
-0.01875928416848182678222656250000000000
0.24057418107986450195312500000000000000
0.60215908288955688476562500000000000000
0.19517596065998077392578125000000000000
0.00119612889830023050308227539062500000
0.17956069111824035644531250000000000000
0.18457373976707458496093750000000000000
0.33358412981033325195312500000000000000
0.07623673975467681884765625000000000000
-0.15852496027946472167968750000000000000
-0.17764452099800109863281250000000000000
-0.22181811928749084472656250000000000000
-0.20014955103397369384765625000000000000
-0.13244433701038360595703125000000000000
-0.09270141273736953735351562500000000000
-0.07442601025104522705078125000000000000
-0.23189146816730499267578125000000000000
-0.12099607288837432861328125000000000000
-0.03056581318378448486328125000000000000
0.04475793987512588500976562500000000000
-0.02525612711906433105468750000000000000
-0.21713335812091827392578125000000000000
-0.07774829119443893432617187500000000000
-0.05539851263165473937988281250000000000
-0.19088965654373168945312500000000000000
-0.00700268894433975219726562500000000000
-0.20012784004211425781250000000000000000
0.01828308962285518646240234375000000000
0.14112310111522674560546875000000000000
-0.00365529186092317104339599609375000000
0.07993289828300476074218750000000000000
0.14611876010894775390625000000000000000
0.30712041258811950683593750000000000000
0.13351348042488098144531250000000000000
-0.03203781321644783020019531250000000000
-0.02830650098621845245361328125000000000
-0.00653318827971816062927246093750000000
-0.10904709249734878540039062500000000000
-0.13753767311573028564453125000000000000
0.00238233851268887519836425781250000000
-0.03673051297664642333984375000000000000
-0.29622524976730346679687500000000000000
-0.26499363780021667480468750000000000000
-0.05929142981767654418945312500000000000
0.19064028561115264892578125000000000000
0.17100629210472106933593750000000000000
0.08538410067558288574218750000000000000
0.07390493154525756835937500000000000000
-0.03554431349039077758789062500000000000
0.06189836561679840087890625000000000000
0.03824298083782196044921875000000000000
0.00098875910043716430664062500000000000
0.08339452743530273437500000000000000000
0.06700183451175689697265625000000000000
-0.08863402903079986572265625000000000000
-0.00286515057086944580078125000000000000
0.07908441126346588134765625000000000000
0.07263614237308502197265625000000000000
-0.06458154320716857910156250000000000000
0.05240339040756225585937500000000000000
0.07306434214115142822265625000000000000
-0.01511486619710922241210937500000000000
0.03490997850894927978515625000000000000
-0.07826825976371765136718750000000000000
-0.03251647949218750000000000000000000000
-0.00529456883668899536132812500000000000
-0.07282526791095733642578125000000000000
-0.08791510015726089477539062500000000000
0.02827806770801544189453125000000000000
0.08108307421207427978515625000000000000
0.07265055179595947265625000000000000000
-0.20121330022811889648437500000000000000
-0.07820174098014831542968750000000000000
-0.13022820651531219482421875000000000000
0.00744786625728011131286621093750000000
-0.08096804469823837280273437500000000000
0.13031300902366638183593750000000000000
-0.08997710049152374267578125000000000000
-0.13310688734054565429687500000000000000
0.21244539320468902587890625000000000000
0.10543227940797805786132812500000000000
0.37036484479904174804687500000000000000
0.05063878744840621948242187500000000000
-0.12435247749090194702148437500000000000
0.07202589511871337890625000000000000000
0.25322324037551879882812500000000000000
0.22353677451610565185546875000000000000
0.09693143516778945922851562500000000000
-0.17305156588554382324218750000000000000
-0.10397837311029434204101562500000000000
0.09576109796762466430664062500000000000
-0.00232792110182344913482666015625000000
0.05126544088125228881835937500000000000
-0.03718765452504158020019531250000000000
-0.20468655228614807128906250000000000000
-0.01479548122733831405639648437500000000
-0.06439048051834106445312500000000000000
-0.01939545385539531707763671875000000000
0.06872103363275527954101562500000000000
0.12425210326910018920898437500000000000
-0.14271163940429687500000000000000000000
0.07015179097652435302734375000000000000
0.00996012426912784576416015625000000000
0.13797618448734283447265625000000000000
0.10923203080892562866210937500000000000
-0.04920433834195137023925781250000000000
0.04325177147984504699707031250000000000
0.04902655258774757385253906250000000000
0.23562762141227722167968750000000000000
0.17962509393692016601562500000000000000
-0.13620308041572570800781250000000000000
-0.16721439361572265625000000000000000000
-0.11799412220716476440429687500000000000
0.03808267414569854736328125000000000000
0.02522204443812370300292968750000000000
-0.15218198299407958984375000000000000000
-0.18016338348388671875000000000000000000
-0.14337220788002014160156250000000000000
0.12187673896551132202148437500000000000
-0.06081247702240943908691406250000000000
-0.03011706657707691192626953125000000000
0.01128184329718351364135742187500000000
0.00374217401258647441864013671875000000
0.05511801317334175109863281250000000000
0.14117795228958129882812500000000000000
-0.07553166896104812622070312500000000000
0.06881099939346313476562500000000000000
0.03930284455418586730957031250000000000
0.00879620574414730072021484375000000000
0.33285510540008544921875000000000000000
0.15559576451778411865234375000000000000
-0.04967894777655601501464843750000000000
-0.07102768868207931518554687500000000000
0.20379813015460968017578125000000000000
0.24038058519363403320312500000000000000
0.10983718186616897583007812500000000000
-0.19759514927864074707031250000000000000
-0.13355384767055511474609375000000000000
0.25979554653167724609375000000000000000
0.15740798413753509521484375000000000000
-0.06907654553651809692382812500000000000
-0.21213015913963317871093750000000000000
-0.24809688329696655273437500000000000000
0.06768422573804855346679687500000000000
0.13965098559856414794921875000000000000
-0.03748534619808197021484375000000000000
-0.10719510912895202636718750000000000000
-0.15495136380195617675781250000000000000
-0.11209322512149810791015625000000000000
-0.20366321504116058349609375000000000000
-0.21074417233467102050781250000000000000
-0.08707796782255172729492187500000000000
-0.10682526230812072753906250000000000000
-0.08047559112310409545898437500000000000
-0.23462001979351043701171875000000000000
-0.33109655976295471191406250000000000000
0.03698426857590675354003906250000000000
0.05345721915364265441894531250000000000
0.08489163964986801147460937500000000000
-0.20644277334213256835937500000000000000
-0.21569293737411499023437500000000000000
0.17971594631671905517578125000000000000
0.19703826308250427246093750000000000000
0.12253804504871368408203125000000000000
-0.07089909166097640991210937500000000000
-0.22754055261611938476562500000000000000
0.15748843550682067871093750000000000000
0.32059836387634277343750000000000000000
0.27859431505203247070312500000000000000
0.00660360092297196388244628906250000000
-0.10907290875911712646484375000000000000
-0.16149735450744628906250000000000000000
-0.08162316679954528808593750000000000000
-0.02356709912419319152832031250000000000
0.16781090199947357177734375000000000000
0.06632331013679504394531250000000000000
-0.13055002689361572265625000000000000000
-0.05337827280163764953613281250000000000
0.04768480360507965087890625000000000000
0.07231640070676803588867187500000000000
-0.11622345447540283203125000000000000000
-0.18745116889476776123046875000000000000
0.03887502104043960571289062500000000000
0.15667782723903656005859375000000000000
0.07244269549846649169921875000000000000
-0.19360330700874328613281250000000000000
-0.18505373597145080566406250000000000000
-0.15512344241142272949218750000000000000
0.27991116046905517578125000000000000000
0.03638448193669319152832031250000000000
-0.20563594996929168701171875000000000000
-0.25647190213203430175781250000000000000
-0.10648225992918014526367187500000000000
0.17370048165321350097656250000000000000
0.13837414979934692382812500000000000000
-0.10725165903568267822265625000000000000
0.19894731044769287109375000000000000000
0.20121118426322937011718750000000000000
0.14753933250904083251953125000000000000
0.01477488409727811813354492187500000000
-0.09869616478681564331054687500000000000
0.05362066999077796936035156250000000000
0.11980514228343963623046875000000000000
0.15407855808734893798828125000000000000
0.13223001360893249511718750000000000000
0.16374696791172027587890625000000000000
-0.05869170278310775756835937500000000000
0.03119979240000247955322265625000000000
-0.05200998112559318542480468750000000000
0.10263945162296295166015625000000000000
0.37801158428192138671875000000000000000
-0.04679482430219650268554687500000000000
-0.08807620406150817871093750000000000000
0.03532826900482177734375000000000000000
0.26829880475997924804687500000000000000
0.30486774444580078125000000000000000000
-0.23133966326713562011718750000000000000
-0.06244033202528953552246093750000000000
-0.08424185216426849365234375000000000000
0.25395324826240539550781250000000000000
0.18570491671562194824218750000000000000
-0.15597347915172576904296875000000000000
-0.08403617888689041137695312500000000000
-0.14460539817810058593750000000000000000
-0.11931484937667846679687500000000000000
0.09216312319040298461914062500000000000
-0.14094448089599609375000000000000000000
-0.08816219121217727661132812500000000000
-0.23049943149089813232421875000000000000
-0.26987537741661071777343750000000000000
0.00522460555657744407653808593750000000
-0.05739617347717285156250000000000000000
0.01651028729975223541259765625000000000
-0.28534364700317382812500000000000000000
-0.22706320881843566894531250000000000000
-0.08925727754831314086914062500000000000
0.02699129097163677215576171875000000000
0.01518596336245536804199218750000000000
-0.60650682449340820312500000000000000000
-0.17715531587600708007812500000000000000
0.10491785407066345214843750000000000000
0.22863867878913879394531250000000000000
0.08767502754926681518554687500000000000
-0.43262457847595214843750000000000000000
-0.31393590569496154785156250000000000000
0.11115243285894393920898437500000000000
0.17642463743686676025390625000000000000
0.01271331496536731719970703125000000000
0.10632470250129699707031250000000000000
-0.01368130743503570556640625000000000000
0.00646363152191042900085449218750000000
0.08483800292015075683593750000000000000
0.05432325974106788635253906250000000000
-0.02306069061160087585449218750000000000
