-0.0454110279679298400878906250
0.004666066728532314300537109375
-0.0377120897173881530761718750
0.0383210480213165283203125000
-0.0378563813865184783935546875
0.0558330267667770385742187500
0.0413951277732849121093750000
0.0312135443091392517089843750
-0.1036100462079048156738281250
0.0658753663301467895507812500
-0.0877429768443107604980468750
-0.0360687822103500366210937500
0.0752794295549392700195312500
-0.0430136546492576599121093750
0.011399441398680210113525390625
-0.0348102226853370666503906250
0.0674929469823837280273437500
-0.0379722192883491516113281250
0.0632999464869499206542968750
-0.0236336141824722290039062500
0.0387233719229698181152343750
0.01783270575106143951416015625
-0.004266730509698390960693359375
-0.02270570211112499237060546875
0.020815961062908172607421875
-0.080333523452281951904296875
-0.014674074016511440277099609375
-0.0024067633785307407379150390625
0.00979031808674335479736328125
0.0633636042475700378417968750
-0.0739536434412002563476562500
-0.0493080951273441314697265625
-0.0406660921871662139892578125
0.0355469696223735809326171875
0.095429517328739166259765625
-0.0814168155193328857421875
-0.02569389902055263519287109375
-0.0510640777647495269775390625
0.03904493153095245361328125
0.0441265143454074859619140625
0.0579094924032688140869140625
0.0368104279041290283203125
-0.033614374697208404541015625
0.0486898683011531829833984375
0.00566695630550384521484375
-0.0372155569493770599365234375
-0.04293356835842132568359375
-0.0282938927412033081054687500
-0.0423391461372375488281250000
0.0118053629994392395019531250
-0.0406683348119258880615234375
-0.0493384934961795806884765625
0.0579979158937931060791015625
-0.0414877869188785552978515625
-0.0105731822550296783447265625
-0.04716674983501434326171875
0.011935911141335964202880859375
-0.0511464513838291168212890625
-0.0806276723742485046386718750
0.0570926293730735778808593750
-0.0840682834386825561523437500
-0.0359167531132698059082031250
-0.0525425225496292114257812500
0.049974195659160614013671875
0.08405573666095733642578125
0.0398202277719974517822265625 
0.0380198322236537933349609375 
-0.0381889455020427703857421875 
0.0288412682712078094482421875 
0.0527107901871204376220703125 
0.06187780201435089111328125 
0.06526744365692138671875 
-0.0275537781417369842529296875 
-0.076410233974456787109375 
0.0426085330545902252197265625 
0.008081738837063312530517578125 
0.0447985790669918060302734375 
-0.0479903630912303924560546875 
0.060513980686664581298828125 
0.0614140667021274566650390625 
-0.0450379066169261932373046875 
0.0009197878534905612468719482421875 
0.048610031604766845703125 
-0.05282147228717803955078125 