-1.20002031326293945312500000000000000000
-0.93684697151184082031250000000000000000
-0.86892342567443847656250000000000000000
-0.34980496764183044433593750000000000000
1.12078070640563964843750000000000000000
0.47124746441841125488281250000000000000
1.28174829483032226562500000000000000000
-0.86750489473342895507812500000000000000
1.05087459087371826171875000000000000000
-0.17840407788753509521484375000000000000
-0.74126100540161132812500000000000000000
-0.70235145092010498046875000000000000000
1.20046389102935791015625000000000000000
-0.45699128508567810058593750000000000000
0.38354286551475524902343750000000000000
0.44377416372299194335937500000000000000
0.69329047203063964843750000000000000000
0.31292641162872314453125000000000000000
-0.03565251827239990234375000000000000000
-0.30466115474700927734375000000000000000
0.19707334041595458984375000000000000000
0.85093355178833007812500000000000000000
0.62936270236968994140625000000000000000
-0.51671361923217773437500000000000000000
-0.87584203481674194335937500000000000000
-0.95480465888977050781250000000000000000
0.08107852935791015625000000000000000000
-0.78397083282470703125000000000000000000
-0.29361581802368164062500000000000000000
-0.49111574888229370117187500000000000000
0.22852480411529541015625000000000000000
0.15793526172637939453125000000000000000
1.00518608093261718750000000000000000000
-0.54885596036911010742187500000000000000
-0.23481315374374389648437500000000000000
-0.69284433126449584960937500000000000000
-0.23448443412780761718750000000000000000
0.98386836051940917968750000000000000000
0.63675379753112792968750000000000000000
0.99104166030883789062500000000000000000
0.31785094738006591796875000000000000000
-0.86074995994567871093750000000000000000
-0.23248851299285888671875000000000000000
0.28455901145935058593750000000000000000
0.41397988796234130859375000000000000000
-0.50917434692382812500000000000000000000
-0.21032190322875976562500000000000000000
-0.92976349592208862304687500000000000000
-0.79723620414733886718750000000000000000
-0.40729415416717529296875000000000000000
-0.10813516378402709960937500000000000000
0.34981393814086914062500000000000000000
-0.36276894807815551757812500000000000000
-0.90490841865539550781250000000000000000
-0.61789917945861816406250000000000000000
0.14766788482666015625000000000000000000
0.93282580375671386718750000000000000000
0.03350675106048583984375000000000000000
0.41547906398773193359375000000000000000
-0.47379422187805175781250000000000000000
0.21650564670562744140625000000000000000
-0.17874991893768310546875000000000000000
0.54039955139160156250000000000000000000
0.00563728809356689453125000000000000000
-0.02941011823713779449462890625000000000
-0.01195622701197862625122070312500000000
-0.03223863244056701660156250000000000000
0.01789737492799758911132812500000000000
-0.04565793648362159729003906250000000000
0.07259134203195571899414062500000000000
0.02335441112518310546875000000000000000
0.00987743865698575973510742187500000000
0.06455539911985397338867187500000000000
0.10658518970012664794921875000000000000
-0.10385747253894805908203125000000000000
-0.09931096434593200683593750000000000000
0.03629476949572563171386718750000000000
-0.05105435103178024291992187500000000000
-0.03129196539521217346191406250000000000
-0.00000000000000000000000000000000000000