-0.05409561470150947570800781250000000000
-0.04537925496697425842285156250000000000
-0.11823778599500656127929687500000000000
-0.19727872312068939208984375000000000000
-0.14647677540779113769531250000000000000
-0.01893181540071964263916015625000000000
-0.01322681643068790435791015625000000000
0.06901014596223831176757812500000000000
-0.00122377311345189809799194335937500000
-0.08058715611696243286132812500000000000
-0.01589784026145935058593750000000000000
-0.00546205416321754455566406250000000000
-0.22496338188648223876953125000000000000
-0.27163457870483398437500000000000000000
0.03716151416301727294921875000000000000
0.06111236289143562316894531250000000000
0.25259679555892944335937500000000000000
0.11317983269691467285156250000000000000
-0.10968374460935592651367187500000000000
-0.03385462239384651184082031250000000000
-0.20761974155902862548828125000000000000
-0.07615341246128082275390625000000000000
-0.04155597090721130371093750000000000000
0.07002103328704833984375000000000000000
-0.00181566237006336450576782226562500000
-0.07797586917877197265625000000000000000
-0.11127490550279617309570312500000000000
-0.03863589093089103698730468750000000000
-0.06769271939992904663085937500000000000
-0.10941155254840850830078125000000000000
-0.03234077617526054382324218750000000000
-0.06823257356882095336914062500000000000
-0.13924336433410644531250000000000000000
-0.02882606908679008483886718750000000000
0.00481118168681859970092773437500000000
-0.02927794307470321655273437500000000000
0.07066691666841506958007812500000000000
-0.02609631605446338653564453125000000000
-0.11664661765098571777343750000000000000
-0.12955461442470550537109375000000000000
-0.12289462238550186157226562500000000000
-0.10016141831874847412109375000000000000
0.00704730441793799400329589843750000000
-0.02507594227790832519531250000000000000
-0.05223552882671356201171875000000000000
-0.10286132246255874633789062500000000000
0.00320075359195470809936523437500000000
-0.00433124508708715438842773437500000000
-0.09100658446550369262695312500000000000
-0.04827467352151870727539062500000000000
-0.00748786935582756996154785156250000000
-0.06166023015975952148437500000000000000
-0.02919403091073036193847656250000000000
-0.09716790169477462768554687500000000000
-0.06403822451829910278320312500000000000
-0.03677023574709892272949218750000000000
-0.00328548508696258068084716796875000000
0.01026844233274459838867187500000000000
-0.16261841356754302978515625000000000000
-0.10967975854873657226562500000000000000
-0.07534436136484146118164062500000000000
-0.08526290208101272583007812500000000000
-0.06529802829027175903320312500000000000
0.06333433836698532104492187500000000000
0.10714003443717956542968750000000000000
-0.05998083576560020446777343750000000000
0.02189138904213905334472656250000000000
-0.09102129191160202026367187500000000000
-0.15420916676521301269531250000000000000
-0.05383407324552536010742187500000000000
-0.29722043871879577636718750000000000000
-0.19444842636585235595703125000000000000
0.01839232072234153747558593750000000000
-0.10806037485599517822265625000000000000
-0.03972640633583068847656250000000000000
0.04911205172538757324218750000000000000
-0.01777140609920024871826171875000000000
0.06688663363456726074218750000000000000
-0.02448639087378978729248046875000000000
0.05131131410598754882812500000000000000
-0.01472549792379140853881835937500000000
-0.04745659604668617248535156250000000000
0.11259277909994125366210937500000000000
0.01990277506411075592041015625000000000
0.08997114002704620361328125000000000000
0.02487199753522872924804687500000000000
-0.02674452215433120727539062500000000000
0.21456673741340637207031250000000000000
-0.02159672416746616363525390625000000000
-0.02156292460858821868896484375000000000
-0.05196974426507949829101562500000000000
-0.16089922189712524414062500000000000000
0.01532717421650886535644531250000000000
0.03637305647134780883789062500000000000
0.05960624665021896362304687500000000000
0.08384342491626739501953125000000000000
0.18820483982563018798828125000000000000
0.08553985506296157836914062500000000000
0.11631652712821960449218750000000000000
0.01598175242543220520019531250000000000
0.12254105508327484130859375000000000000
0.10376235097646713256835937500000000000
0.13119590282440185546875000000000000000
0.19038058817386627197265625000000000000
0.07674691826105117797851562500000000000
0.04314139857888221740722656250000000000
-0.03846392408013343811035156250000000000
0.01908347941935062408447265625000000000
-0.06756792217493057250976562500000000000
0.07999406754970550537109375000000000000
-0.05302486196160316467285156250000000000
0.04710513353347778320312500000000000000
0.32278397679328918457031250000000000000
-0.00459692906588315963745117187500000000
-0.10630983859300613403320312500000000000
-0.14804148674011230468750000000000000000
-0.33209773898124694824218750000000000000
-0.13592755794525146484375000000000000000
0.10372246801853179931640625000000000000
0.10169871151447296142578125000000000000
0.12107650935649871826171875000000000000
-0.04633796215057373046875000000000000000
-0.11353986710309982299804687500000000000
-0.05775497108697891235351562500000000000
-0.08495578914880752563476562500000000000
0.03721660003066062927246093750000000000
0.05193795263767242431640625000000000000
-0.05454694107174873352050781250000000000
0.03925468400120735168457031250000000000
0.04223373904824256896972656250000000000
0.01540674641728401184082031250000000000
0.05878655984997749328613281250000000000
-0.02194469794631004333496093750000000000
-0.01638914085924625396728515625000000000
0.00660956138744950294494628906250000000
-0.05501437187194824218750000000000000000
0.00161022949032485485076904296875000000
0.08608654141426086425781250000000000000
0.06555220484733581542968750000000000000
0.03031945973634719848632812500000000000
0.01248481590300798416137695312500000000
-0.03270839154720306396484375000000000000
-0.11423235386610031127929687500000000000
0.03140922263264656066894531250000000000
0.02588225901126861572265625000000000000
0.00280460598878562450408935546875000000
0.11479781568050384521484375000000000000
0.11446237564086914062500000000000000000
0.01081319618970155715942382812500000000
-0.00411362852901220321655273437500000000
-0.05054209381341934204101562500000000000
-0.03807098791003227233886718750000000000
0.05979690700769424438476562500000000000
0.03399151936173439025878906250000000000
-0.00449020927771925926208496093750000000
0.05414878949522972106933593750000000000
0.06146901100873947143554687500000000000
0.05756020918488502502441406250000000000
0.05909675359725952148437500000000000000
0.01617212593555450439453125000000000000
0.04843514040112495422363281250000000000
0.10893639177083969116210937500000000000
-0.04542931914329528808593750000000000000
-0.04919552430510520935058593750000000000
0.00332984258420765399932861328125000000
0.07028732448816299438476562500000000000
0.27103069424629211425781250000000000000
0.28431633114814758300781250000000000000
0.07635090500116348266601562500000000000
-0.04567070305347442626953125000000000000
-0.16162575781345367431640625000000000000
-0.05097959190607070922851562500000000000
0.02038833685219287872314453125000000000
0.09449040889739990234375000000000000000
0.10460703074932098388671875000000000000
0.06348849087953567504882812500000000000
0.06615996360778808593750000000000000000
0.04712690040469169616699218750000000000
0.03072294965386390686035156250000000000
0.11943142116069793701171875000000000000
0.01933244988322257995605468750000000000
0.07027645409107208251953125000000000000
0.11024698615074157714843750000000000000
0.07165010273456573486328125000000000000
-0.05625166743993759155273437500000000000
0.04643896594643592834472656250000000000
-0.00850000604987144470214843750000000000
-0.01025541778653860092163085937500000000
0.16836251318454742431640625000000000000
0.09397680312395095825195312500000000000
0.11008164286613464355468750000000000000
0.09620459377765655517578125000000000000
0.04277606308460235595703125000000000000
0.05349295958876609802246093750000000000
0.10453931242227554321289062500000000000
0.08331531286239624023437500000000000000
0.04037073254585266113281250000000000000
0.08224555104970932006835937500000000000
0.01743485592305660247802734375000000000
0.02829458750784397125244140625000000000
0.02657902054488658905029296875000000000
-0.00181790732312947511672973632812500000
0.04363648593425750732421875000000000000
0.06090279668569564819335937500000000000
0.02397329360246658325195312500000000000
0.03089549578726291656494140625000000000
-0.02561633475124835968017578125000000000
0.12814326584339141845703125000000000000
-0.01841415651142597198486328125000000000
0.01730342581868171691894531250000000000
-0.00129173044115304946899414062500000000
-0.01422022376209497451782226562500000000
0.14010719954967498779296875000000000000
-0.01650733686983585357666015625000000000
0.02648106962442398071289062500000000000
-0.05891807749867439270019531250000000000
-0.15698291361331939697265625000000000000
0.03291926532983779907226562500000000000
0.01469248533248901367187500000000000000
0.06074051558971405029296875000000000000
0.06581091135740280151367187500000000000
0.05028611421585083007812500000000000000
-0.02423009462654590606689453125000000000
-0.03722299262881278991699218750000000000
0.06528016179800033569335937500000000000
0.01773673482239246368408203125000000000
0.07335199415683746337890625000000000000
0.06948769837617874145507812500000000000
0.05686997622251510620117187500000000000
-0.07526811957359313964843750000000000000
0.06562189012765884399414062500000000000
0.05452750623226165771484375000000000000
0.03664413467049598693847656250000000000
0.07934190332889556884765625000000000000
-0.02211679518222808837890625000000000000
0.11175595968961715698242187500000000000
-0.00331224105320870876312255859375000000
-0.00115914084017276763916015625000000000
-0.06272151321172714233398437500000000000
-0.08517395704984664916992187500000000000
0.08761014044284820556640625000000000000
0.13509605824947357177734375000000000000
0.09506537020206451416015625000000000000
0.09308474510908126831054687500000000000
0.11634414643049240112304687500000000000
0.03047169186174869537353515625000000000
0.05894811078906059265136718750000000000
-0.03266067802906036376953125000000000000
0.04280273616313934326171875000000000000
0.03436001017689704895019531250000000000
-0.02236369810998439788818359375000000000
0.00694555649533867835998535156250000000
0.00247597764246165752410888671875000000
-0.05707022175192832946777343750000000000
0.12832850217819213867187500000000000000
-0.09621615707874298095703125000000000000
-0.16486547887325286865234375000000000000
0.02944352850317955017089843750000000000
-0.12527185678482055664062500000000000000
0.01870793476700782775878906250000000000
-0.25583228468894958496093750000000000000
-0.25148180127143859863281250000000000000
0.01390675734728574752807617187500000000
0.10483105480670928955078125000000000000
0.00650204392150044441223144531250000000
0.00650927377864718437194824218750000000
-0.22977691888809204101562500000000000000
-0.07565670460462570190429687500000000000
-0.00693895388394594192504882812500000000
0.02604828588664531707763671875000000000
0.09205783903598785400390625000000000000
0.04392665252089500427246093750000000000
0.02395080216228961944580078125000000000
-0.02387278713285923004150390625000000000
0.07182537019252777099609375000000000000
0.09754192084074020385742187500000000000
0.11489268392324447631835937500000000000
0.16075961291790008544921875000000000000
0.24487374722957611083984375000000000000
0.14839820563793182373046875000000000000
0.02165621519088745117187500000000000000
-0.02648794651031494140625000000000000000
-0.05111593380570411682128906250000000000
-0.02068285830318927764892578125000000000
0.19689832627773284912109375000000000000
-0.01049879565834999084472656250000000000
0.16953694820404052734375000000000000000
0.14405095577239990234375000000000000000
-0.06987702101469039916992187500000000000
-0.15283226966857910156250000000000000000
-0.28351292014122009277343750000000000000
-0.38858667016029357910156250000000000000
-0.05362449586391448974609375000000000000
0.06262585520744323730468750000000000000
-0.06014209613204002380371093750000000000
0.06249370798468589782714843750000000000
-0.12558142840862274169921875000000000000
-0.03913194313645362854003906250000000000
-0.11522173881530761718750000000000000000
-0.06004357710480690002441406250000000000
-0.11373019218444824218750000000000000000
-0.02330882847309112548828125000000000000
-0.04609633982181549072265625000000000000
0.00269399140961468219757080078125000000
-0.00334266875870525836944580078125000000
-0.02407065592706203460693359375000000000
0.16529726982116699218750000000000000000
-0.00323987542651593685150146484375000000
0.12486075609922409057617187500000000000
0.22013105452060699462890625000000000000
0.12370047718286514282226562500000000000
0.19356025755405426025390625000000000000
-0.11967482417821884155273437500000000000
-0.07441417872905731201171875000000000000
-0.04973059892654418945312500000000000000
-0.05460385233163833618164062500000000000
0.20820476114749908447265625000000000000
0.42158475518226623535156250000000000000
0.06268557161092758178710937500000000000
-0.18322987854480743408203125000000000000
-0.05000752955675125122070312500000000000
-0.07216539978981018066406250000000000000
0.00207274360582232475280761718750000000
0.01338730286806821823120117187500000000
0.06032411381602287292480468750000000000
-0.10243418067693710327148437500000000000
-0.04880313575267791748046875000000000000
-0.10124268382787704467773437500000000000
-0.12074768543243408203125000000000000000
0.09056132286787033081054687500000000000
-0.05485273152589797973632812500000000000
0.00309936399571597576141357421875000000
-0.03762776777148246765136718750000000000
-0.03584169968962669372558593750000000000
-0.06840652972459793090820312500000000000
-0.20620448887348175048828125000000000000
-0.23988571763038635253906250000000000000
-0.17200955748558044433593750000000000000
0.00879146903753280639648437500000000000
0.09229529649019241333007812500000000000
0.10704639554023742675781250000000000000
0.12174145132303237915039062500000000000
0.10027683526277542114257812500000000000
0.03139121085405349731445312500000000000
-0.02907968498766422271728515625000000000
-0.14580635726451873779296875000000000000
-0.35749265551567077636718750000000000000
-0.19611845910549163818359375000000000000
-0.04412516951560974121093750000000000000
-0.04494938999414443969726562500000000000
0.07997123897075653076171875000000000000
0.03488663956522941589355468750000000000
-0.01984117552638053894042968750000000000
0.00830745790153741836547851562500000000
0.09147198498249053955078125000000000000
0.04040594771504402160644531250000000000
-0.01477851998060941696166992187500000000
-0.00015502321184612810611724853515625000
-0.01911497861146926879882812500000000000
-0.06697078794240951538085937500000000000
0.18172813951969146728515625000000000000
-0.05802106857299804687500000000000000000
-0.00937084853649139404296875000000000000
0.06278315931558609008789062500000000000
0.06254968047142028808593750000000000000
-0.07375432550907135009765625000000000000
-0.22495611011981964111328125000000000000
-0.34167459607124328613281250000000000000
-0.03819029033184051513671875000000000000
0.10947404801845550537109375000000000000
0.31825488805770874023437500000000000000
0.28426969051361083984375000000000000000
0.10141114890575408935546875000000000000
-0.05825595557689666748046875000000000000
-0.08446840196847915649414062500000000000
-0.08437252789735794067382812500000000000
-0.02450727671384811401367187500000000000
-0.09999786317348480224609375000000000000
-0.13481701910495758056640625000000000000
-0.06616654247045516967773437500000000000
-0.02746799960732460021972656250000000000
-0.20821163058280944824218750000000000000
-0.05003217980265617370605468750000000000
0.06403512507677078247070312500000000000
-0.04303059726953506469726562500000000000
0.08027798682451248168945312500000000000
-0.08131934702396392822265625000000000000
-0.26434305310249328613281250000000000000
-0.21133127808570861816406250000000000000
-0.07640202343463897705078125000000000000
0.05958387255668640136718750000000000000
-0.14407262206077575683593750000000000000
-0.02599230408668518066406250000000000000
-0.08582380414009094238281250000000000000
-0.07199762761592864990234375000000000000
-0.04611808061599731445312500000000000000
-0.05988043174147605895996093750000000000
0.06192539259791374206542968750000000000
0.02973035350441932678222656250000000000
-0.02102913148701190948486328125000000000
-0.05668428167700767517089843750000000000
-0.09692943096160888671875000000000000000
-0.02285425178706645965576171875000000000
-0.02001282200217247009277343750000000000
0.02300254814326763153076171875000000000
-0.05569152534008026123046875000000000000
-0.02361339516937732696533203125000000000
0.13077634572982788085937500000000000000
0.02884718589484691619873046875000000000
-0.00280258292332291603088378906250000000
-0.09487026929855346679687500000000000000
-0.12181552499532699584960937500000000000
-0.23357316851615905761718750000000000000
-0.17073984444141387939453125000000000000
-0.15733303129673004150390625000000000000
-0.00765620730817317962646484375000000000
0.07634944468736648559570312500000000000
-0.00235844869166612625122070312500000000
-0.00573614286258816719055175781250000000
-0.02114647626876831054687500000000000000
-0.05201633274555206298828125000000000000
-0.06031316891312599182128906250000000000
-0.06171315535902976989746093750000000000
-0.00511892279610037803649902343750000000
-0.05196961015462875366210937500000000000
-0.06450908631086349487304687500000000000
-0.03573723882436752319335937500000000000
-0.02700204029679298400878906250000000000
-0.01336878538131713867187500000000000000
-0.04668976366519927978515625000000000000
-0.06186727434396743774414062500000000000
-0.05549537017941474914550781250000000000
-0.11989989131689071655273437500000000000
-0.06658987700939178466796875000000000000
-0.04839450120925903320312500000000000000
-0.03515749797224998474121093750000000000
0.04649386927485466003417968750000000000
0.06530169397592544555664062500000000000
0.01871702261269092559814453125000000000
-0.12101539224386215209960937500000000000
-0.07451113313436508178710937500000000000
-0.07985835522413253784179687500000000000
-0.02403448894619941711425781250000000000
-0.04067822173237800598144531250000000000
0.01537319645285606384277343750000000000
-0.08335948735475540161132812500000000000
-0.05247829109430313110351562500000000000
-0.02380285970866680145263671875000000000
-0.16390164196491241455078125000000000000
-0.01039105746895074844360351562500000000
-0.01648459956049919128417968750000000000
-0.02570776455104351043701171875000000000
-0.02745370566844940185546875000000000000
-0.03695329651236534118652343750000000000
0.00256773224100470542907714843750000000
0.07157517969608306884765625000000000000
-0.01107812207192182540893554687500000000
0.17006094753742218017578125000000000000
-0.03028107061982154846191406250000000000
0.05283884331583976745605468750000000000
-0.04173778370022773742675781250000000000
-0.08837462961673736572265625000000000000
-0.07856311649084091186523437500000000000
-0.11644290387630462646484375000000000000
0.09514978528022766113281250000000000000
0.04479623213410377502441406250000000000
0.06603962928056716918945312500000000000
-0.03622068464756011962890625000000000000
0.00329186022281646728515625000000000000
0.04190452396869659423828125000000000000
0.06471151113510131835937500000000000000
-0.05180533602833747863769531250000000000
0.06528834998607635498046875000000000000
0.03556131199002265930175781250000000000
0.05589604377746582031250000000000000000
0.03408014774322509765625000000000000000
-0.00681635597720742225646972656250000000
0.04415829852223396301269531250000000000
0.03028900176286697387695312500000000000
0.00435863947495818138122558593750000000
-0.00225149211473762989044189453125000000
-0.06295140087604522705078125000000000000
0.00756631465628743171691894531250000000
-0.14790603518486022949218750000000000000
0.00002502914139768108725547790527343750
-0.01267404761165380477905273437500000000
0.07595071941614151000976562500000000000
0.07663699984550476074218750000000000000
0.01639389991760253906250000000000000000
0.02242610231041908264160156250000000000
-0.04740060120820999145507812500000000000
-0.07706908136606216430664062500000000000
-0.00773586751893162727355957031250000000
0.00882679596543312072753906250000000000
0.07737580686807632446289062500000000000
-0.01754757016897201538085937500000000000
0.06062454730272293090820312500000000000
0.03807704895734786987304687500000000000
-0.03898927941918373107910156250000000000
0.05848607420921325683593750000000000000
0.05439545959234237670898437500000000000
-0.05155757069587707519531250000000000000
-0.01730158925056457519531250000000000000
-0.04484276100993156433105468750000000000
0.01126438658684492111206054687500000000
-0.00790894590318202972412109375000000000
-0.06799560040235519409179687500000000000
-0.05461326986551284790039062500000000000
-0.08192818611860275268554687500000000000
-0.14016190171241760253906250000000000000
0.00460827304050326347351074218750000000
0.07261073589324951171875000000000000000
0.08247570693492889404296875000000000000
0.01949675753712654113769531250000000000
0.00668222596868872642517089843750000000
-0.05256577953696250915527343750000000000
-0.06556659191846847534179687500000000000
0.01275955978780984878540039062500000000
-0.15069809556007385253906250000000000000
-0.00435554143041372299194335937500000000
-0.14815543591976165771484375000000000000
-0.12278579175472259521484375000000000000
-0.05637164786458015441894531250000000000
-0.07311098277568817138671875000000000000
-0.13262487947940826416015625000000000000
0.09038422256708145141601562500000000000
0.07260514050722122192382812500000000000
0.11039150506258010864257812500000000000
0.04464250430464744567871093750000000000
0.13541097939014434814453125000000000000
0.06113576143980026245117187500000000000
0.09423610568046569824218750000000000000
-0.06986321508884429931640625000000000000
-0.05770635232329368591308593750000000000
0.11631102114915847778320312500000000000
0.13118810951709747314453125000000000000
0.14228717982769012451171875000000000000
0.13143680989742279052734375000000000000
0.11998065561056137084960937500000000000
0.13630983233451843261718750000000000000
0.15672899782657623291015625000000000000
-0.05308518186211585998535156250000000000
0.01104202121496200561523437500000000000
0.10576327145099639892578125000000000000
0.06845084577798843383789062500000000000
0.04038378968834877014160156250000000000
0.01383889932185411453247070312500000000
0.12570796906948089599609375000000000000
0.08506557345390319824218750000000000000
0.10115880519151687622070312500000000000
0.07106975466012954711914062500000000000
-0.07637922465801239013671875000000000000
0.02454058080911636352539062500000000000
0.02896281890571117401123046875000000000
-0.00122513843234628438949584960937500000
0.04359475523233413696289062500000000000
-0.05189488455653190612792968750000000000
0.12526419758796691894531250000000000000
0.07498639822006225585937500000000000000
0.06589380651712417602539062500000000000
-0.01556752063333988189697265625000000000
-0.06567318737506866455078125000000000000
-0.14532718062400817871093750000000000000
-0.04751522466540336608886718750000000000
0.01499712374061346054077148437500000000
0.04760291799902915954589843750000000000
0.08602772653102874755859375000000000000
0.08236841112375259399414062500000000000
0.00840958580374717712402343750000000000
0.08688393235206604003906250000000000000
-0.06636789441108703613281250000000000000
0.03312638401985168457031250000000000000
0.09078656136989593505859375000000000000
0.01843313686549663543701171875000000000
0.03493555262684822082519531250000000000
0.13200323283672332763671875000000000000
0.02890334278345108032226562500000000000
-0.00301856105215847492218017578125000000
-0.08689182251691818237304687500000000000
0.07856903225183486938476562500000000000
-0.00740013644099235534667968750000000000
0.06019390001893043518066406250000000000
0.09809214621782302856445312500000000000
0.09001409262418746948242187500000000000
0.01188741158694028854370117187500000000
-0.00707298563793301582336425781250000000
-0.04380146786570549011230468750000000000
-0.00837016850709915161132812500000000000
0.03193224966526031494140625000000000000
-0.00735397962853312492370605468750000000
0.10193232446908950805664062500000000000
-0.05688900128006935119628906250000000000
-0.12413296848535537719726562500000000000
-0.05449437350034713745117187500000000000
-0.08320421725511550903320312500000000000
0.04136333987116813659667968750000000000
0.05748012289404869079589843750000000000
0.09517634660005569458007812500000000000
0.07831553369760513305664062500000000000
0.03150369971990585327148437500000000000
0.13459008932113647460937500000000000000
0.02477009408175945281982421875000000000
0.14087644219398498535156250000000000000
0.05488283559679985046386718750000000000
0.06220347434282302856445312500000000000
0.08662191033363342285156250000000000000
0.00385382678359746932983398437500000000
0.04257560521364212036132812500000000000
0.01550688408315181732177734375000000000
0.02435049414634704589843750000000000000
0.10053632408380508422851562500000000000
0.01671372912824153900146484375000000000
0.12118325382471084594726562500000000000
0.00779894366860389709472656250000000000
0.06326238811016082763671875000000000000
0.00709120929241180419921875000000000000
-0.01396930404007434844970703125000000000
0.05944369360804557800292968750000000000
-0.02047266066074371337890625000000000000
0.07903763651847839355468750000000000000
0.02578419633209705352783203125000000000
0.06934089213609695434570312500000000000
0.07706963270902633666992187500000000000
0.02608618512749671936035156250000000000
0.05346344783902168273925781250000000000
0.06776405125856399536132812500000000000
0.04360956326127052307128906250000000000
0.16567236185073852539062500000000000000
0.10923961549997329711914062500000000000
0.11007274687290191650390625000000000000
0.13141022622585296630859375000000000000
0.09107225388288497924804687500000000000
0.14831189811229705810546875000000000000
0.12066470086574554443359375000000000000
0.02865710668265819549560546875000000000
0.09456278383731842041015625000000000000
0.07714717835187911987304687500000000000
0.10944805294275283813476562500000000000
0.09474062174558639526367187500000000000
-0.00048107755719684064388275146484375000
0.11206243187189102172851562500000000000
0.10669293254613876342773437500000000000
0.16357356309890747070312500000000000000
0.15425746142864227294921875000000000000
0.09651058912277221679687500000000000000
0.15711401402950286865234375000000000000
0.04442426189780235290527343750000000000
0.05817668512463569641113281250000000000
0.15439294278621673583984375000000000000
0.08191771805286407470703125000000000000
-0.02760815806686878204345703125000000000
-0.09104147553443908691406250000000000000
-0.10069120675325393676757812500000000000
-0.14296472072601318359375000000000000000
-0.10505466163158416748046875000000000000
-0.02016233466565608978271484375000000000
0.06842090934514999389648437500000000000
0.04780948907136917114257812500000000000
-0.05649083107709884643554687500000000000
-0.01090081408619880676269531250000000000
-0.11353265494108200073242187500000000000
-0.18860985338687896728515625000000000000
-0.14795975387096405029296875000000000000
-0.12959542870521545410156250000000000000
-0.00632984237745404243469238281250000000
-0.08653654158115386962890625000000000000
-0.13170583546161651611328125000000000000
-0.04592955857515335083007812500000000000
-0.03478819504380226135253906250000000000
0.05148159340023994445800781250000000000
0.06003759428858757019042968750000000000
0.00571131287142634391784667968750000000
-0.02328305318951606750488281250000000000
0.12684991955757141113281250000000000000
-0.02090967632830142974853515625000000000
-0.01095011923462152481079101562500000000
-0.09346808493137359619140625000000000000
-0.03794933855533599853515625000000000000
0.01493675913661718368530273437500000000
0.01308547798544168472290039062500000000
0.05814957991242408752441406250000000000
-0.11278522759675979614257812500000000000
-0.02239835076034069061279296875000000000
-0.11417841911315917968750000000000000000
0.00123182486277073621749877929687500000
0.03212803602218627929687500000000000000
0.10066621005535125732421875000000000000
0.12548474967479705810546875000000000000
0.14653927087783813476562500000000000000
-0.00422292482107877731323242187500000000
-0.03796888515353202819824218750000000000
-0.10669673979282379150390625000000000000
-0.08986768871545791625976562500000000000
-0.02775505185127258300781250000000000000
-0.05163019895553588867187500000000000000
-0.11405524611473083496093750000000000000
-0.04971475154161453247070312500000000000
0.02122133970260620117187500000000000000
-0.00352561054751276969909667968750000000
-0.10721680521965026855468750000000000000
-0.11630366742610931396484375000000000000
-0.04494339227676391601562500000000000000
0.13194637000560760498046875000000000000
0.08862845599651336669921875000000000000
0.05666708573698997497558593750000000000
-0.13698245584964752197265625000000000000
-0.07398648560047149658203125000000000000
-0.00075262779137119650840759277343750000
0.04595425724983215332031250000000000000
-0.00286602065898478031158447265625000000
-0.02824772521853446960449218750000000000
0.03746239095926284790039062500000000000
0.00582397263497114181518554687500000000
0.09892795234918594360351562500000000000
-0.03788518905639648437500000000000000000
-0.02612641826272010803222656250000000000
0.16129393875598907470703125000000000000
0.09894798696041107177734375000000000000
0.17587162554264068603515625000000000000
-0.04200508818030357360839843750000000000
-0.08205567300319671630859375000000000000
0.05816341191530227661132812500000000000
0.08694374561309814453125000000000000000
0.02563780359923839569091796875000000000
-0.12052170187234878540039062500000000000
-0.02801255881786346435546875000000000000
-0.09855441004037857055664062500000000000
-0.17541328072547912597656250000000000000
-0.18327137827873229980468750000000000000
-0.13112214207649230957031250000000000000
-0.04586559906601905822753906250000000000
0.07933138310909271240234375000000000000
0.17771723866462707519531250000000000000
0.01990905404090881347656250000000000000
0.07364293932914733886718750000000000000
-0.16357649862766265869140625000000000000
-0.24581639468669891357421875000000000000
-0.21385602653026580810546875000000000000
-0.17055639624595642089843750000000000000
-0.00900175143033266067504882812500000000
0.05161425471305847167968750000000000000
0.02021452412009239196777343750000000000
-0.04816056787967681884765625000000000000
-0.01908296719193458557128906250000000000
0.00474732089787721633911132812500000000
0.04796532168984413146972656250000000000
-0.13299418985843658447265625000000000000
-0.10796803981065750122070312500000000000
0.04361412674188613891601562500000000000
0.02468977682292461395263671875000000000
0.01699390821158885955810546875000000000
0.02849444374442100524902343750000000000
0.11331193894147872924804687500000000000
0.01403099857270717620849609375000000000
0.02088376507163047790527343750000000000
-0.01081909891217947006225585937500000000
0.01762335561215877532958984375000000000
-0.07433696091175079345703125000000000000
-0.08056017756462097167968750000000000000
-0.07326168566942214965820312500000000000
0.15010558068752288818359375000000000000
0.14756195247173309326171875000000000000
0.11774840950965881347656250000000000000
0.10085874050855636596679687500000000000
0.07745020091533660888671875000000000000
0.10313198715448379516601562500000000000
-0.01889641396701335906982421875000000000
-0.15280671417713165283203125000000000000
0.04268928617238998413085937500000000000
-0.06902548670768737792968750000000000000
-0.02986545860767364501953125000000000000
-0.05560081824660301208496093750000000000
0.04524793103337287902832031250000000000
-0.12951144576072692871093750000000000000
0.03653635084629058837890625000000000000
-0.02570122294127941131591796875000000000
-0.01988133601844310760498046875000000000
-0.04992954805493354797363281250000000000
-0.05120009556412696838378906250000000000
-0.01371680106967687606811523437500000000
-0.02825921028852462768554687500000000000
0.02594362385571002960205078125000000000
-0.05034590139985084533691406250000000000
-0.00186735682655125856399536132812500000
-0.09809774160385131835937500000000000000
-0.05472411587834358215332031250000000000
-0.01563534326851367950439453125000000000
-0.07828500121831893920898437500000000000
-0.04819818958640098571777343750000000000
-0.12006267905235290527343750000000000000
-0.05015555024147033691406250000000000000
0.07164199650287628173828125000000000000
0.04240526631474494934082031250000000000
0.02155850268900394439697265625000000000
-0.07815154641866683959960937500000000000
0.00540193216875195503234863281250000000
-0.01902261190116405487060546875000000000
-0.02700822055339813232421875000000000000
-0.00304005388170480728149414062500000000
-0.05449843779206275939941406250000000000
0.06121533364057540893554687500000000000
0.08186558634042739868164062500000000000
0.22531390190124511718750000000000000000
-0.02317591570317745208740234375000000000
-0.10649123787879943847656250000000000000
0.04533741995692253112792968750000000000
0.16060711443424224853515625000000000000
0.12824597954750061035156250000000000000
0.00351406796835362911224365234375000000
0.04006468504667282104492187500000000000
-0.04906047508120536804199218750000000000
0.10580450296401977539062500000000000000
0.02880602702498435974121093750000000000
-0.04661877453327178955078125000000000000
-0.11023870110511779785156250000000000000
0.04797926545143127441406250000000000000
0.00547954067587852478027343750000000000
-0.04030290246009826660156250000000000000
0.01495339442044496536254882812500000000
0.17579425871372222900390625000000000000
0.03846900910139083862304687500000000000
-0.03476439788937568664550781250000000000
-0.07947980612516403198242187500000000000
-0.05029312148690223693847656250000000000
0.06888099014759063720703125000000000000
-0.01426923461258411407470703125000000000
0.02725164778530597686767578125000000000
0.04669262841343879699707031250000000000
-0.09123551845550537109375000000000000000
0.03226699680089950561523437500000000000
0.00588867627084255218505859375000000000
0.01347649469971656799316406250000000000
0.01528667844831943511962890625000000000
0.08591258525848388671875000000000000000
0.02399018406867980957031250000000000000
-0.02481788769364356994628906250000000000
-0.06460447609424591064453125000000000000
-0.03013933822512626647949218750000000000
-0.01980390399694442749023437500000000000
0.02921278588473796844482421875000000000
-0.04565154016017913818359375000000000000
-0.07035210728645324707031250000000000000
-0.02284271456301212310791015625000000000
-0.00763841765001416206359863281250000000
-0.01312538422644138336181640625000000000
0.00771929323673248291015625000000000000
-0.02480278536677360534667968750000000000
-0.06220003589987754821777343750000000000
-0.00838141143321990966796875000000000000
-0.01651642844080924987792968750000000000
0.19576510787010192871093750000000000000
0.04726191610097885131835937500000000000
0.11104470491409301757812500000000000000
0.08907561749219894409179687500000000000
0.15535783767700195312500000000000000000
0.06217961385846138000488281250000000000
-0.00871047098189592361450195312500000000
-0.05697361752390861511230468750000000000
-0.10700841248035430908203125000000000000
-0.19855281710624694824218750000000000000
0.12254296243190765380859375000000000000
0.00284237344749271869659423828125000000
0.01486693415790796279907226562500000000
0.28312182426452636718750000000000000000
0.08727647364139556884765625000000000000
-0.07083651423454284667968750000000000000
-0.02670239657163619995117187500000000000
0.00091525481548160314559936523437500000
0.04194886237382888793945312500000000000
-0.19943390786647796630859375000000000000
0.15734168887138366699218750000000000000
0.15251085162162780761718750000000000000
0.25983271002769470214843750000000000000
0.01958826556801795959472656250000000000
-0.09488609433174133300781250000000000000
0.04084499552845954895019531250000000000
-0.05245982855558395385742187500000000000
0.01779190264642238616943359375000000000
-0.08398184180259704589843750000000000000
0.02697966806590557098388671875000000000
0.05874501541256904602050781250000000000
-0.03213486447930335998535156250000000000
0.08319889008998870849609375000000000000
0.08737738430500030517578125000000000000
0.16032165288925170898437500000000000000
0.07328790426254272460937500000000000000
-0.02539355680346488952636718750000000000
-0.12219809740781784057617187500000000000
0.05175603926181793212890625000000000000
0.03534230589866638183593750000000000000
0.05532012879848480224609375000000000000
-0.04930508509278297424316406250000000000
0.02019222080707550048828125000000000000
-0.02396047115325927734375000000000000000
-0.01621042191982269287109375000000000000
0.01474882662296295166015625000000000000
-0.03864827379584312438964843750000000000
-0.06156668066978454589843750000000000000
-0.04629459604620933532714843750000000000
0.00066536199301481246948242187500000000
-0.02456942573189735412597656250000000000
-0.09321198612451553344726562500000000000
-0.03002605587244033813476562500000000000
0.07355498522520065307617187500000000000
0.15665629506111145019531250000000000000
0.00932945497334003448486328125000000000
0.04163210839033126831054687500000000000
0.03298532590270042419433593750000000000
0.05861838161945343017578125000000000000
0.02796541154384613037109375000000000000
0.13355717062950134277343750000000000000
0.11719893664121627807617187500000000000
-0.01452193129807710647583007812500000000
0.09387864917516708374023437500000000000
0.12330901622772216796875000000000000000
0.02752720192074775695800781250000000000
0.02368133328855037689208984375000000000
0.07574351131916046142578125000000000000
0.15400730073451995849609375000000000000
0.09871493279933929443359375000000000000
-0.05363525822758674621582031250000000000
0.00823256000876426696777343750000000000
0.11234960705041885375976562500000000000
0.16298174858093261718750000000000000000
-0.00719449156895279884338378906250000000
-0.07581991702318191528320312500000000000
-0.08369695395231246948242187500000000000
-0.15951609611511230468750000000000000000
-0.02489527687430381774902343750000000000
-0.02828975394368171691894531250000000000
0.00147858227137476205825805664062500000
-0.10005237907171249389648437500000000000
-0.08368247002363204956054687500000000000
0.08324624598026275634765625000000000000
-0.00589158385992050170898437500000000000
-0.00819622818380594253540039062500000000
0.00522767985239624977111816406250000000
-0.15639337897300720214843750000000000000
-0.05340428650379180908203125000000000000
-0.06862949579954147338867187500000000000
-0.00860335864126682281494140625000000000
-0.15392954647541046142578125000000000000
-0.05643076449632644653320312500000000000
-0.05902707576751708984375000000000000000
-0.06927295029163360595703125000000000000
-0.10811073333024978637695312500000000000
-0.06895076483488082885742187500000000000
-0.08579725772142410278320312500000000000
0.03550912812352180480957031250000000000
-0.06093903258442878723144531250000000000
0.07373100519180297851562500000000000000
0.00427160644903779029846191406250000000
0.04805690050125122070312500000000000000
-0.07789590954780578613281250000000000000
-0.14307746291160583496093750000000000000
0.09488304704427719116210937500000000000
0.01833740249276161193847656250000000000
0.01736920885741710662841796875000000000
0.03680066764354705810546875000000000000
0.05385565012693405151367187500000000000
-0.00501698628067970275878906250000000000
-0.05314688384532928466796875000000000000
0.08310550451278686523437500000000000000
-0.03750378638505935668945312500000000000
-0.07946648448705673217773437500000000000
0.00875881128013134002685546875000000000
-0.01115265209227800369262695312500000000
0.05956835299730300903320312500000000000
0.04776128754019737243652343750000000000
0.05366178601980209350585937500000000000
0.06700990349054336547851562500000000000
0.00812713801860809326171875000000000000
-0.01250163465738296508789062500000000000
-0.08677279204130172729492187500000000000
-0.05847418308258056640625000000000000000
-0.01098290551453828811645507812500000000
0.00370463542640209197998046875000000000
0.00828376226127147674560546875000000000
0.09675241261720657348632812500000000000
0.09528781473636627197265625000000000000
-0.00764443725347518920898437500000000000
-0.01355529017746448516845703125000000000
0.03513628616929054260253906250000000000
0.01360638346523046493530273437500000000
0.08998364955186843872070312500000000000
0.07163317501544952392578125000000000000
0.04676003009080886840820312500000000000
0.09058924019336700439453125000000000000
-0.01510924100875854492187500000000000000
-0.00239415606483817100524902343750000000
0.01943734660744667053222656250000000000
0.05396018922328948974609375000000000000
0.07942511141300201416015625000000000000
0.02161001414060592651367187500000000000
0.04248192533850669860839843750000000000
-0.00026450114091858267784118652343750000
0.05529060959815979003906250000000000000
0.01750752702355384826660156250000000000
0.03795783221721649169921875000000000000
0.02650067210197448730468750000000000000
-0.04738596826791763305664062500000000000
-0.07966866344213485717773437500000000000
-0.04716216400265693664550781250000000000
-0.02604293823242187500000000000000000000
0.07160744071006774902343750000000000000
-0.02203553542494773864746093750000000000
0.06808862090110778808593750000000000000
0.00368630443699657917022705078125000000
0.03875556588172912597656250000000000000
0.10750057548284530639648437500000000000
0.00899853371083736419677734375000000000
0.00460454681888222694396972656250000000
-0.17192721366882324218750000000000000000
0.02500235289335250854492187500000000000
0.01743525825440883636474609375000000000
-0.02883285284042358398437500000000000000
-0.04571949690580368041992187500000000000
-0.02670200727880001068115234375000000000
-0.00191650807391852140426635742187500000
-0.03609202057123184204101562500000000000
-0.00113007309846580028533935546875000000
0.02412012033164501190185546875000000000
0.00619031256064772605895996093750000000
0.02010374702513217926025390625000000000
-0.10787960886955261230468750000000000000
-0.14787636697292327880859375000000000000
-0.12706676125526428222656250000000000000
-0.17317350208759307861328125000000000000
-0.24313363432884216308593750000000000000
-0.13606192171573638916015625000000000000
-0.07484804093837738037109375000000000000
-0.04986628890037536621093750000000000000
-0.15264299511909484863281250000000000000
-0.08700044453144073486328125000000000000
-0.02718406729400157928466796875000000000
-0.16702745854854583740234375000000000000
-0.11032683402299880981445312500000000000
-0.11659625917673110961914062500000000000
-0.09172669053077697753906250000000000000
-0.06549073010683059692382812500000000000
-0.09188254177570343017578125000000000000
-0.13775737583637237548828125000000000000
-0.15225507318973541259765625000000000000
-0.09325626492500305175781250000000000000
0.10156109929084777832031250000000000000
-0.16292136907577514648437500000000000000
-0.11180596053600311279296875000000000000
-0.12572000920772552490234375000000000000
-0.07010681927204132080078125000000000000
-0.06576769798994064331054687500000000000
0.11809383332729339599609375000000000000
0.08172383904457092285156250000000000000
0.26512560248374938964843750000000000000
0.39825677871704101562500000000000000000
0.11794959008693695068359375000000000000
0.14789083600044250488281250000000000000
0.14804612100124359130859375000000000000
-0.00922868773341178894042968750000000000
0.16600029170513153076171875000000000000
-0.04394825175404548645019531250000000000
0.13359071314334869384765625000000000000
-0.03390002623200416564941406250000000000
0.00011173757957294583320617675781250000
0.20627458393573760986328125000000000000
0.07007185369729995727539062500000000000
-0.04830685257911682128906250000000000000
-0.00551489181816577911376953125000000000
0.03926409408450126647949218750000000000
0.08969623595476150512695312500000000000
-0.07938417047262191772460937500000000000
0.19672344624996185302734375000000000000
0.25903311371803283691406250000000000000
0.26273664832115173339843750000000000000
0.02907681465148925781250000000000000000
-0.05759483948349952697753906250000000000
-0.18436875939369201660156250000000000000
-0.27818468213081359863281250000000000000
0.00769180525094270706176757812500000000
0.22382903099060058593750000000000000000
0.20733335614204406738281250000000000000
-0.07249035686254501342773437500000000000
0.04214245453476905822753906250000000000
0.06868296116590499877929687500000000000
0.04381772130727767944335937500000000000
-0.11950232088565826416015625000000000000
-0.00039869066677056252956390380859375000
0.02173918113112449645996093750000000000
-0.12719860672950744628906250000000000000
0.15752339363098144531250000000000000000
-0.05973675474524497985839843750000000000
-0.11271051317453384399414062500000000000
0.01323148328810930252075195312500000000
0.10469897836446762084960937500000000000
0.00403276411816477775573730468750000000
-0.13544967770576477050781250000000000000
-0.03682495653629302978515625000000000000
0.02767301723361015319824218750000000000
0.09797814488410949707031250000000000000
0.05734014883637428283691406250000000000
-0.17282523214817047119140625000000000000
0.00681289751082658767700195312500000000
-0.02649782970547676086425781250000000000
-0.02404101751744747161865234375000000000
-0.16429150104522705078125000000000000000
-0.30286335945129394531250000000000000000
0.06978830695152282714843750000000000000
0.04806349053978919982910156250000000000
0.00589476199820637702941894531250000000
0.00199600053019821643829345703125000000
-0.11177911609411239624023437500000000000
-0.04386371374130249023437500000000000000
-0.06036397442221641540527343750000000000
0.11095797270536422729492187500000000000
-0.21177446842193603515625000000000000000
-0.34055766463279724121093750000000000000
0.12916994094848632812500000000000000000
0.03740220144391059875488281250000000000
0.20297825336456298828125000000000000000
-0.06673420220613479614257812500000000000
-0.01630204357206821441650390625000000000
0.04684820398688316345214843750000000000
0.03476376086473464965820312500000000000
-0.11495266854763031005859375000000000000
-0.25808390974998474121093750000000000000
-0.01246407534927129745483398437500000000
0.05380836129188537597656250000000000000
0.00363567960448563098907470703125000000
0.06712170690298080444335937500000000000
0.19376875460147857666015625000000000000
0.20180509984493255615234375000000000000
-0.00735831586644053459167480468750000000
0.05017566680908203125000000000000000000
-0.06789924204349517822265625000000000000
0.06067140400409698486328125000000000000
0.09779968112707138061523437500000000000
0.09072346985340118408203125000000000000
0.10262358188629150390625000000000000000
0.06618336588144302368164062500000000000
0.09295318275690078735351562500000000000
0.01746963150799274444580078125000000000
0.00529785500839352607727050781250000000
0.04015988856554031372070312500000000000
0.06741967797279357910156250000000000000
0.10427778214216232299804687500000000000
0.06312561780214309692382812500000000000
0.03600409254431724548339843750000000000
0.04145124927163124084472656250000000000
0.16051541268825531005859375000000000000
0.11970906704664230346679687500000000000
0.05532358959317207336425781250000000000
-0.15313144028186798095703125000000000000
-0.02328331954777240753173828125000000000
-0.05854675918817520141601562500000000000
0.05499779060482978820800781250000000000
0.11572264879941940307617187500000000000
-0.06700523197650909423828125000000000000
0.10526579618453979492187500000000000000
-0.03237135708332061767578125000000000000
-0.07353091239929199218750000000000000000
0.01707480102777481079101562500000000000
-0.01696600764989852905273437500000000000
0.19102115929126739501953125000000000000
-0.06990488618612289428710937500000000000
-0.05530519038438796997070312500000000000
0.07986352592706680297851562500000000000
-0.06903031468391418457031250000000000000
0.03600581735372543334960937500000000000
0.06677670031785964965820312500000000000
-0.00397066678851842880249023437500000000
-0.00581195112317800521850585937500000000
-0.16969810426235198974609375000000000000
-0.06086195260286331176757812500000000000
-0.03270816430449485778808593750000000000
0.07193847000598907470703125000000000000
0.09263651818037033081054687500000000000
0.06593834608793258666992187500000000000
0.09390833228826522827148437500000000000
0.06284189969301223754882812500000000000
-0.00953337643295526504516601562500000000
0.02790494635701179504394531250000000000
0.03009737841784954071044921875000000000
0.11339856684207916259765625000000000000
0.11557937413454055786132812500000000000
0.00134785834234207868576049804687500000
0.12313152104616165161132812500000000000
0.02005533501505851745605468750000000000
0.06642769277095794677734375000000000000
0.13179792463779449462890625000000000000
-0.01028778497129678726196289062500000000
0.07238927483558654785156250000000000000
0.01376472786068916320800781250000000000
0.14428558945655822753906250000000000000
0.10902206599712371826171875000000000000
0.14406730234622955322265625000000000000
0.21534967422485351562500000000000000000
-0.05006181448698043823242187500000000000
-0.01791891083121299743652343750000000000
-0.11053200811147689819335937500000000000
-0.02600569091737270355224609375000000000
0.11303820461034774780273437500000000000
0.07304813712835311889648437500000000000
0.03631378337740898132324218750000000000
0.06362445652484893798828125000000000000
-0.05376507341861724853515625000000000000
-0.02174175530672073364257812500000000000
-0.00042229768587276339530944824218750000
-0.06568091362714767456054687500000000000
-0.34910258650779724121093750000000000000
-0.34812572598457336425781250000000000000
-0.13667246699333190917968750000000000000
-0.02491920813918113708496093750000000000
-0.02994680218398571014404296875000000000
0.01743781939148902893066406250000000000
-0.22800731658935546875000000000000000000
0.00370092596858739852905273437500000000
0.08854646980762481689453125000000000000
-0.02016235515475273132324218750000000000
0.18930830061435699462890625000000000000
0.08488281816244125366210937500000000000
0.10224007815122604370117187500000000000
0.02050443552434444427490234375000000000
-0.08895650506019592285156250000000000000
0.20457364618778228759765625000000000000
0.11060994118452072143554687500000000000
0.00033491305657662451267242431640625000
-0.03534053638577461242675781250000000000
-0.06359022110700607299804687500000000000
-0.05209424346685409545898437500000000000
-0.02446139231324195861816406250000000000
-0.01911828666925430297851562500000000000
0.01174578536301851272583007812500000000
-0.04524795338511466979980468750000000000
-0.05449112504720687866210937500000000000
0.01233605109155178070068359375000000000
-0.01694935373961925506591796875000000000
-0.00585741363465785980224609375000000000
-0.03731592372059822082519531250000000000
-0.06583449989557266235351562500000000000
0.04306239634752273559570312500000000000
0.01335705909878015518188476562500000000
0.01414562109857797622680664062500000000
-0.01497053168714046478271484375000000000
0.07128042727708816528320312500000000000
-0.00184082833584398031234741210937500000
-0.09377995878458023071289062500000000000
-0.05906169861555099487304687500000000000
-0.09523368626832962036132812500000000000
-0.13350030779838562011718750000000000000
-0.00028249854221940040588378906250000000
0.02529615350067615509033203125000000000
-0.06306421011686325073242187500000000000
-0.12049000710248947143554687500000000000
-0.02730323560535907745361328125000000000
-0.02203765325248241424560546875000000000
-0.01593310013413429260253906250000000000
0.15824118256568908691406250000000000000
-0.03230882436037063598632812500000000000
-0.04175052791833877563476562500000000000
-0.05402226373553276062011718750000000000
0.05837249010801315307617187500000000000
-0.04990513622760772705078125000000000000
-0.00810058694332838058471679687500000000
0.02454437687993049621582031250000000000
-0.07709078490734100341796875000000000000
-0.09141935408115386962890625000000000000
0.03852482512593269348144531250000000000
0.01630853302776813507080078125000000000
-0.10489784926176071166992187500000000000
0.04089192673563957214355468750000000000
0.00678402837365865707397460937500000000
-0.06524029374122619628906250000000000000
-0.01143886428326368331909179687500000000
0.07713795453310012817382812500000000000
0.01259430963546037673950195312500000000
-0.03905767947435379028320312500000000000
-0.06955478340387344360351562500000000000
-0.02295375801622867584228515625000000000
-0.06758727133274078369140625000000000000
-0.09149308502674102783203125000000000000
0.00791595224291086196899414062500000000
0.01499379891902208328247070312500000000
0.05182861909270286560058593750000000000
0.21172514557838439941406250000000000000
-0.06421048939228057861328125000000000000
0.05890852957963943481445312500000000000
0.02801340073347091674804687500000000000
0.05612387508153915405273437500000000000
-0.00840836577117443084716796875000000000
0.11241105943918228149414062500000000000
-0.01427454687654972076416015625000000000
-0.04187056049704551696777343750000000000
0.11136820167303085327148437500000000000
0.07188476622104644775390625000000000000
0.01436453405767679214477539062500000000
0.02633798867464065551757812500000000000
-0.01735568605363368988037109375000000000
-0.07394541800022125244140625000000000000
-0.03535530343651771545410156250000000000
-0.12679205834865570068359375000000000000
0.00814247969537973403930664062500000000
-0.02445285581052303314208984375000000000
0.02825165353715419769287109375000000000
0.04518326744437217712402343750000000000
0.07245799899101257324218750000000000000
-0.06417834758758544921875000000000000000
0.13891562819480895996093750000000000000
0.25368961691856384277343750000000000000
0.37860617041587829589843750000000000000
0.25040808320045471191406250000000000000
0.07208949327468872070312500000000000000
0.07734023779630661010742187500000000000
0.07817281782627105712890625000000000000
0.11220572888851165771484375000000000000
0.00399856176227331161499023437500000000
0.07398894429206848144531250000000000000
-0.05823132768273353576660156250000000000
-0.05420097336173057556152343750000000000
-0.12036687880754470825195312500000000000
0.06502312421798706054687500000000000000
-0.09578813612461090087890625000000000000
-0.00925362762063741683959960937500000000
0.06271706521511077880859375000000000000
-0.11543668061494827270507812500000000000
0.07364030927419662475585937500000000000
0.04923180863261222839355468750000000000
0.04789200797677040100097656250000000000
0.03482495620846748352050781250000000000
0.00602782331407070159912109375000000000
-0.03929744660854339599609375000000000000
0.03218905627727508544921875000000000000
-0.02188238315284252166748046875000000000
-0.09744267165660858154296875000000000000
0.04027406871318817138671875000000000000
0.05878778547048568725585937500000000000
0.01973367668688297271728515625000000000
0.00687940046191215515136718750000000000
-0.13645121455192565917968750000000000000
-0.16094939410686492919921875000000000000
0.05321040749549865722656250000000000000
-0.01058780029416084289550781250000000000
-0.06596051901578903198242187500000000000
0.00331625854596495628356933593750000000
-0.01114025339484214782714843750000000000
-0.02784075401723384857177734375000000000
-0.02462800778448581695556640625000000000
0.02784185111522674560546875000000000000
0.04492961242794990539550781250000000000
-0.05734398216009140014648437500000000000
-0.00042317021870985627174377441406250000
0.04382682591676712036132812500000000000
0.06818946450948715209960937500000000000
0.03504287824034690856933593750000000000
0.01599622145295143127441406250000000000
-0.00929080415517091751098632812500000000
0.02052859589457511901855468750000000000
-0.02166400663554668426513671875000000000
-0.09918721020221710205078125000000000000
-0.10715509206056594848632812500000000000
-0.21919351816177368164062500000000000000
0.01631089672446250915527343750000000000
-0.00463984254747629165649414062500000000
0.04426958784461021423339843750000000000
0.11000451445579528808593750000000000000
-0.12966787815093994140625000000000000000
-0.02045100554823875427246093750000000000
0.04609220847487449645996093750000000000
-0.00020978400425519794225692749023437500
0.06548883020877838134765625000000000000
0.14178070425987243652343750000000000000
0.06699771434068679809570312500000000000
0.01265962515026330947875976562500000000
0.01580971665680408477783203125000000000
0.08061753213405609130859375000000000000
-0.03365620598196983337402343750000000000
0.05941963195800781250000000000000000000
0.06288101524114608764648437500000000000
0.00466707395389676094055175781250000000
0.11992061138153076171875000000000000000
0.06427825987339019775390625000000000000
0.05099013075232505798339843750000000000
-0.01219657715409994125366210937500000000
0.01438495889306068420410156250000000000
0.06022091954946517944335937500000000000
0.13421952724456787109375000000000000000
0.08233094215393066406250000000000000000
0.00040246837306767702102661132812500000
0.03406627103686332702636718750000000000
0.01007919199764728546142578125000000000
0.00694949645549058914184570312500000000
-0.08484468609094619750976562500000000000
-0.02038851380348205566406250000000000000
0.04434411600232124328613281250000000000
-0.01286520157009363174438476562500000000
0.00327588198706507682800292968750000000
-0.00149392813909798860549926757812500000
-0.00649508181959390640258789062500000000
0.07014379650354385375976562500000000000
0.02569718286395072937011718750000000000
0.02888835966587066650390625000000000000
0.01490888558328151702880859375000000000
-0.05609837919473648071289062500000000000
-0.08055125921964645385742187500000000000
-0.11407635360956192016601562500000000000
-0.13299909234046936035156250000000000000
-0.02908095344901084899902343750000000000
0.00664957659319043159484863281250000000
0.04535523429512977600097656250000000000
0.17382401227951049804687500000000000000
0.14339935779571533203125000000000000000
0.04599595814943313598632812500000000000
0.01235284470021724700927734375000000000
-0.04713768512010574340820312500000000000
0.06901485472917556762695312500000000000
-0.04068849608302116394042968750000000000
0.02705832570791244506835937500000000000
-0.10775151848793029785156250000000000000
0.07240944355726242065429687500000000000
0.03059404529631137847900390625000000000
-0.09099476784467697143554687500000000000
-0.03690589591860771179199218750000000000
-0.04844788089394569396972656250000000000
-0.03067106008529663085937500000000000000
0.00421975273638963699340820312500000000
-0.05374969542026519775390625000000000000
0.03140313550829887390136718750000000000
-0.03413761407136917114257812500000000000
0.01320824865251779556274414062500000000
0.02711343578994274139404296875000000000
0.02488662861287593841552734375000000000
-0.00722797261551022529602050781250000000
-0.01727064885199069976806640625000000000
-0.04048194736242294311523437500000000000
-0.08760733902454376220703125000000000000
-0.04578372463583946228027343750000000000
-0.04154366254806518554687500000000000000
0.00323504232801496982574462890625000000
-0.01576184295117855072021484375000000000
-0.05299384891986846923828125000000000000
-0.05164293572306632995605468750000000000
0.04682667553424835205078125000000000000
0.08971381932497024536132812500000000000
-0.02653013914823532104492187500000000000
-0.01183372829109430313110351562500000000
0.05507956072688102722167968750000000000
0.10721113532781600952148437500000000000
-0.01272563822567462921142578125000000000
0.00176478084176778793334960937500000000
0.02462831325829029083251953125000000000
0.05773046240210533142089843750000000000
-0.01762237399816513061523437500000000000
0.00273024593479931354522705078125000000
0.07971332967281341552734375000000000000
0.24154441058635711669921875000000000000
0.08054117858409881591796875000000000000
-0.05134038627147674560546875000000000000
0.16131676733493804931640625000000000000
0.05771481990814208984375000000000000000
0.03357769921422004699707031250000000000
-0.06401918828487396240234375000000000000
0.01610342226922512054443359375000000000
-0.12844713032245635986328125000000000000
-0.04254364594817161560058593750000000000
-0.06398496776819229125976562500000000000
-0.03459199890494346618652343750000000000
-0.01931715011596679687500000000000000000
-0.03729296848177909851074218750000000000
-0.02984565496444702148437500000000000000
-0.10874257236719131469726562500000000000
-0.00208077370189130306243896484375000000
0.06360673159360885620117187500000000000
0.10626099258661270141601562500000000000
0.22263397276401519775390625000000000000
0.16736388206481933593750000000000000000
0.09816946089267730712890625000000000000
0.02233655378222465515136718750000000000
-0.10652409493923187255859375000000000000
0.03613585978746414184570312500000000000
0.17906293272972106933593750000000000000
0.03268314152956008911132812500000000000
-0.08291287720203399658203125000000000000
0.06043427810072898864746093750000000000
0.47796139121055603027343750000000000000
0.39337563514709472656250000000000000000
0.19338391721248626708984375000000000000
-0.06218519434332847595214843750000000000
0.10637743771076202392578125000000000000
0.17736575007438659667968750000000000000
0.04192577302455902099609375000000000000
0.10400340706110000610351562500000000000
0.09449898451566696166992187500000000000
-0.14193753898143768310546875000000000000
-0.05999823287129402160644531250000000000
-0.09169200807809829711914062500000000000
-0.11851526051759719848632812500000000000
-0.11167982965707778930664062500000000000
0.04948033764958381652832031250000000000
-0.14056473970413208007812500000000000000
-0.14494131505489349365234375000000000000
-0.01700728945434093475341796875000000000
0.00452065421268343925476074218750000000
0.05527734383940696716308593750000000000
0.05498110130429267883300781250000000000
-0.05685000866651535034179687500000000000
-0.20177936553955078125000000000000000000
0.12614099681377410888671875000000000000
0.04400125145912170410156250000000000000
-0.01008915621787309646606445312500000000
-0.32850453257560729980468750000000000000
-0.08959612995386123657226562500000000000
-0.19212794303894042968750000000000000000
0.09449358284473419189453125000000000000
0.04065855965018272399902343750000000000
0.21038754284381866455078125000000000000
-0.02389173023402690887451171875000000000
-0.10365176200866699218750000000000000000
0.14091518521308898925781250000000000000
-0.10737767815589904785156250000000000000
0.27575457096099853515625000000000000000
-0.07781028747558593750000000000000000000
-0.10013429075479507446289062500000000000
0.06536128371953964233398437500000000000
-0.14606203138828277587890625000000000000
-0.09122323989868164062500000000000000000
-0.06571218371391296386718750000000000000
-0.06359333544969558715820312500000000000
0.07683894783258438110351562500000000000
-0.06896311789751052856445312500000000000
-0.03445633873343467712402343750000000000
-0.00660080136731266975402832031250000000
0.06685451418161392211914062500000000000
0.05631967633962631225585937500000000000
-0.06809367984533309936523437500000000000
-0.09521993994712829589843750000000000000
-0.15585333108901977539062500000000000000
0.05309459194540977478027343750000000000
-0.09087032079696655273437500000000000000
0.17010745406150817871093750000000000000
0.00277261156588792800903320312500000000
-0.06255324184894561767578125000000000000
-0.17072565853595733642578125000000000000
-0.03459532931447029113769531250000000000
-0.06117200851440429687500000000000000000
-0.14185974001884460449218750000000000000
0.07282774895429611206054687500000000000
0.14140374958515167236328125000000000000
-0.07243718951940536499023437500000000000
0.10910988599061965942382812500000000000
0.30106124281883239746093750000000000000
0.04949736222624778747558593750000000000
-0.02643003314733505249023437500000000000
-0.08972732722759246826171875000000000000
-0.02572355978190898895263671875000000000
-0.03513877466320991516113281250000000000
0.00201477226801216602325439453125000000
-0.03053832054138183593750000000000000000
-0.12568028271198272705078125000000000000
0.12950924038887023925781250000000000000
0.26353845000267028808593750000000000000
0.28753376007080078125000000000000000000
-0.00015910471847746521234512329101562500
0.05435934662818908691406250000000000000
0.04941898584365844726562500000000000000
-0.15010614693164825439453125000000000000
0.15002574026584625244140625000000000000
0.10613021999597549438476562500000000000
0.02624896168708801269531250000000000000
-0.01089983619749546051025390625000000000
0.12946598231792449951171875000000000000
-0.13381747901439666748046875000000000000
0.01530271116644144058227539062500000000
0.02566921152174472808837890625000000000
0.03165085241198539733886718750000000000
-0.05212719365954399108886718750000000000
-0.03767885267734527587890625000000000000
-0.00575038744136691093444824218750000000
-0.03823299333453178405761718750000000000
0.19925428926944732666015625000000000000
0.17999304831027984619140625000000000000
-0.00606078701093792915344238281250000000
0.06137635931372642517089843750000000000
-0.08252385258674621582031250000000000000
-0.02298120595514774322509765625000000000
-0.05750095471739768981933593750000000000
-0.02576558105647563934326171875000000000
-0.06279824674129486083984375000000000000
-0.00796562805771827697753906250000000000
0.01064353063702583312988281250000000000
0.00727852201089262962341308593750000000
-0.06967068463563919067382812500000000000
0.04245596379041671752929687500000000000
0.04118482396006584167480468750000000000
-0.03772133961319923400878906250000000000
0.04655713587999343872070312500000000000
0.08768973499536514282226562500000000000
0.06586962193250656127929687500000000000
0.01880289614200592041015625000000000000
-0.13106600940227508544921875000000000000
-0.00185177975799888372421264648437500000
0.06645537167787551879882812500000000000
0.03256468102335929870605468750000000000
-0.03516255319118499755859375000000000000
-0.01741183549165725708007812500000000000
-0.07915334403514862060546875000000000000
-0.02781540341675281524658203125000000000
-0.06553730368614196777343750000000000000
0.02826741151511669158935546875000000000
-0.05568346381187438964843750000000000000
-0.04070947691798210144042968750000000000
-0.07766268402338027954101562500000000000
-0.10711277276277542114257812500000000000
-0.13837914168834686279296875000000000000
-0.01469501014798879623413085937500000000
-0.05869149416685104370117187500000000000
-0.02835588157176971435546875000000000000
-0.01699588820338249206542968750000000000
-0.15864814817905426025390625000000000000
0.05920642614364624023437500000000000000
-0.09009348601102828979492187500000000000
-0.08930150419473648071289062500000000000
-0.12723958492279052734375000000000000000
-0.02662087045609951019287109375000000000
0.01518798712641000747680664062500000000
-0.01411334238946437835693359375000000000
0.03375658020377159118652343750000000000
-0.00877061951905488967895507812500000000
-0.14541189372539520263671875000000000000
-0.18070363998413085937500000000000000000
-0.11834298819303512573242187500000000000
-0.10804029554128646850585937500000000000
-0.00936469342559576034545898437500000000
-0.12195465713739395141601562500000000000
-0.05436104163527488708496093750000000000
-0.02624219655990600585937500000000000000
-0.03747152537107467651367187500000000000
-0.05973921716213226318359375000000000000
-0.15834708511829376220703125000000000000
0.02979292720556259155273437500000000000
-0.04835358262062072753906250000000000000
-0.02878432720899581909179687500000000000
-0.03017571941018104553222656250000000000
-0.12519563734531402587890625000000000000
-0.16060486435890197753906250000000000000
0.04187051206827163696289062500000000000
-0.03260451182723045349121093750000000000
-0.04317918047308921813964843750000000000
-0.13399076461791992187500000000000000000
-0.07464032620191574096679687500000000000
-0.06582575291395187377929687500000000000
-0.05357295274734497070312500000000000000
-0.16420324146747589111328125000000000000
-0.04838968813419342041015625000000000000
-0.02693599462509155273437500000000000000
-0.04552967473864555358886718750000000000
-0.02330102957785129547119140625000000000
-0.09774480015039443969726562500000000000
0.00797526258975267410278320312500000000
-0.04139348119497299194335937500000000000
-0.01488478574901819229125976562500000000
-0.01789719052612781524658203125000000000
0.07759498059749603271484375000000000000
-0.04307180270552635192871093750000000000
-0.01383275538682937622070312500000000000
0.00628134841099381446838378906250000000
-0.09117279946804046630859375000000000000
0.06775013357400894165039062500000000000
-0.05756457522511482238769531250000000000
0.05298106372356414794921875000000000000
0.00372743140906095504760742187500000000
0.04746128618717193603515625000000000000
0.04688128829002380371093750000000000000
0.03989595174789428710937500000000000000
-0.06949572265148162841796875000000000000
-0.07908728718757629394531250000000000000
-0.01979738101363182067871093750000000000
0.03580109030008316040039062500000000000
0.07182330638170242309570312500000000000
0.06641369313001632690429687500000000000
0.05132380500435829162597656250000000000
0.02779010310769081115722656250000000000
-0.00822215341031551361083984375000000000
0.04183515906333923339843750000000000000
0.05736777558922767639160156250000000000
-0.00436676247045397758483886718750000000
-0.00070622598286718130111694335937500000
-0.05507736280560493469238281250000000000
0.05083926394581794738769531250000000000
0.02224894985556602478027343750000000000
0.01895233057439327239990234375000000000
-0.04147386550903320312500000000000000000
-0.00361718679778277873992919921875000000
0.02112018875777721405029296875000000000
-0.04918688908219337463378906250000000000
-0.00481327204033732414245605468750000000
-0.00609423685818910598754882812500000000
0.02038389444351196289062500000000000000
-0.01695251837372779846191406250000000000
0.02213630825281143188476562500000000000
0.09292839467525482177734375000000000000
-0.04018532112240791320800781250000000000
0.02216722443699836730957031250000000000
0.03264776989817619323730468750000000000
0.03107631020247936248779296875000000000
0.00344627746380865573883056640625000000
-0.03866983577609062194824218750000000000
0.02933819778263568878173828125000000000
0.00106900266837328672409057617187500000
0.08217190206050872802734375000000000000
0.08196274191141128540039062500000000000
0.01761929877102375030517578125000000000
-0.11278986930847167968750000000000000000
0.05840060859918594360351562500000000000
-0.04915587976574897766113281250000000000
-0.11236495524644851684570312500000000000
0.00351786473765969276428222656250000000
-0.06087933853268623352050781250000000000
-0.00322355492971837520599365234375000000
-0.07264853268861770629882812500000000000
0.05588305741548538208007812500000000000
-0.01933468133211135864257812500000000000
-0.03130679205060005187988281250000000000
-0.07553862780332565307617187500000000000
-0.11054106801748275756835937500000000000
-0.02114989794790744781494140625000000000
-0.06032378226518630981445312500000000000
-0.10678864270448684692382812500000000000
0.01896690763533115386962890625000000000
0.12247890979051589965820312500000000000
0.12823224067687988281250000000000000000
0.05371232330799102783203125000000000000
0.15604467689990997314453125000000000000
0.00231992267072200775146484375000000000
0.13733996450901031494140625000000000000
0.05925934761762619018554687500000000000
-0.03305766358971595764160156250000000000
0.13806705176830291748046875000000000000
0.07475315034389495849609375000000000000
0.08018696308135986328125000000000000000
0.15246704220771789550781250000000000000
0.05425930768251419067382812500000000000
0.09540844708681106567382812500000000000
0.15651528537273406982421875000000000000
0.08125271648168563842773437500000000000
-0.01214216556400060653686523437500000000
0.15588073432445526123046875000000000000
0.03086383640766143798828125000000000000
0.09770205616950988769531250000000000000
0.01764959096908569335937500000000000000
0.01738283410668373107910156250000000000
0.10468418151140213012695312500000000000
0.03282235935330390930175781250000000000
-0.01816800981760025024414062500000000000
-0.01520077511668205261230468750000000000
0.00955503061413764953613281250000000000
-0.01690415106713771820068359375000000000
-0.06760022044181823730468750000000000000
0.02715982683002948760986328125000000000
0.00089666701387614011764526367187500000
-0.01979875378310680389404296875000000000
-0.06348434090614318847656250000000000000
-0.00874686054885387420654296875000000000
-0.00529808783903717994689941406250000000
-0.08418343216180801391601562500000000000
0.03881887346506118774414062500000000000
-0.01733276434242725372314453125000000000
0.01265481673181056976318359375000000000
0.00384712615050375461578369140625000000
-0.02685735188424587249755859375000000000
-0.02000944688916206359863281250000000000
-0.14074274897575378417968750000000000000
-0.03952034190297126770019531250000000000
-0.01199755631387233734130859375000000000
0.07242953032255172729492187500000000000
0.03739161044359207153320312500000000000
0.01980144716799259185791015625000000000
0.07614775002002716064453125000000000000
0.02864753641188144683837890625000000000
0.05887098237872123718261718750000000000
0.09277375787496566772460937500000000000
0.01351654529571533203125000000000000000
-0.01485236175358295440673828125000000000
0.11180951446294784545898437500000000000
-0.01915282569825649261474609375000000000
0.06143915653228759765625000000000000000
0.05151396989822387695312500000000000000
0.10920946300029754638671875000000000000
0.11008491367101669311523437500000000000
0.03190223872661590576171875000000000000
-0.10855467617511749267578125000000000000
0.04594378918409347534179687500000000000
-0.06388019770383834838867187500000000000
0.13276946544647216796875000000000000000
0.07232186198234558105468750000000000000
-0.07581164687871932983398437500000000000
-0.01805363968014717102050781250000000000
-0.02402406185865402221679687500000000000
0.16261684894561767578125000000000000000
0.08438120782375335693359375000000000000
0.03826457262039184570312500000000000000
-0.02618817239999771118164062500000000000
0.01478689257055521011352539062500000000
0.04801095649600028991699218750000000000
0.04571021720767021179199218750000000000
0.14053946733474731445312500000000000000
0.10593397170305252075195312500000000000
-0.02134266868233680725097656250000000000
0.08553321659564971923828125000000000000
0.04774044826626777648925781250000000000
0.08960564434528350830078125000000000000
-0.01222752127796411514282226562500000000
0.01746550574898719787597656250000000000
0.13940128684043884277343750000000000000
-0.02065992355346679687500000000000000000
0.01205922011286020278930664062500000000
-0.03477795794606208801269531250000000000
0.05774534121155738830566406250000000000
0.16798216104507446289062500000000000000
-0.03005397506058216094970703125000000000
0.05809530615806579589843750000000000000
-0.06368089467287063598632812500000000000
0.04206800088286399841308593750000000000
0.04082988947629928588867187500000000000
0.02454617619514465332031250000000000000
0.08507075905799865722656250000000000000
0.00353180617094039916992187500000000000
0.11773988604545593261718750000000000000
0.08552055805921554565429687500000000000
0.05216317996382713317871093750000000000
0.05728183314204216003417968750000000000
0.07222879678010940551757812500000000000
0.03651439025998115539550781250000000000
0.04803114384412765502929687500000000000
0.11545766890048980712890625000000000000
0.08635593205690383911132812500000000000
0.08523435145616531372070312500000000000
0.02570207417011260986328125000000000000
0.17658340930938720703125000000000000000
0.08462173491716384887695312500000000000
0.12628729641437530517578125000000000000
0.05372027680277824401855468750000000000
0.00899332854896783828735351562500000000
0.03979410231113433837890625000000000000
0.13116522133350372314453125000000000000
0.09788207709789276123046875000000000000
0.08041098713874816894531250000000000000
0.03326406702399253845214843750000000000
0.04786513745784759521484375000000000000
0.01374235469847917556762695312500000000
0.07898208498954772949218750000000000000
0.11624449491500854492187500000000000000
0.05119384452700614929199218750000000000
-0.03460215777158737182617187500000000000
-0.01083710696548223495483398437500000000
-0.09210724383592605590820312500000000000
-0.15175569057464599609375000000000000000
-0.13094830513000488281250000000000000000
-0.07338254898786544799804687500000000000
0.00118188548367470502853393554687500000
-0.08214344829320907592773437500000000000
0.01279052812606096267700195312500000000
-0.10716092586517333984375000000000000000
-0.04018474370241165161132812500000000000
-0.16666713356971740722656250000000000000
-0.05356522649526596069335937500000000000
-0.07554972916841506958007812500000000000
-0.08357382565736770629882812500000000000
-0.06987397372722625732421875000000000000
-0.04583179578185081481933593750000000000
-0.05581050366163253784179687500000000000
-0.10036841779947280883789062500000000000
-0.11066769808530807495117187500000000000
-0.04661015421152114868164062500000000000
-0.10111352801322937011718750000000000000
-0.12767224013805389404296875000000000000
-0.00863411556929349899291992187500000000
0.08714821934700012207031250000000000000
-0.00073922704905271530151367187500000000
-0.05653407424688339233398437500000000000
0.02607444673776626586914062500000000000
0.06583773344755172729492187500000000000
0.03899167478084564208984375000000000000
0.05399868637323379516601562500000000000
0.02369722165167331695556640625000000000
0.13032050430774688720703125000000000000
-0.01329813245683908462524414062500000000
0.05429060012102127075195312500000000000
0.00060578912962228059768676757812500000
0.04110652580857276916503906250000000000
-0.00899069011211395263671875000000000000
0.03349245339632034301757812500000000000
0.02301064692437648773193359375000000000
0.05042286217212677001953125000000000000
-0.01304795034229755401611328125000000000
0.01747929863631725311279296875000000000
0.12769092619419097900390625000000000000
-0.01582612469792366027832031250000000000
-0.02523344568908214569091796875000000000
-0.01476099342107772827148437500000000000
0.02039524167776107788085937500000000000
-0.07122451066970825195312500000000000000
-0.06443917751312255859375000000000000000
-0.07733467221260070800781250000000000000
-0.07080266624689102172851562500000000000
0.00937022361904382705688476562500000000
0.01759254001080989837646484375000000000
0.13962103426456451416015625000000000000
-0.05300851911306381225585937500000000000
-0.01650017872452735900878906250000000000
0.04248806461691856384277343750000000000
0.01676653511822223663330078125000000000
0.04008374735713005065917968750000000000
-0.19503253698348999023437500000000000000
0.12315120548009872436523437500000000000
0.11795631051063537597656250000000000000
0.06870832294225692749023437500000000000
0.02664120867848396301269531250000000000
-0.10323100537061691284179687500000000000
-0.00116589118260890245437622070312500000
-0.17197673022747039794921875000000000000
0.04052505269646644592285156250000000000
-0.10100835561752319335937500000000000000
-0.02880127914249897003173828125000000000
0.01428666245192289352416992187500000000
0.07425461709499359130859375000000000000
0.16778171062469482421875000000000000000
-0.01892060972750186920166015625000000000
-0.12490571290254592895507812500000000000
0.02318061143159866333007812500000000000
0.10954523831605911254882812500000000000
-0.00082206627121195197105407714843750000
-0.14680729806423187255859375000000000000
-0.04550017789006233215332031250000000000
-0.15189515054225921630859375000000000000
0.04537224769592285156250000000000000000
-0.09196840226650238037109375000000000000
0.06394691765308380126953125000000000000
-0.00065317749977111816406250000000000000
-0.13241349160671234130859375000000000000
-0.02155262045562267303466796875000000000
-0.06398683786392211914062500000000000000
-0.02310639061033725738525390625000000000
0.01491997111588716506958007812500000000
0.03816294670104980468750000000000000000
-0.18200929462909698486328125000000000000
-0.08685260266065597534179687500000000000
-0.03375648334622383117675781250000000000
0.08069738745689392089843750000000000000
0.00832840241491794586181640625000000000
-0.04304990172386169433593750000000000000
-0.01215114351361989974975585937500000000
0.13960056006908416748046875000000000000
0.04371681064367294311523437500000000000
-0.00792582333087921142578125000000000000
0.00023479660740122199058532714843750000
0.10102196037769317626953125000000000000
-0.02282986789941787719726562500000000000
-0.00157086108811199665069580078125000000
-0.01700272411108016967773437500000000000
0.04562534019351005554199218750000000000
0.01455991994589567184448242187500000000
0.11498085409402847290039062500000000000
-0.00043248271686024963855743408203125000
0.04270495101809501647949218750000000000
0.02755449712276458740234375000000000000
-0.04199302941560745239257812500000000000
-0.07587569952011108398437500000000000000
0.01140715926885604858398437500000000000
0.03622732311487197875976562500000000000
-0.08733889460563659667968750000000000000
0.09108012914657592773437500000000000000
0.02696395106613636016845703125000000000
-0.02101041190326213836669921875000000000
0.02946090325713157653808593750000000000
-0.03167514130473136901855468750000000000
-0.08760511130094528198242187500000000000
-0.04665645956993103027343750000000000000
-0.08138946443796157836914062500000000000
0.00085368542931973934173583984375000000
-0.05896515399217605590820312500000000000
-0.00140929711051285266876220703125000000
-0.02997497469186782836914062500000000000
-0.04210318252444267272949218750000000000
-0.00395536050200462341308593750000000000
-0.09693378210067749023437500000000000000
0.04801004379987716674804687500000000000
-0.03681712597608566284179687500000000000
-0.03109149821102619171142578125000000000
0.01027041021734476089477539062500000000
-0.04516019299626350402832031250000000000
-0.03805574774742126464843750000000000000
-0.08791986852884292602539062500000000000
-0.04114006459712982177734375000000000000
-0.08194421231746673583984375000000000000
-0.09806872904300689697265625000000000000
-0.01497132331132888793945312500000000000
-0.01055904850363731384277343750000000000
-0.03762497752904891967773437500000000000
-0.08824267238378524780273437500000000000
0.01411706116050481796264648437500000000
0.02265020646154880523681640625000000000
-0.03696407377719879150390625000000000000
0.07137936353683471679687500000000000000
0.04987634718418121337890625000000000000
0.12831640243530273437500000000000000000
0.09480405598878860473632812500000000000
0.09885771572589874267578125000000000000
0.01986449398100376129150390625000000000
0.12130187451839447021484375000000000000
0.05601056292653083801269531250000000000
0.11262809485197067260742187500000000000
0.13520161807537078857421875000000000000
-0.01495363283902406692504882812500000000
-0.08606712520122528076171875000000000000
-0.19081512093544006347656250000000000000
0.08315049856901168823242187500000000000
0.08038336038589477539062500000000000000
-0.01267721969634294509887695312500000000
-0.12470689415931701660156250000000000000
-0.05275402218103408813476562500000000000
-0.12148816883563995361328125000000000000
0.01505254674702882766723632812500000000
0.00139513169415295124053955078125000000
0.11931911855936050415039062500000000000
0.16693751513957977294921875000000000000
0.06115698441863059997558593750000000000
0.12694948911666870117187500000000000000
0.03621463850140571594238281250000000000
0.05325742810964584350585937500000000000
0.11932858079671859741210937500000000000
-0.02397163584828376770019531250000000000
0.08285458385944366455078125000000000000
0.07999109476804733276367187500000000000
0.02510032244026660919189453125000000000
-0.03728029876947402954101562500000000000
-0.00394750572741031646728515625000000000
0.07067364454269409179687500000000000000
0.10470764338970184326171875000000000000
0.09678477048873901367187500000000000000
-0.07111196219921112060546875000000000000
-0.21073228120803833007812500000000000000
0.03392269462347030639648437500000000000
0.10592719167470932006835937500000000000
0.11297224462032318115234375000000000000
0.14820119738578796386718750000000000000
0.10691642016172409057617187500000000000
0.03509389609098434448242187500000000000
0.11667591333389282226562500000000000000
0.07435779273509979248046875000000000000
0.05099308863282203674316406250000000000
0.10184165835380554199218750000000000000
0.10637038946151733398437500000000000000
0.13933622837066650390625000000000000000
0.01003776304423809051513671875000000000
0.04685549810528755187988281250000000000
0.03469575941562652587890625000000000000
0.06251647323369979858398437500000000000
-0.01545365620404481887817382812500000000
0.09665558487176895141601562500000000000
0.19976662099361419677734375000000000000
0.13641950488090515136718750000000000000
0.01939845457673072814941406250000000000
0.09696915000677108764648437500000000000
0.09258067607879638671875000000000000000
-0.08724172413349151611328125000000000000
0.10658860206604003906250000000000000000
0.04031354561448097229003906250000000000
0.05723890289664268493652343750000000000
0.00051222322508692741394042968750000000
0.11199935525655746459960937500000000000
0.12447840720415115356445312500000000000
-0.09467105567455291748046875000000000000
-0.00145229068584740161895751953125000000
0.03835406526923179626464843750000000000
-0.07454927265644073486328125000000000000
-0.05098991468548774719238281250000000000
-0.15425641834735870361328125000000000000
-0.04136115312576293945312500000000000000
-0.04199934378266334533691406250000000000
0.04316793754696846008300781250000000000
-0.00841308385133743286132812500000000000
-0.00495251547545194625854492187500000000
0.01995014026761054992675781250000000000
-0.04873031750321388244628906250000000000
0.01366673409938812255859375000000000000
-0.04607411846518516540527343750000000000
-0.00646909791976213455200195312500000000
-0.01433604303747415542602539062500000000
-0.04858152568340301513671875000000000000
-0.05991080403327941894531250000000000000
0.00744358310475945472717285156250000000
-0.14609768986701965332031250000000000000
0.00931724067777395248413085937500000000
-0.01569469645619392395019531250000000000
-0.02502325549721717834472656250000000000
0.14595693349838256835937500000000000000
-0.08220397680997848510742187500000000000
0.01740103960037231445312500000000000000
-0.01629789546132087707519531250000000000
-0.03728788346052169799804687500000000000
0.01764661259949207305908203125000000000
0.00344858109019696712493896484375000000
-0.14004440605640411376953125000000000000
-0.14739865064620971679687500000000000000
-0.15917263925075531005859375000000000000
-0.09559376537799835205078125000000000000
-0.13701499998569488525390625000000000000
-0.06572002172470092773437500000000000000
-0.10870454460382461547851562500000000000
-0.13495101034641265869140625000000000000
-0.17124345898628234863281250000000000000
0.00484412116929888725280761718750000000
0.00482903560623526573181152343750000000
0.08453604578971862792968750000000000000
0.05830018967390060424804687500000000000
0.03251374885439872741699218750000000000
0.00301058520562946796417236328125000000
0.04548106342554092407226562500000000000
0.06418360024690628051757812500000000000
0.06318303942680358886718750000000000000
0.32726326584815979003906250000000000000
0.10493625700473785400390625000000000000
0.00709365867078304290771484375000000000
0.03787931054830551147460937500000000000
0.01212609000504016876220703125000000000
0.03296334668993949890136718750000000000
-0.09462568908929824829101562500000000000
-0.06213000789284706115722656250000000000
-0.02430155500769615173339843750000000000
-0.04181291162967681884765625000000000000
0.04113681614398956298828125000000000000
-0.04057670384645462036132812500000000000
-0.02465666085481643676757812500000000000
-0.01759147830307483673095703125000000000
-0.10269875824451446533203125000000000000
-0.03373596817255020141601562500000000000
-0.04113388061523437500000000000000000000
-0.04061461240053176879882812500000000000
-0.00221257330849766731262207031250000000
0.02633916400372982025146484375000000000
-0.04352606087923049926757812500000000000
-0.06494475156068801879882812500000000000
-0.01505565643310546875000000000000000000
-0.05869222059845924377441406250000000000
-0.07730117440223693847656250000000000000
0.05336672812700271606445312500000000000
0.00708490889519453048706054687500000000
-0.00501572992652654647827148437500000000
-0.07970345765352249145507812500000000000
-0.08219372481107711791992187500000000000
0.02687159180641174316406250000000000000
-0.04368370771408081054687500000000000000
0.00138140900526195764541625976562500000
-0.00742285512387752532958984375000000000
-0.01364384777843952178955078125000000000
-0.00945911277085542678833007812500000000
-0.02948207780718803405761718750000000000
0.00409025186672806739807128906250000000
-0.04195161908864974975585937500000000000
0.02586445398628711700439453125000000000
-0.05009687691926956176757812500000000000
-0.03802103549242019653320312500000000000
0.03419637307524681091308593750000000000
-0.08290636539459228515625000000000000000
-0.12171924859285354614257812500000000000
-0.02538264915347099304199218750000000000
-0.05922319367527961730957031250000000000
-0.01878178678452968597412109375000000000
-0.13815952837467193603515625000000000000
-0.00420721061527729034423828125000000000
-0.08479729294776916503906250000000000000
-0.16552732884883880615234375000000000000
-0.00442818598821759223937988281250000000
-0.05336580052971839904785156250000000000
-0.00200560968369245529174804687500000000
0.03218229115009307861328125000000000000
0.09727454185485839843750000000000000000
-0.03929718956351280212402343750000000000
-0.01324669551104307174682617187500000000
-0.06080376729369163513183593750000000000
-0.02904664166271686553955078125000000000
-0.01539647392928600311279296875000000000
-0.07737994194030761718750000000000000000
-0.04289180412888526916503906250000000000
0.02935930341482162475585937500000000000
-0.08501400053501129150390625000000000000
-0.02494845353066921234130859375000000000
-0.01053854916244745254516601562500000000
-0.05466673150658607482910156250000000000
0.12835431098937988281250000000000000000
0.06109482795000076293945312500000000000
-0.01090895850211381912231445312500000000
-0.08133658766746520996093750000000000000
-0.10711833834648132324218750000000000000
-0.12949733436107635498046875000000000000
-0.07986941188573837280273437500000000000
0.08381330221891403198242187500000000000
-0.02982840500771999359130859375000000000
-0.04200218617916107177734375000000000000
-0.09168858826160430908203125000000000000
-0.14418569207191467285156250000000000000
-0.03018200956284999847412109375000000000
-0.04321226477622985839843750000000000000
-0.10544200986623764038085937500000000000
-0.02462570182979106903076171875000000000
-0.03094810061156749725341796875000000000
-0.06486850231885910034179687500000000000
-0.02868381887674331665039062500000000000
-0.13887882232666015625000000000000000000
0.05350213497877120971679687500000000000
0.00277526397258043289184570312500000000
0.01825019903481006622314453125000000000
-0.06897181272506713867187500000000000000
0.04851709678769111633300781250000000000
0.03765076398849487304687500000000000000
0.09979429095983505249023437500000000000
-0.04823487624526023864746093750000000000
-0.01882235147058963775634765625000000000
-0.05518062412738800048828125000000000000
0.01777662523090839385986328125000000000
0.22664274275302886962890625000000000000
-0.00961693841964006423950195312500000000
-0.06659626215696334838867187500000000000
-0.05780437216162681579589843750000000000
0.03348318859934806823730468750000000000
-0.00112381530925631523132324218750000000
-0.06836137920618057250976562500000000000
-0.06965693086385726928710937500000000000
-0.08152924478054046630859375000000000000
-0.05092782527208328247070312500000000000
-0.08982686698436737060546875000000000000
-0.00916084274649620056152343750000000000
-0.03480641543865203857421875000000000000
-0.09839826077222824096679687500000000000
-0.07435606420040130615234375000000000000
-0.09598711878061294555664062500000000000
-0.06544885039329528808593750000000000000
-0.03308484330773353576660156250000000000
-0.07662373781204223632812500000000000000
-0.22667782008647918701171875000000000000
-0.15388490259647369384765625000000000000
-0.00774990394711494445800781250000000000
-0.01413015089929103851318359375000000000
-0.02518726512789726257324218750000000000
-0.15485993027687072753906250000000000000
-0.14281502366065979003906250000000000000
-0.04335477203130722045898437500000000000
-0.04506197199225425720214843750000000000
-0.04342808201909065246582031250000000000
-0.01450683828443288803100585937500000000
0.08984132111072540283203125000000000000
0.05540140345692634582519531250000000000
0.02877198532223701477050781250000000000
-0.02417552471160888671875000000000000000
0.06317257136106491088867187500000000000
0.05609125643968582153320312500000000000
-0.00988463312387466430664062500000000000
-0.00286935176700353622436523437500000000
0.17132408916950225830078125000000000000
0.21164382994174957275390625000000000000
0.06668654829263687133789062500000000000
0.08395262807607650756835937500000000000
0.09765560925006866455078125000000000000
0.23350408673286437988281250000000000000
0.13785707950592041015625000000000000000
0.24330775439739227294921875000000000000
0.03017638996243476867675781250000000000
0.07973802089691162109375000000000000000
0.05122927948832511901855468750000000000
0.05212816968560218811035156250000000000
0.11484821885824203491210937500000000000
-0.08241061866283416748046875000000000000
-0.04004994407296180725097656250000000000
0.07182516157627105712890625000000000000
-0.10618953406810760498046875000000000000
-0.10198776423931121826171875000000000000
-0.14280924201011657714843750000000000000
-0.08053302019834518432617187500000000000
-0.02911102399230003356933593750000000000
-0.09061346948146820068359375000000000000
-0.03482460975646972656250000000000000000
-0.05223734676837921142578125000000000000
-0.00045268915710039436817169189453125000
-0.12891046702861785888671875000000000000
-0.22355343401432037353515625000000000000
-0.03232915699481964111328125000000000000
0.04233080893754959106445312500000000000
0.06725797057151794433593750000000000000
0.21969416737556457519531250000000000000
0.14684599637985229492187500000000000000
0.01226364262402057647705078125000000000
0.07289314270019531250000000000000000000
0.07266970723867416381835937500000000000
0.11000172048807144165039062500000000000
0.29781481623649597167968750000000000000
0.27084201574325561523437500000000000000
-0.01297140866518020629882812500000000000
0.05029105395078659057617187500000000000
0.05455368384718894958496093750000000000
0.06451825797557830810546875000000000000
0.05439052730798721313476562500000000000
-0.08101394027471542358398437500000000000
0.00389724457636475563049316406250000000
0.05447207018733024597167968750000000000
0.06757871806621551513671875000000000000
-0.05253202095627784729003906250000000000
0.00998840387910604476928710937500000000
0.05622369796037673950195312500000000000
-0.04364462941884994506835937500000000000
-0.11465606838464736938476562500000000000
0.05704389512538909912109375000000000000
-0.03566620498895645141601562500000000000
0.07762765884399414062500000000000000000
-0.19188463687896728515625000000000000000
-0.15961404144763946533203125000000000000
0.00694912578910589218139648437500000000
-0.13547766208648681640625000000000000000
0.00509228045120835304260253906250000000
-0.21548658609390258789062500000000000000
-0.03623647242784500122070312500000000000
-0.26675492525100708007812500000000000000
-0.14197936654090881347656250000000000000
0.07775961607694625854492187500000000000
-0.14120826125144958496093750000000000000
0.00180275214370340108871459960937500000
0.09317020326852798461914062500000000000
0.22051805257797241210937500000000000000
0.10304202139377593994140625000000000000
0.00417865486815571784973144531250000000
0.01858638040721416473388671875000000000
0.06394051760435104370117187500000000000
0.04284581542015075683593750000000000000
0.00165905745234340429306030273437500000
0.18845395743846893310546875000000000000
0.22435359656810760498046875000000000000
0.04280566051602363586425781250000000000
-0.01455979701131582260131835937500000000
0.05347448587417602539062500000000000000
0.03555927798151969909667968750000000000
0.17598284780979156494140625000000000000
0.23699668049812316894531250000000000000
0.07260838896036148071289062500000000000
0.03841007500886917114257812500000000000
-0.01221187505871057510375976562500000000
-0.04427330195903778076171875000000000000
0.03442903980612754821777343750000000000
-0.01104998588562011718750000000000000000
0.02589829266071319580078125000000000000
0.16889259219169616699218750000000000000
0.05476656928658485412597656250000000000
-0.01514030247926712036132812500000000000
0.11118767410516738891601562500000000000
-0.04763795807957649230957031250000000000
0.05091201141476631164550781250000000000
-0.01266926620155572891235351562500000000
0.01325257588177919387817382812500000000
0.04178677126765251159667968750000000000
0.01068794913589954376220703125000000000
0.04766312986612319946289062500000000000
-0.14896622300148010253906250000000000000
-0.09894303232431411743164062500000000000
0.00109984318260103464126586914062500000
-0.06197426095604896545410156250000000000
0.03609374538064002990722656250000000000
0.14469861984252929687500000000000000000
0.08531950414180755615234375000000000000
0.00597900385037064552307128906250000000
0.00990551430732011795043945312500000000
0.12574809789657592773437500000000000000
0.05653012171387672424316406250000000000
0.13649506866931915283203125000000000000
0.29551020264625549316406250000000000000
0.00255772517994046211242675781250000000
0.00018599870963953435420989990234375000
0.01928588189184665679931640625000000000
-0.03829746320843696594238281250000000000
-0.02560988813638687133789062500000000000
0.04287714138627052307128906250000000000
0.08573967218399047851562500000000000000
0.14244273304939270019531250000000000000
0.13298203051090240478515625000000000000
0.15927222371101379394531250000000000000
0.07007957249879837036132812500000000000
0.01694735139608383178710937500000000000
0.04844177886843681335449218750000000000
-0.01071821153163909912109375000000000000
0.04787809401750564575195312500000000000
0.01125380396842956542968750000000000000
0.01579404808580875396728515625000000000
-0.09542840719223022460937500000000000000
-0.07079237699508666992187500000000000000
0.04674959927797317504882812500000000000
-0.03194926679134368896484375000000000000
0.07274024933576583862304687500000000000
-0.13448309898376464843750000000000000000
-0.10930233448743820190429687500000000000
0.05361440405249595642089843750000000000
0.04365560039877891540527343750000000000
0.01310165412724018096923828125000000000
0.09463142603635787963867187500000000000
0.09702242165803909301757812500000000000
0.07075747847557067871093750000000000000
0.06128745526075363159179687500000000000
0.11396801471710205078125000000000000000
0.10295952856540679931640625000000000000
0.13574957847595214843750000000000000000
0.16765446960926055908203125000000000000
-0.02243134379386901855468750000000000000
-0.00951268337666988372802734375000000000
-0.15642204880714416503906250000000000000
-0.11869379878044128417968750000000000000
0.07651706784963607788085937500000000000
